{"learner":{"attributes":{"scikit_learn":"{\"n_estimators\": 100, \"objective\": \"multi:softprob\", \"max_depth\": null, \"learning_rate\": null, \"verbosity\": null, \"booster\": null, \"tree_method\": null, \"gamma\": null, \"min_child_weight\": null, \"max_delta_step\": null, \"subsample\": null, \"colsample_bytree\": null, \"colsample_bylevel\": null, \"colsample_bynode\": null, \"reg_alpha\": null, \"reg_lambda\": null, \"scale_pos_weight\": null, \"base_score\": null, \"missing\": NaN, \"num_parallel_tree\": null, \"kwargs\": {}, \"random_state\": null, \"n_jobs\": null, \"monotone_constraints\": null, \"interaction_constraints\": null, \"importance_type\": \"gain\", \"gpu_id\": null, \"validate_parameters\": false, \"classes_\": [\"bus complaints\", \"bus fees\", \"bus ticket booking\", \"bus times\", \"distance places\", \"greeting\", \"home page\", \"options\", \"train complaints\", \"train fees\", \"train ticket booking\", \"train times\"], \"n_classes_\": 12, \"_le\": {\"classes_\": [\"bus complaints\", \"bus fees\", \"bus ticket booking\", \"bus times\", \"distance places\", \"greeting\", \"home page\", \"options\", \"train complaints\", \"train fees\", \"train ticket booking\", \"train times\"]}, \"_features_count\": 400, \"type\": \"XGBClassifier\"}"},"gradient_booster":{"model":{"gbtree_model_param":{"num_trees":"1200","size_leaf_vector":"0"},"tree_info":[0,1,2,3,4,5,6,7,8,9,10,11,0,1,2,3,4,5,6,7,8,9,10,11,0,1,2,3,4,5,6,7,8,9,10,11,0,1,2,3,4,5,6,7,8,9,10,11,0,1,2,3,4,5,6,7,8,9,10,11,0,1,2,3,4,5,6,7,8,9,10,11,0,1,2,3,4,5,6,7,8,9,10,11,0,1,2,3,4,5,6,7,8,9,10,11,0,1,2,3,4,5,6,7,8,9,10,11,0,1,2,3,4,5,6,7,8,9,10,11,0,1,2,3,4,5,6,7,8,9,10,11,0,1,2,3,4,5,6,7,8,9,10,11,0,1,2,3,4,5,6,7,8,9,10,11,0,1,2,3,4,5,6,7,8,9,10,11,0,1,2,3,4,5,6,7,8,9,10,11,0,1,2,3,4,5,6,7,8,9,10,11,0,1,2,3,4,5,6,7,8,9,10,11,0,1,2,3,4,5,6,7,8,9,10,11,0,1,2,3,4,5,6,7,8,9,10,11,0,1,2,3,4,5,6,7,8,9,10,11,0,1,2,3,4,5,6,7,8,9,10,11,0,1,2,3,4,5,6,7,8,9,10,11,0,1,2,3,4,5,6,7,8,9,10,11,0,1,2,3,4,5,6,7,8,9,10,11,0,1,2,3,4,5,6,7,8,9,10,11,0,1,2,3,4,5,6,7,8,9,10,11,0,1,2,3,4,5,6,7,8,9,10,11,0,1,2,3,4,5,6,7,8,9,10,11,0,1,2,3,4,5,6,7,8,9,10,11,0,1,2,3,4,5,6,7,8,9,10,11,0,1,2,3,4,5,6,7,8,9,10,11,0,1,2,3,4,5,6,7,8,9,10,11,0,1,2,3,4,5,6,7,8,9,10,11,0,1,2,3,4,5,6,7,8,9,10,11,0,1,2,3,4,5,6,7,8,9,10,11,0,1,2,3,4,5,6,7,8,9,10,11,0,1,2,3,4,5,6,7,8,9,10,11,0,1,2,3,4,5,6,7,8,9,10,11,0,1,2,3,4,5,6,7,8,9,10,11,0,1,2,3,4,5,6,7,8,9,10,11,0,1,2,3,4,5,6,7,8,9,10,11,0,1,2,3,4,5,6,7,8,9,10,11,0,1,2,3,4,5,6,7,8,9,10,11,0,1,2,3,4,5,6,7,8,9,10,11,0,1,2,3,4,5,6,7,8,9,10,11,0,1,2,3,4,5,6,7,8,9,10,11,0,1,2,3,4,5,6,7,8,9,10,11,0,1,2,3,4,5,6,7,8,9,10,11,0,1,2,3,4,5,6,7,8,9,10,11,0,1,2,3,4,5,6,7,8,9,10,11,0,1,2,3,4,5,6,7,8,9,10,11,0,1,2,3,4,5,6,7,8,9,10,11,0,1,2,3,4,5,6,7,8,9,10,11,0,1,2,3,4,5,6,7,8,9,10,11,0,1,2,3,4,5,6,7,8,9,10,11,0,1,2,3,4,5,6,7,8,9,10,11,0,1,2,3,4,5,6,7,8,9,10,11,0,1,2,3,4,5,6,7,8,9,10,11,0,1,2,3,4,5,6,7,8,9,10,11,0,1,2,3,4,5,6,7,8,9,10,11,0,1,2,3,4,5,6,7,8,9,10,11,0,1,2,3,4,5,6,7,8,9,10,11,0,1,2,3,4,5,6,7,8,9,10,11,0,1,2,3,4,5,6,7,8,9,10,11,0,1,2,3,4,5,6,7,8,9,10,11,0,1,2,3,4,5,6,7,8,9,10,11,0,1,2,3,4,5,6,7,8,9,10,11,0,1,2,3,4,5,6,7,8,9,10,11,0,1,2,3,4,5,6,7,8,9,10,11,0,1,2,3,4,5,6,7,8,9,10,11,0,1,2,3,4,5,6,7,8,9,10,11,0,1,2,3,4,5,6,7,8,9,10,11,0,1,2,3,4,5,6,7,8,9,10,11,0,1,2,3,4,5,6,7,8,9,10,11,0,1,2,3,4,5,6,7,8,9,10,11,0,1,2,3,4,5,6,7,8,9,10,11,0,1,2,3,4,5,6,7,8,9,10,11,0,1,2,3,4,5,6,7,8,9,10,11,0,1,2,3,4,5,6,7,8,9,10,11,0,1,2,3,4,5,6,7,8,9,10,11,0,1,2,3,4,5,6,7,8,9,10,11,0,1,2,3,4,5,6,7,8,9,10,11,0,1,2,3,4,5,6,7,8,9,10,11,0,1,2,3,4,5,6,7,8,9,10,11,0,1,2,3,4,5,6,7,8,9,10,11,0,1,2,3,4,5,6,7,8,9,10,11,0,1,2,3,4,5,6,7,8,9,10,11,0,1,2,3,4,5,6,7,8,9,10,11,0,1,2,3,4,5,6,7,8,9,10,11,0,1,2,3,4,5,6,7,8,9,10,11,0,1,2,3,4,5,6,7,8,9,10,11,0,1,2,3,4,5,6,7,8,9,10,11,0,1,2,3,4,5,6,7,8,9,10,11,0,1,2,3,4,5,6,7,8,9,10,11,0,1,2,3,4,5,6,7,8,9,10,11,0,1,2,3,4,5,6,7,8,9,10,11,0,1,2,3,4,5,6,7,8,9,10,11,0,1,2,3,4,5,6,7,8,9,10,11,0,1,2,3,4,5,6,7,8,9,10,11,0,1,2,3,4,5,6,7,8,9,10,11],"trees":[{"base_weights":[3.35025370121002197e-01,1.84115517139434814e+00,-1.98077723383903503e-01,2.12382221221923828e+00,-2.99999982118606567e-01,1.65100669860839844e+00,-3.10880810022354126e-01,1.22766566276550293e+00,2.46153831481933594e+00,-3.99285376071929932e-01,1.16778516769409180e+00,2.43956041336059570e+00,-7.59493634104728699e-02,2.01342269778251648e-01,-4.27382022142410278e-01,-2.99999982118606567e-01,2.01342269778251648e-01],"default_left":[false,true,false,false,false,false,true,false,false,false,false,false,false,false,false,false,false],"id":0,"leaf_child_counts":[0,1,1,1,0,0,1,1,0,2,0,0,2,0,0,0,0],"left_children":[1,3,5,7,-1,-1,9,11,-1,13,-1,-1,15,-1,-1,-1,-1],"loss_changes":[3.55148544311523438e+01,7.62255859375000000e+00,7.44573640823364258e+00,1.01196289062500000e-01,0.00000000000000000e+00,0.00000000000000000e+00,4.67113304138183594e+00,7.79925489425659180e+00,0.00000000000000000e+00,6.10835552215576172e-01,0.00000000000000000e+00,0.00000000000000000e+00,2.64905273914337158e-01,0.00000000000000000e+00,0.00000000000000000e+00,0.00000000000000000e+00,0.00000000000000000e+00],"parents":[2147483647,0,0,1,1,2,2,3,3,6,6,7,7,9,9,12,12],"right_children":[2,4,6,8,-1,-1,10,12,-1,14,-1,-1,16,-1,-1,-1,-1],"split_conditions":[3.07932317256927490e-01,2.78367519378662109e-01,7.94315218925476074e-01,2.00932562351226807e-01,-8.99999961256980896e-02,4.95302021503448486e-01,3.65094125270843506e-01,1.73996821045875549e-01,7.38461494445800781e-01,2.79590725898742676e-01,3.50335568189620972e-01,7.31868147850036621e-01,1.92704632878303528e-01,6.04026839137077332e-02,-1.28214612603187561e-01,-8.99999961256980896e-02,6.04026839137077332e-02],"split_indices":[35,382,18,35,0,0,221,35,0,382,0,0,35,0,0,0,0],"sum_hessian":[4.27777824401855469e+01,1.05416679382324219e+01,3.22361145019531250e+01,9.31944561004638672e+00,1.22222232818603516e+00,1.06944453716278076e+00,3.11666698455810547e+01,3.81944465637207031e+00,5.50000047683715820e+00,3.00972251892089844e+01,1.06944453716278076e+00,1.52777791023254395e+00,2.29166698455810547e+00,1.06944453716278076e+00,2.90277805328369141e+01,1.22222232818603516e+00,1.06944453716278076e+00],"tree_param":{"num_feature":"400","num_nodes":"17","size_leaf_vector":"0"}},{"base_weights":[-1.21827408671379089e-01,-5.29118120670318604e-01,1.08292675018310547e+00,7.07350850105285645e-01,2.21052622795104980e+00,1.47982060909271240e+00,-4.32276636362075806e-01,1.98139524459838867e+00,7.72277176380157471e-01,-3.52941155433654785e-01,1.78947365283966064e+00],"default_left":[true,false,false,false,false,false,false,false,false,false,false],"id":1,"leaf_child_counts":[1,0,1,1,0,1,0,0,2,0,0],"left_children":[1,-1,3,5,-1,7,-1,-1,9,-1,-1],"loss_changes":[2.20541038513183594e+01,0.00000000000000000e+00,3.25956821441650391e+00,9.45519638061523438e+00,0.00000000000000000e+00,6.68134689331054688e-01,0.00000000000000000e+00,0.00000000000000000e+00,5.44830322265625000e+00,0.00000000000000000e+00,0.00000000000000000e+00],"parents":[2147483647,0,0,2,2,3,3,5,5,8,8],"right_children":[2,-1,4,6,-1,8,-1,-1,10,-1,-1],"split_conditions":[1.73996821045875549e-01,-1.58735439181327820e-01,3.07932317256927490e-01,2.18940287828445435e-01,6.63157880306243896e-01,1.95791184902191162e-01,-1.29683002829551697e-01,5.94418585300445557e-01,2.10032925009727478e-01,-1.05882354080677032e-01,5.36842107772827148e-01],"split_indices":[35,0,35,35,0,35,0,0,35,0,0],"sum_hessian":[4.27777824401855469e+01,3.23888931274414062e+01,1.03888893127441406e+01,9.01388931274414062e+00,1.37500011920928955e+00,5.19444465637207031e+00,3.81944465637207031e+00,1.98611128330230713e+00,3.20833349227905273e+00,1.83333349227905273e+00,1.37500011920928955e+00],"tree_param":{"num_feature":"400","num_nodes":"11","size_leaf_vector":"0"}},{"base_weights":[-2.13197961449623108e-01,3.10067105293273926e+00,-3.68780463933944702e-01,-5.29192507266998291e-01,1.96721300482749939e-01,-3.41968894004821777e-01,3.43698829412460327e-01,4.38413321971893311e-01,-2.62961652452986527e-09,1.67597755789756775e-01,7.77202069759368896e-01,5.31645536422729492e-01,-3.41968894004821777e-01],"default_left":[false,false,true,false,false,false,false,false,false,false,false,false,false],"id":2,"leaf_child_counts":[1,0,1,0,1,0,1,1,0,2,0,0,0],"left_children":[1,-1,3,-1,5,-1,7,9,-1,11,-1,-1,-1],"loss_changes":[2.37144184112548828e+01,0.00000000000000000e+00,3.97831726074218750e+00,0.00000000000000000e+00,9.22483921051025391e-01,0.00000000000000000e+00,2.76250600814819336e-01,4.80130076408386230e-01,0.00000000000000000e+00,1.10418641567230225e+00,0.00000000000000000e+00,0.00000000000000000e+00,0.00000000000000000e+00],"parents":[2147483647,0,0,2,2,4,4,6,6,7,7,9,9],"right_children":[2,-1,4,-1,6,-1,8,10,-1,12,-1,-1,-1],"split_conditions":[1.03013491630554199e+00,9.30201351642608643e-01,1.77498131990432739e-01,-1.58757761120796204e-01,3.14474999904632568e-01,-1.02590672671794891e-01,2.92387962341308594e-01,2.33362391591072083e-01,-7.88885012870110813e-10,2.08039775490760803e-01,2.33160629868507385e-01,1.59493669867515564e-01,-1.02590672671794891e-01],"split_indices":[23,0,35,0,382,0,35,35,0,35,0,0,0],"sum_hessian":[4.27777824401855469e+01,1.06944453716278076e+00,4.17083358764648438e+01,3.25416679382324219e+01,9.16666793823242188e+00,1.68055570125579834e+00,7.48611164093017578e+00,5.65277814865112305e+00,1.83333349227905273e+00,3.97222256660461426e+00,1.68055570125579834e+00,2.29166698455810547e+00,1.68055570125579834e+00],"tree_param":{"num_feature":"400","num_nodes":"13","size_leaf_vector":"0"}},{"base_weights":[3.80710586905479431e-02,-3.43883633613586426e-01,1.04288935661315918e+00,6.84563755989074707e-01,-4.00707632303237915e-01,-2.81879186630249023e-01,1.19406664371490479e+00,-4.91803258657455444e-01,-3.41036826372146606e-01,1.41614902019500732e+00,2.27848082780838013e-01,-2.99999982118606567e-01,6.84563755989074707e-01],"default_left":[true,false,false,false,false,false,false,false,false,false,false,false,false],"id":3,"leaf_child_counts":[0,1,1,0,2,0,1,0,0,0,2,0,0],"left_children":[1,3,5,-1,7,-1,9,-1,-1,-1,11,-1,-1],"loss_changes":[1.71603279113769531e+01,2.17200207710266113e+00,2.80107784271240234e+00,0.00000000000000000e+00,2.97498703002929688e-03,0.00000000000000000e+00,2.08837890625000000e+00,0.00000000000000000e+00,0.00000000000000000e+00,0.00000000000000000e+00,9.98912572860717773e-01,0.00000000000000000e+00,0.00000000000000000e+00],"parents":[2147483647,0,0,1,1,2,2,4,4,6,6,10,10],"right_children":[2,4,6,-1,8,-1,10,-1,-1,-1,12,-1,-1],"split_conditions":[1.56779110431671143e-01,3.81250381469726562e-01,8.88094305992126465e-01,2.05369129776954651e-01,7.22592473030090332e-01,-8.45637619495391846e-02,2.77365505695343018e-01,-1.47540986537933350e-01,-1.02311052381992340e-01,4.24844712018966675e-01,3.13269138336181641e-01,-8.99999961256980896e-02,2.05369129776954651e-01],"split_indices":[35,334,22,0,346,0,35,0,0,0,35,0,0],"sum_hessian":[4.27777824401855469e+01,3.14722251892089844e+01,1.13055562973022461e+01,1.06944453716278076e+00,3.04027805328369141e+01,1.06944453716278076e+00,1.02361116409301758e+01,9.16666793823242188e+00,2.12361125946044922e+01,7.94444513320922852e+00,2.29166698455810547e+00,1.22222232818603516e+00,1.06944453716278076e+00],"tree_param":{"num_feature":"400","num_nodes":"13","size_leaf_vector":"0"}},{"base_weights":[-5.32994940876960754e-02,3.10067105293273926e+00,-2.04878047108650208e-01,3.10067105293273926e+00,-3.64242821931838989e-01,-4.33413177728652954e-01,1.16778516769409180e+00],"default_left":[false,false,false,false,true,false,false],"id":4,"leaf_child_counts":[1,0,1,0,2,0,0],"left_children":[1,-1,3,-1,5,-1,-1],"loss_changes":[2.15642910003662109e+01,0.00000000000000000e+00,2.36276397705078125e+01,0.00000000000000000e+00,4.91864633560180664e+00,0.00000000000000000e+00,0.00000000000000000e+00],"parents":[2147483647,0,0,2,2,4,4],"right_children":[2,-1,4,-1,6,-1,-1],"split_conditions":[2.00000095367431641e+00,9.30201351642608643e-01,2.00000095367431641e+00,9.30201351642608643e-01,2.96839028596878052e-01,-1.30023956298828125e-01,3.50335568189620972e-01],"split_indices":[131,0,204,0,4,0,0],"sum_hessian":[4.27777824401855469e+01,1.06944453716278076e+00,4.17083358764648438e+01,1.06944453716278076e+00,4.06388931274414062e+01,3.95694465637207031e+01,1.06944453716278076e+00],"tree_param":{"num_feature":"400","num_nodes":"7","size_leaf_vector":"0"}},{"base_weights":[-7.61421676725149155e-03,-5.03225803375244141e-01,1.93548366427421570e-01,-4.93368685245513916e-01,5.06203413009643555e-01,-3.29670310020446777e-01,5.83222329616546631e-01,-3.15789461135864258e-01,6.62865221500396729e-01,-2.99999982118606567e-01,7.43726193904876709e-01],"default_left":[false,false,false,false,false,false,false,false,false,false,false],"id":5,"leaf_child_counts":[1,0,1,0,1,0,1,0,2,0,0],"left_children":[1,-1,3,-1,5,-1,7,-1,9,-1,-1],"loss_changes":[4.46197795867919922e+00,0.00000000000000000e+00,7.09249591827392578e+00,0.00000000000000000e+00,1.63362503051757812e+00,0.00000000000000000e+00,1.70298004150390625e+00,0.00000000000000000e+00,1.74027061462402344e+00,0.00000000000000000e+00,0.00000000000000000e+00],"parents":[2147483647,0,0,2,2,4,4,6,6,8,8],"right_children":[2,-1,4,-1,6,-1,8,-1,10,-1,-1],"split_conditions":[6.76442861557006836e-01,-1.50967746973037720e-01,7.22592473030090332e-01,-1.48010611534118652e-01,8.81320118904113770e-01,-9.89011004567146301e-02,2.00000095367431641e+00,-9.47368443012237549e-02,8.04139792919158936e-01,-8.99999961256980896e-02,2.23117873072624207e-01],"split_indices":[35,0,346,0,382,0,70,0,4,0,0],"sum_hessian":[4.27777824401855469e+01,1.19166679382324219e+01,3.08611145019531250e+01,9.47222328186035156e+00,2.13888912200927734e+01,1.52777791023254395e+00,1.98611125946044922e+01,1.37500011920928955e+00,1.84861125946044922e+01,1.22222232818603516e+00,1.72638912200927734e+01],"tree_param":{"num_feature":"400","num_nodes":"11","size_leaf_vector":"0"}},{"base_weights":[3.80710631608963013e-01,3.47368407249450684e+00,1.98493272066116333e-01,-5.03225803375244141e-01,4.89293813705444336e-01,-4.93368685245513916e-01,9.55717027187347412e-01,-2.99999982118606567e-01,1.04842102527618408e+00,1.94999992847442627e+00,8.84068727493286133e-01],"default_left":[false,false,false,false,false,false,false,false,false,false,false],"id":6,"leaf_child_counts":[1,0,1,0,1,0,1,0,2,0,0],"left_children":[1,-1,3,-1,5,-1,7,-1,9,-1,-1],"loss_changes":[2.39833698272705078e+01,0.00000000000000000e+00,8.89894866943359375e+00,0.00000000000000000e+00,1.44444246292114258e+01,0.00000000000000000e+00,2.76075172424316406e+00,0.00000000000000000e+00,1.20872688293457031e+00,0.00000000000000000e+00,0.00000000000000000e+00],"parents":[2147483647,0,0,2,2,4,4,6,6,8,8],"right_children":[2,-1,4,-1,6,-1,8,-1,10,-1,-1],"split_conditions":[2.00000095367431641e+00,1.04210531711578369e+00,6.76442861557006836e-01,-1.50967746973037720e-01,7.22592473030090332e-01,-1.48010611534118652e-01,8.04139792919158936e-01,-8.99999961256980896e-02,4.07875627279281616e-01,5.84999978542327881e-01,2.65220642089843750e-01],"split_indices":[70,0,35,0,346,0,4,0,382,0,0],"sum_hessian":[4.27777824401855469e+01,1.37500011920928955e+00,4.14027824401855469e+01,1.19166679382324219e+01,2.94861145019531250e+01,9.47222328186035156e+00,2.00138912200927734e+01,1.22222232818603516e+00,1.87916679382324219e+01,1.22222232818603516e+00,1.75694465637207031e+01],"tree_param":{"num_feature":"400","num_nodes":"11","size_leaf_vector":"0"}},{"base_weights":[8.37563350796699524e-02,-5.03225803375244141e-01,3.19093257188796997e-01,-4.93368685245513916e-01,6.84863507747650146e-01,-3.29670310020446777e-01,7.74966657161712646e-01,-3.15789461135864258e-01,8.68139624595642090e-01,-2.99999982118606567e-01,9.62737560272216797e-01],"default_left":[false,false,false,false,false,false,false,false,false,false,false],"id":7,"leaf_child_counts":[1,0,1,0,1,0,1,0,2,0,0],"left_children":[1,-1,3,-1,5,-1,7,-1,9,-1,-1],"loss_changes":[6.20797586441040039e+00,0.00000000000000000e+00,9.80619621276855469e+00,0.00000000000000000e+00,2.30211353302001953e+00,0.00000000000000000e+00,2.39424324035644531e+00,0.00000000000000000e+00,2.44210815429687500e+00,0.00000000000000000e+00,0.00000000000000000e+00],"parents":[2147483647,0,0,2,2,4,4,6,6,8,8],"right_children":[2,-1,4,-1,6,-1,8,-1,10,-1,-1],"split_conditions":[6.76442861557006836e-01,-1.50967746973037720e-01,7.22592473030090332e-01,-1.48010611534118652e-01,8.81320118904113770e-01,-9.89011004567146301e-02,2.00000095367431641e+00,-9.47368443012237549e-02,8.04139792919158936e-01,-8.99999961256980896e-02,2.88821280002593994e-01],"split_indices":[35,0,346,0,382,0,70,0,4,0,0],"sum_hessian":[4.27777824401855469e+01,1.19166679382324219e+01,3.08611145019531250e+01,9.47222328186035156e+00,2.13888912200927734e+01,1.52777791023254395e+00,1.98611125946044922e+01,1.37500011920928955e+00,1.84861125946044922e+01,1.22222232818603516e+00,1.72638912200927734e+01],"tree_param":{"num_feature":"400","num_nodes":"11","size_leaf_vector":"0"}},{"base_weights":[1.97969526052474976e-01,2.04274797439575195e+00,-2.77929127216339111e-01,-2.81879186630249023e-01,2.38754320144653320e+00,-3.27447831630706787e-01,6.84563755989074707e-01,5.99999964237213135e-01,2.62040805816650391e+00,-5.02202630043029785e-01,-2.17391297221183777e-01],"default_left":[false,false,true,false,false,false,false,false,false,false,false],"id":8,"leaf_child_counts":[0,1,1,0,2,2,0,0,0,0,0],"left_children":[1,3,5,-1,7,9,-1,-1,-1,-1,-1],"loss_changes":[3.90014610290527344e+01,7.96460723876953125e+00,1.92474317550659180e+00,0.00000000000000000e+00,1.76936340332031250e+00,5.56498050689697266e-01,0.00000000000000000e+00,0.00000000000000000e+00,0.00000000000000000e+00,0.00000000000000000e+00,0.00000000000000000e+00],"parents":[2147483647,0,0,1,1,2,2,4,4,5,5],"right_children":[2,4,6,-1,8,10,-1,-1,-1,-1,-1],"split_conditions":[3.12859773635864258e-01,8.95074963569641113e-01,3.66630852222442627e-01,-8.45637619495391846e-02,6.55186116695404053e-01,6.76442861557006836e-01,2.05369129776954651e-01,1.79999992251396179e-01,7.86122441291809082e-01,-1.50660797953605652e-01,-6.52173906564712524e-02],"split_indices":[346,22,221,0,382,35,0,0,0,0,0],"sum_hessian":[4.27777824401855469e+01,8.09722328186035156e+00,3.46805572509765625e+01,1.06944453716278076e+00,7.02777862548828125e+00,3.36111145019531250e+01,1.06944453716278076e+00,1.22222232818603516e+00,5.80555629730224609e+00,1.16111125946044922e+01,2.20000019073486328e+01],"tree_param":{"num_feature":"400","num_nodes":"11","size_leaf_vector":"0"}},{"base_weights":[-2.58883237838745117e-01,-5.30035316944122314e-01,7.88773953914642334e-01,1.64835155010223389e+00,4.12698388099670410e-01,-1.25260986387729645e-02,1.50000000000000000e+00,4.40154433250427246e-01,-4.10958886146545410e-01,-3.29670310020446777e-01,1.16778516769409180e+00],"default_left":[true,false,false,false,false,false,false,false,false,false,false],"id":9,"leaf_child_counts":[1,0,1,0,1,1,0,2,0,0,0],"left_children":[1,-1,3,-1,5,7,-1,9,-1,-1,-1],"loss_changes":[1.28542251586914062e+01,0.00000000000000000e+00,2.35932731628417969e+00,0.00000000000000000e+00,3.65977406501770020e+00,1.38079881668090820e+00,0.00000000000000000e+00,2.39996170997619629e+00,0.00000000000000000e+00,0.00000000000000000e+00,0.00000000000000000e+00],"parents":[2147483647,0,0,2,2,4,4,5,5,7,7],"right_children":[2,-1,4,-1,6,8,-1,10,-1,-1,-1],"split_conditions":[1.90383851528167725e-01,-1.59010604023933411e-01,2.16429620981216431e-01,4.94505494832992554e-01,3.20472627878189087e-01,2.39578723907470703e-01,4.50000017881393433e-01,2.31013432145118713e-01,-1.23287670314311981e-01,-9.89011004567146301e-02,3.50335568189620972e-01],"split_indices":[346,0,346,0,346,346,0,346,0,0,0],"sum_hessian":[4.27777824401855469e+01,3.43750038146972656e+01,8.40277862548828125e+00,1.52777791023254395e+00,6.87500047683715820e+00,5.65277814865112305e+00,1.22222232818603516e+00,2.59722232818603516e+00,3.05555582046508789e+00,1.52777791023254395e+00,1.06944453716278076e+00],"tree_param":{"num_feature":"400","num_nodes":"11","size_leaf_vector":"0"}},{"base_weights":[-2.13197961449623108e-01,3.10067105293273926e+00,-3.68780463933944702e-01,-4.81012642383575439e-01,7.72277176380157471e-01,5.94059340655803680e-02,-5.30424773693084717e-01,1.16778516769409180e+00,2.65486717224121094e-01,-3.15789461135864258e-01,3.52941155433654785e-01],"default_left":[false,false,true,false,false,false,false,false,false,false,false],"id":10,"leaf_child_counts":[1,0,0,1,2,2,0,0,0,0,0],"left_children":[1,-1,3,5,7,9,-1,-1,-1,-1,-1],"loss_changes":[2.37144184112548828e+01,0.00000000000000000e+00,5.84084892272949219e+00,1.08628845214843750e+00,5.33485651016235352e-01,5.74931740760803223e-01,0.00000000000000000e+00,0.00000000000000000e+00,0.00000000000000000e+00,0.00000000000000000e+00,0.00000000000000000e+00],"parents":[2147483647,0,0,2,2,3,3,4,4,5,5],"right_children":[2,-1,4,6,8,10,-1,-1,-1,-1,-1],"split_conditions":[1.03823208808898926e+00,9.30201351642608643e-01,2.43385836482048035e-01,2.23422229290008545e-01,2.81768381595611572e-01,1.97270840406417847e-01,-1.59127444028854370e-01,3.50335568189620972e-01,7.96460211277008057e-02,-9.47368443012237549e-02,1.05882354080677032e-01],"split_indices":[24,0,346,346,346,346,0,0,0,0,0],"sum_hessian":[4.27777824401855469e+01,1.06944453716278076e+00,4.17083358764648438e+01,3.85000038146972656e+01,3.20833349227905273e+00,3.20833349227905273e+00,3.52916679382324219e+01,1.06944453716278076e+00,2.13888907432556152e+00,1.37500011920928955e+00,1.83333349227905273e+00],"tree_param":{"num_feature":"400","num_nodes":"11","size_leaf_vector":"0"}},{"base_weights":[-1.67512685060501099e-01,-4.44356411695480347e-01,8.49785327911376953e-01,6.84563755989074707e-01,-4.99999970197677612e-01,-2.81879186630249023e-01,1.02250802516937256e+00,1.49999991059303284e-01,1.14606738090515137e+00,1.43515849113464355e+00,4.40154433250427246e-01,-3.15789461135864258e-01,1.04999995231628418e+00],"default_left":[true,false,false,false,false,false,false,false,false,false,false,false,false],"id":11,"leaf_child_counts":[0,2,1,0,0,0,1,0,1,0,2,0,0],"left_children":[1,3,5,-1,-1,-1,7,-1,9,-1,11,-1,-1],"loss_changes":[1.27068576812744141e+01,2.54524469375610352e+00,2.18585443496704102e+00,0.00000000000000000e+00,0.00000000000000000e+00,0.00000000000000000e+00,7.59418487548828125e-01,0.00000000000000000e+00,8.81851196289062500e-01,0.00000000000000000e+00,1.98993110656738281e+00,0.00000000000000000e+00,0.00000000000000000e+00],"parents":[2147483647,0,0,1,1,2,2,6,6,8,8,10,10],"right_children":[2,4,6,-1,-1,-1,8,-1,10,-1,12,-1,-1],"split_conditions":[1.84253752231597900e-01,3.70756208896636963e-01,8.95074963569641113e-01,2.05369129776954651e-01,-1.49999991059303284e-01,-8.45637619495391846e-02,2.08973795175552368e-01,4.49999980628490448e-02,2.57938802242279053e-01,4.30547565221786499e-01,3.20472627878189087e-01,-9.47368443012237549e-02,3.14999997615814209e-01],"split_indices":[346,334,22,0,0,0,346,0,346,0,346,0,0],"sum_hessian":[4.27777824401855469e+01,3.40694465637207031e+01,8.70833396911621094e+00,1.06944453716278076e+00,3.30000038146972656e+01,1.06944453716278076e+00,7.63888931274414062e+00,1.22222232818603516e+00,6.41666698455810547e+00,3.81944465637207031e+00,2.59722232818603516e+00,1.37500011920928955e+00,1.22222232818603516e+00],"tree_param":{"num_feature":"400","num_nodes":"13","size_leaf_vector":"0"}},{"base_weights":[2.59989112615585327e-01,1.01657819747924805e+00,-1.69306889176368713e-01,-3.59068751335144043e-01,1.18037998676300049e+00,2.52427005767822266e+00,-3.55981349945068359e-01,-3.01974654197692871e-01,1.32280647754669189e+00,-4.52868342399597168e-01,1.19332885742187500e+00],"default_left":[false,false,false,false,false,false,true,false,false,false,false],"id":12,"leaf_child_counts":[0,1,1,0,2,0,2,0,0,0,0],"left_children":[1,3,5,-1,7,-1,9,-1,-1,-1,-1],"loss_changes":[1.54629268646240234e+01,4.29620552062988281e+00,1.64320087432861328e+01,0.00000000000000000e+00,3.69087028503417969e+00,0.00000000000000000e+00,5.00863742828369141e+00,0.00000000000000000e+00,0.00000000000000000e+00,0.00000000000000000e+00,0.00000000000000000e+00],"parents":[2147483647,0,0,1,1,2,2,4,4,6,6],"right_children":[2,4,6,-1,8,-1,10,-1,-1,-1,-1],"split_conditions":[3.07932317256927490e-01,8.88094305992126465e-01,1.04735445976257324e+00,-1.07720628380775452e-01,8.46738994121551514e-01,7.57281064987182617e-01,4.45785015821456909e-01,-9.05923992395401001e-02,3.96841973066329956e-01,-1.35860502719879150e-01,3.57998669147491455e-01],"split_indices":[35,22,104,0,160,0,221,0,0,0,0],"sum_hessian":[4.60775337219238281e+01,1.61850585937500000e+01,2.98924732208251953e+01,1.59529495239257812e+00,1.45897636413574219e+01,1.12579274177551270e+00,2.87666816711425781e+01,1.18072640895843506e+00,1.34090375900268555e+01,2.77396621704101562e+01,1.02701854705810547e+00],"tree_param":{"num_feature":"400","num_nodes":"11","size_leaf_vector":"0"}},{"base_weights":[-1.02047935128211975e-01,-5.19484996795654297e-01,7.81422793865203857e-01,2.06791639328002930e+00,4.57462161779403687e-01,1.10711902379989624e-01,1.30723130702972412e+00,9.96385812759399414e-01,-3.37324172258377075e-01,-1.70917659997940063e-01,-4.12717401981353760e-01,-3.70239496231079102e-01,1.98465719819068909e-01],"default_left":[true,false,false,false,false,false,false,false,false,false,false,false,false],"id":13,"leaf_child_counts":[1,0,1,0,1,1,0,0,1,2,0,0,0],"left_children":[1,-1,3,-1,5,7,-1,-1,9,11,-1,-1,-1],"loss_changes":[1.57528142929077148e+01,0.00000000000000000e+00,4.78563880920410156e+00,0.00000000000000000e+00,3.47072720527648926e+00,4.22754001617431641e+00,0.00000000000000000e+00,0.00000000000000000e+00,2.05351114273071289e-02,3.65800619125366211e-01,0.00000000000000000e+00,0.00000000000000000e+00,0.00000000000000000e+00],"parents":[2147483647,0,0,2,2,4,4,5,5,8,8,9,9],"right_children":[2,-1,4,-1,6,8,-1,-1,10,12,-1,-1,-1],"split_conditions":[1.73996821045875549e-01,-1.55845507979393005e-01,7.65441000461578369e-01,6.20374917984008789e-01,3.07932317256927490e-01,2.91249275207519531e-01,3.92169415950775146e-01,2.98915743827819824e-01,2.18874454498291016e-01,2.08039775490760803e-01,-1.23815223574638367e-01,-1.11071854829788208e-01,5.95397166907787323e-02],"split_indices":[35,0,240,0,35,382,0,0,35,35,0,0,0],"sum_hessian":[4.06137466430664062e+01,2.78613471984863281e+01,1.27524013519287109e+01,1.48238921165466309e+00,1.12700119018554688e+01,8.80670166015625000e+00,2.46331024169921875e+00,2.54730820655822754e+00,6.25939369201660156e+00,2.97033739089965820e+00,3.28905606269836426e+00,1.92777752876281738e+00,1.04255986213684082e+00],"tree_param":{"num_feature":"400","num_nodes":"13","size_leaf_vector":"0"}},{"base_weights":[-1.86903446912765503e-01,1.77094161510467529e+00,-3.44399303197860718e-01,-5.19569456577301025e-01,1.75318032503128052e-01,-3.28913539648056030e-01,3.00201058387756348e-01,3.81396740674972534e-01,-4.77584777399897575e-03,1.59884065389633179e-01,6.23663425445556641e-01,4.45682793855667114e-01,-3.19297313690185547e-01],"default_left":[false,false,true,false,false,false,false,false,false,false,false,false,false],"id":14,"leaf_child_counts":[1,0,1,0,1,0,1,1,0,2,0,0,0],"left_children":[1,-1,3,-1,5,-1,7,9,-1,11,-1,-1,-1],"loss_changes":[1.31334495544433594e+01,0.00000000000000000e+00,3.58950376510620117e+00,0.00000000000000000e+00,7.55813241004943848e-01,0.00000000000000000e+00,2.21868038177490234e-01,2.77560472488403320e-01,0.00000000000000000e+00,8.29396843910217285e-01,0.00000000000000000e+00,0.00000000000000000e+00,0.00000000000000000e+00],"parents":[2147483647,0,0,2,2,4,4,6,6,7,7,9,9],"right_children":[2,-1,4,-1,6,-1,8,10,-1,12,-1,-1,-1],"split_conditions":[1.03013491630554199e+00,5.31282484531402588e-01,1.77498131990432739e-01,-1.55870839953422546e-01,3.14474999904632568e-01,-9.86740663647651672e-02,2.92387962341308594e-01,2.33362391591072083e-01,-1.43275433219969273e-03,2.08039775490760803e-01,1.87099039554595947e-01,1.33704841136932373e-01,-9.57892015576362610e-02],"split_indices":[23,0,35,0,382,0,35,35,0,35,0,0,0],"sum_hessian":[3.96143608093261719e+01,2.18671655654907227e+00,3.74276428222656250e+01,2.79929370880126953e+01,9.43470573425292969e+00,1.54853200912475586e+00,7.88617420196533203e+00,6.03015661239624023e+00,1.85601758956909180e+00,4.01711893081665039e+00,2.01303768157958984e+00,2.56010198593139648e+00,1.45701670646667480e+00],"tree_param":{"num_feature":"400","num_nodes":"13","size_leaf_vector":"0"}},{"base_weights":[2.97533236443996429e-02,-3.19044977426528931e-01,6.86042785644531250e-01,-3.80836963653564453e-01,7.07953095436096191e-01,-3.21658283472061157e-01,7.99420058727264404e-01,-4.77525711059570312e-01,-3.20718735456466675e-01,1.32897877693176270e+00,5.05127131938934326e-01,1.75922587513923645e-01,1.65008938312530518e+00,-3.40901762247085571e-01,6.76981985569000244e-01,8.19753527641296387e-01,1.92679598927497864e-01,9.55986857414245605e-01,1.20622448623180389e-01,-2.88753658533096313e-01,5.58208942413330078e-01],"default_left":[true,true,false,false,false,false,false,false,false,false,false,false,false,false,false,true,false,false,false,false,false],"id":15,"leaf_child_counts":[0,1,1,2,0,0,0,0,0,2,1,0,0,0,0,2,2,0,0,0,0],"left_children":[1,3,5,7,-1,-1,9,-1,-1,11,13,-1,-1,-1,15,17,19,-1,-1,-1,-1],"loss_changes":[1.03227958679199219e+01,2.14192843437194824e+00,2.04344606399536133e+00,1.23929977416992188e-02,0.00000000000000000e+00,0.00000000000000000e+00,1.56363296508789062e+00,0.00000000000000000e+00,0.00000000000000000e+00,1.37943315505981445e+00,1.80556583404541016e+00,0.00000000000000000e+00,0.00000000000000000e+00,0.00000000000000000e+00,4.87678050994873047e-01,5.42273998260498047e-01,7.65350222587585449e-01,0.00000000000000000e+00,0.00000000000000000e+00,0.00000000000000000e+00,0.00000000000000000e+00],"parents":[2147483647,0,0,1,1,2,2,3,3,6,6,9,9,10,10,14,14,15,15,16,16],"right_children":[2,4,6,8,-1,-1,10,-1,-1,12,14,-1,-1,-1,16,18,20,-1,-1,-1,-1],"split_conditions":[1.56779110431671143e-01,2.88083970546722412e-01,7.65441000461578369e-01,7.22592473030090332e-01,2.12385937571525574e-01,-9.64974910020828247e-02,2.00932562351226807e-01,-1.43257722258567810e-01,-9.62156280875205994e-02,2.63139516115188599e-01,2.08097085356712341e-01,5.27767799794673920e-02,4.95026826858520508e-01,-1.02270536124706268e-01,2.77365505695343018e-01,2.80250132083892822e-01,3.13269138336181641e-01,2.86796063184738159e-01,3.61867360770702362e-02,-8.66260975599288940e-02,1.67462691664695740e-01],"split_indices":[35,334,240,346,0,0,35,0,0,382,35,0,0,0,35,382,35,0,0,0,0],"sum_hessian":[4.31387443542480469e+01,2.85037269592285156e+01,1.46350164413452148e+01,2.74795246124267578e+01,1.02420186996459961e+00,1.29428660869598389e+00,1.33407297134399414e+01,7.87345743179321289e+00,1.96060676574707031e+01,3.50960803031921387e+00,9.83112144470214844e+00,1.10164308547973633e+00,2.40796494483947754e+00,1.49376499652862549e+00,8.33735656738281250e+00,5.90416908264160156e+00,2.43318724632263184e+00,4.63382434844970703e+00,1.27034449577331543e+00,1.14075529575347900e+00,1.29243195056915283e+00],"tree_param":{"num_feature":"400","num_nodes":"21","size_leaf_vector":"0"}},{"base_weights":[-3.24849411845207214e-02,1.78713274002075195e+00,-1.77313819527626038e-01,1.76557803153991699e+00,-3.38584095239639282e-01,-4.14630591869354248e-01,1.18562734127044678e+00],"default_left":[false,false,false,false,true,false,false],"id":16,"leaf_child_counts":[1,0,1,0,2,0,0],"left_children":[1,-1,3,-1,5,-1,-1],"loss_changes":[1.13143930435180664e+01,0.00000000000000000e+00,1.29944572448730469e+01,0.00000000000000000e+00,4.82329273223876953e+00,0.00000000000000000e+00,0.00000000000000000e+00],"parents":[2147483647,0,0,2,2,4,4],"right_children":[2,-1,4,-1,6,-1,-1],"split_conditions":[2.00000095367431641e+00,5.36139845848083496e-01,2.00000095367431641e+00,5.29673457145690918e-01,3.11470806598663330e-01,-1.24389179050922394e-01,3.55688214302062988e-01],"split_indices":[204,0,131,0,4,0,0],"sum_hessian":[4.07310256958007812e+01,2.16688227653503418e+00,3.85641441345214844e+01,2.19324469566345215e+00,3.63708992004394531e+01,3.53358802795410156e+01,1.03501987457275391e+00],"tree_param":{"num_feature":"400","num_nodes":"7","size_leaf_vector":"0"}},{"base_weights":[-1.52844749391078949e-02,2.50570011138916016e+00,-1.40261679887771606e-01,2.03841066360473633e+00,-2.48175173997879028e-01,-4.89531964063644409e-01,-1.55533254146575928e-01,-4.78303492069244385e-01,-2.55334433168172836e-02,-3.17438542842864990e-01,7.27883120998740196e-03,-3.00985455513000488e-01,3.95411476492881775e-02],"default_left":[false,false,false,false,false,false,false,false,false,false,false,false,false],"id":17,"leaf_child_counts":[1,0,1,0,1,0,1,0,1,0,2,0,0],"left_children":[1,-1,3,-1,5,-1,7,-1,9,-1,11,-1,-1],"loss_changes":[1.42725830078125000e+01,0.00000000000000000e+00,1.06260805130004883e+01,0.00000000000000000e+00,8.60843896865844727e-01,0.00000000000000000e+00,1.31990575790405273e+00,0.00000000000000000e+00,2.29199439287185669e-01,0.00000000000000000e+00,2.33406171202659607e-01,0.00000000000000000e+00,0.00000000000000000e+00],"parents":[2147483647,0,0,2,2,4,4,6,6,8,8,10,10],"right_children":[2,-1,4,-1,6,-1,8,-1,10,-1,12,-1,-1],"split_conditions":[2.00000095367431641e+00,7.51710057258605957e-01,2.00000095367431641e+00,6.11523211002349854e-01,6.76442861557006836e-01,-1.46859601140022278e-01,7.22592473030090332e-01,-1.43491059541702271e-01,8.81320118904113770e-01,-9.52315703034400940e-02,8.04139792919158936e-01,-9.02956426143646240e-02,1.18623450398445129e-02],"split_indices":[181,0,310,0,35,0,346,0,382,0,14,0,0],"sum_hessian":[4.31848602294921875e+01,1.14000129699707031e+00,4.20448570251464844e+01,1.14000129699707031e+00,4.09048576354980469e+01,1.01575689315795898e+01,3.07472877502441406e+01,8.05892086029052734e+00,2.26883678436279297e+01,1.41609501838684082e+00,2.12722721099853516e+01,1.22624671459197998e+00,2.00460262298583984e+01],"tree_param":{"num_feature":"400","num_nodes":"13","size_leaf_vector":"0"}},{"base_weights":[2.86946445703506470e-01,1.67685592174530029e+00,1.51749745011329651e-01,5.59086315333843231e-02,2.05924296379089355e+00,-4.89531964063644409e-01,2.35707983374595642e-01,-4.78303492069244385e-01,4.80331271886825562e-01,-3.10710787773132324e-01,5.32733678817749023e-01,-3.02995473146438599e-01,5.90904176235198975e-01],"default_left":[false,false,true,false,false,false,false,false,false,false,false,false,false],"id":18,"leaf_child_counts":[1,0,1,1,0,0,1,0,1,0,2,0,0],"left_children":[1,-1,3,5,-1,-1,7,-1,9,-1,11,-1,-1],"loss_changes":[8.75820446014404297e+00,0.00000000000000000e+00,8.07689476013183594e+00,4.40048027038574219e+00,0.00000000000000000e+00,0.00000000000000000e+00,6.08739757537841797e+00,0.00000000000000000e+00,1.22164487838745117e+00,0.00000000000000000e+00,1.35859537124633789e+00,0.00000000000000000e+00,0.00000000000000000e+00],"parents":[2147483647,0,0,2,2,3,3,6,6,8,8,10,10],"right_children":[2,-1,4,6,-1,-1,8,-1,10,-1,12,-1,-1],"split_conditions":[2.00000095367431641e+00,5.03056824207305908e-01,3.52612823247909546e-01,6.76442861557006836e-01,6.17772936820983887e-01,-1.46859601140022278e-01,7.22592473030090332e-01,-1.43491059541702271e-01,1.04735445976257324e+00,-9.32132378220558167e-02,8.04139792919158936e-01,-9.08986479043960571e-02,1.77271261811256409e-01],"split_indices":[70,0,134,35,0,0,346,0,104,0,14,0,0],"sum_hessian":[4.69623832702636719e+01,3.15223908424377441e+00,4.38101425170898438e+01,4.26942977905273438e+01,1.11584520339965820e+00,1.01575689315795898e+01,3.25367279052734375e+01,8.05892086029052734e+00,2.44778079986572266e+01,1.21452867984771729e+00,2.32632789611816406e+01,1.23997259140014648e+00,2.20233078002929688e+01],"tree_param":{"num_feature":"400","num_nodes":"13","size_leaf_vector":"0"}},{"base_weights":[5.54838031530380249e-02,2.40936994552612305e+00,-6.32415637373924255e-02,1.65030348300933838e+00,-1.43710076808929443e-01,-4.88962441682815552e-01,-2.45074611157178879e-02,-4.77454483509063721e-01,1.36885806918144226e-01,-3.17438542842864990e-01,1.77259236574172974e-01,-3.04157733917236328e-01,2.17387497425079346e-01],"default_left":[false,false,false,false,false,false,false,false,false,false,false,false,false],"id":19,"leaf_child_counts":[1,0,1,0,1,0,1,0,1,0,2,0,0],"left_children":[1,-1,3,-1,5,-1,7,-1,9,-1,11,-1,-1],"loss_changes":[1.28521957397460938e+01,0.00000000000000000e+00,6.33665323257446289e+00,0.00000000000000000e+00,1.76473319530487061e+00,0.00000000000000000e+00,2.48828148841857910e+00,0.00000000000000000e+00,5.18760919570922852e-01,0.00000000000000000e+00,5.25859177112579346e-01,0.00000000000000000e+00,0.00000000000000000e+00],"parents":[2147483647,0,0,2,2,4,4,6,6,8,8,10,10],"right_children":[2,-1,4,-1,6,-1,8,-1,10,-1,12,-1,-1],"split_conditions":[1.03227686882019043e+00,7.22810983657836914e-01,2.00000095367431641e+00,4.95091050863265991e-01,6.76442861557006836e-01,-1.46688744425773621e-01,7.22592473030090332e-01,-1.43236353993415833e-01,8.81320118904113770e-01,-9.52315703034400940e-02,8.04139792919158936e-01,-9.12473201751708984e-02,6.52162507176399231e-02],"split_indices":[271,0,112,0,35,0,346,0,382,0,14,0,0],"sum_hessian":[4.44431800842285156e+01,1.20758509635925293e+00,4.32355957031250000e+01,1.06424450874328613e+00,4.21713523864746094e+01,1.00271835327148438e+01,3.21441688537597656e+01,7.93011808395385742e+00,2.42140502929687500e+01,1.41609501838684082e+00,2.27979545593261719e+01,1.24785506725311279e+00,2.15501003265380859e+01],"tree_param":{"num_feature":"400","num_nodes":"13","size_leaf_vector":"0"}},{"base_weights":[1.44850894808769226e-01,1.04931855201721191e+00,-2.52598464488983154e-01,-3.51804584264755249e-01,1.22881221771240234e+00,-3.05037260055541992e-01,6.76097750663757324e-01,1.40743839740753174e+00,-3.02677750587463379e-01,-4.89522337913513184e-01,-1.97467863559722900e-01,-3.09433788061141968e-01,-1.75178825855255127e-01,-2.99776136875152588e-01,-1.51579484343528748e-01,-2.95506030321121216e-01,-1.25786721706390381e-01],"default_left":[false,false,true,false,true,false,false,false,false,false,false,false,false,false,false,false,false],"id":20,"leaf_child_counts":[0,1,1,0,2,1,0,0,0,0,1,0,1,0,2,0,0],"left_children":[1,3,5,-1,7,9,-1,-1,-1,-1,11,-1,13,-1,15,-1,-1],"loss_changes":[1.69280147552490234e+01,4.03987979888916016e+00,1.81372904777526855e+00,0.00000000000000000e+00,3.96544265747070312e+00,5.37047386169433594e-01,0.00000000000000000e+00,0.00000000000000000e+00,0.00000000000000000e+00,0.00000000000000000e+00,3.17156314849853516e-04,0.00000000000000000e+00,1.49132013320922852e-02,0.00000000000000000e+00,3.44004034996032715e-02,0.00000000000000000e+00,0.00000000000000000e+00],"parents":[2147483647,0,0,1,1,2,2,4,4,5,5,10,10,12,12,14,14],"right_children":[2,4,6,-1,8,10,-1,-1,-1,-1,12,-1,14,-1,16,-1,-1],"split_conditions":[3.12859773635864258e-01,7.61689782142639160e-01,4.09898191690444946e-01,-1.05541378259658813e-01,3.09668660163879395e-01,6.76442861557006836e-01,2.02829331159591675e-01,4.22231525182723999e-01,-9.08033251762390137e-02,-1.46856710314750671e-01,7.22592473030090332e-01,-9.28301364183425903e-02,2.00000095367431641e+00,-8.99328440427780151e-02,8.04139792919158936e-01,-8.86518135666847229e-02,-3.77360172569751740e-02],"split_indices":[346,240,221,0,330,35,0,0,0,0,346,0,70,0,4,0,0],"sum_hessian":[4.53529396057128906e+01,1.33446512222290039e+01,3.20082893371582031e+01,1.40639460086822510e+00,1.19382572174072266e+01,3.09331912994384766e+01,1.07509887218475342e+00,1.07638149261474609e+01,1.17444229125976562e+00,1.00854883193969727e+01,2.08477020263671875e+01,1.32233798503875732e+00,1.95253639221191406e+01,1.24570345878601074e+00,1.82796611785888672e+01,1.18884313106536865e+00,1.70908184051513672e+01],"tree_param":{"num_feature":"400","num_nodes":"17","size_leaf_vector":"0"}},{"base_weights":[-2.29610502719879150e-01,2.05834221839904785e+00,-3.48183155059814453e-01,1.16356587409973145e+00,-4.46336090564727783e-01,-4.97076064348220825e-01,5.08230209350585938e-01,-5.23538053035736084e-01,-1.45071312785148621e-01,1.87532752752304077e-01,-3.45743864774703979e-01],"default_left":[false,false,false,false,true,true,false,false,false,false,false],"id":21,"leaf_child_counts":[1,0,1,0,1,1,0,0,2,0,0],"left_children":[1,-1,3,-1,5,7,-1,-1,9,-1,-1],"loss_changes":[1.15796213150024414e+01,0.00000000000000000e+00,6.29504776000976562e+00,0.00000000000000000e+00,2.05798339843750000e+00,2.58433341979980469e-01,0.00000000000000000e+00,0.00000000000000000e+00,3.24693322181701660e-01,0.00000000000000000e+00,0.00000000000000000e+00],"parents":[2147483647,0,0,2,2,4,4,5,5,8,8],"right_children":[2,-1,4,-1,6,8,-1,-1,10,-1,-1],"split_conditions":[1.40352797508239746e+00,6.17502689361572266e-01,3.81782174110412598e-01,3.49069774150848389e-01,3.20472627878189087e-01,2.37207949161529541e-01,1.52469068765640259e-01,-1.57061427831649780e-01,2.61034667491912842e-01,5.62598295509815216e-02,-1.03723160922527313e-01],"split_indices":[352,0,240,0,346,346,0,0,346,0,0],"sum_hessian":[3.90420150756835938e+01,1.11760520935058594e+00,3.79244117736816406e+01,1.65039849281311035e+00,3.62740135192871094e+01,3.48982582092285156e+01,1.37575221061706543e+00,3.20049819946289062e+01,2.89327931404113770e+00,1.11338388919830322e+00,1.77989554405212402e+00],"tree_param":{"num_feature":"400","num_nodes":"11","size_leaf_vector":"0"}},{"base_weights":[-1.86079218983650208e-01,-4.91258025169372559e-01,9.34463500976562500e-01,1.05523720383644104e-01,-5.21242260932922363e-01,1.87044477462768555e+00,3.87171059846878052e-01,1.67914330959320068e+00,-1.17710873484611511e-01,1.93780332803726196e-01,-2.28652849793434143e-01,-3.91369998455047607e-01,1.11265636980533600e-01],"default_left":[true,false,false,false,false,false,false,false,false,false,false,false,false],"id":22,"leaf_child_counts":[0,2,1,0,0,0,1,0,1,0,2,0,0],"left_children":[1,3,5,-1,-1,-1,7,-1,9,-1,11,-1,-1],"loss_changes":[1.42954063415527344e+01,6.35768890380859375e-01,3.88886928558349609e+00,0.00000000000000000e+00,0.00000000000000000e+00,0.00000000000000000e+00,4.72693824768066406e+00,0.00000000000000000e+00,2.49133631587028503e-01,0.00000000000000000e+00,3.10652226209640503e-01,0.00000000000000000e+00,0.00000000000000000e+00],"parents":[2147483647,0,0,1,1,2,2,6,6,8,8,10,10],"right_children":[2,4,6,-1,-1,-1,8,-1,10,-1,12,-1,-1],"split_conditions":[2.22482621669769287e-01,1.98571711778640747e-01,8.80377173423767090e-01,3.16571183502674103e-02,-1.56372681260108948e-01,5.61133444309234619e-01,1.22799682617187500e+00,5.03742992877960205e-01,2.32158720493316650e-01,5.81341013312339783e-02,3.12859773635864258e-01,-1.17411002516746521e-01,3.33796925842761993e-02],"split_indices":[346,346,330,0,0,0,295,0,346,0,346,0,0],"sum_hessian":[3.94611816406250000e+01,3.14558086395263672e+01,8.00537204742431641e+00,1.38431036472320557e+00,3.00714988708496094e+01,2.06174182891845703e+00,5.94363069534301758e+00,1.01653790473937988e+00,4.92709302902221680e+00,1.09788489341735840e+00,3.82920789718627930e+00,2.48722314834594727e+00,1.34198474884033203e+00],"tree_param":{"num_feature":"400","num_nodes":"13","size_leaf_vector":"0"}},{"base_weights":[-1.44216477870941162e-01,-4.24710780382156372e-01,6.26936912536621094e-01,6.60194218158721924e-01,-4.86942470073699951e-01,7.86663889884948730e-01,2.19396010041236877e-01,4.41961199045181274e-01,1.42698955535888672e+00,-3.59074592590332031e-01,7.88569033145904541e-01,8.44090223312377930e-01,3.27598787844181061e-02,1.55987679958343506e-01,1.17227423191070557e+00,-3.22336912155151367e-01,2.95743286609649658e-01],"default_left":[true,false,false,false,false,false,false,false,false,false,false,false,false,false,false,false,false],"id":23,"leaf_child_counts":[0,2,0,0,0,1,2,0,0,0,0,2,2,0,0,0,0],"left_children":[1,3,5,-1,-1,7,9,11,-1,-1,-1,13,15,-1,-1,-1,-1],"loss_changes":[9.20480251312255859e+00,2.40758228302001953e+00,5.71169853210449219e-01,0.00000000000000000e+00,0.00000000000000000e+00,1.09576845169067383e+00,1.79899775981903076e+00,1.04741358757019043e+00,0.00000000000000000e+00,0.00000000000000000e+00,0.00000000000000000e+00,5.52140474319458008e-01,4.94879812002182007e-01,0.00000000000000000e+00,0.00000000000000000e+00,0.00000000000000000e+00,0.00000000000000000e+00],"parents":[2147483647,0,0,1,1,2,2,5,5,6,6,7,7,11,11,12,12],"right_children":[2,4,6,-1,-1,8,10,12,-1,-1,-1,14,16,-1,-1,-1,-1],"split_conditions":[1.84253752231597900e-01,3.28067481517791748e-01,2.57938802242279053e-01,1.98058277368545532e-01,-1.46082744002342224e-01,2.39578723907470703e-01,3.20472627878189087e-01,2.21429526805877686e-01,4.28096890449523926e-01,-1.07722379267215729e-01,2.36570715904235840e-01,2.08973795175552368e-01,2.27823019027709961e-01,4.67963069677352905e-02,3.51682275533676147e-01,-9.67010781168937683e-02,8.87229889631271362e-02],"split_indices":[346,334,346,0,0,346,346,346,0,0,0,346,346,0,0,0,0],"sum_hessian":[4.03239250183105469e+01,2.98982009887695312e+01,1.04257240295410156e+01,1.10069918632507324e+00,2.87975025177001953e+01,6.82179641723632812e+00,3.60392785072326660e+00,5.53330087661743164e+00,1.28849554061889648e+00,1.97043478488922119e+00,1.63349306583404541e+00,2.25474786758422852e+00,3.27855324745178223e+00,1.20452642440795898e+00,1.05022132396697998e+00,1.29894399642944336e+00,1.97960913181304932e+00],"tree_param":{"num_feature":"400","num_nodes":"17","size_leaf_vector":"0"}},{"base_weights":[2.02499821782112122e-01,6.67808294296264648e-01,-1.46522194147109985e-01,-3.41724216938018799e-01,7.54717409610748291e-01,1.57575595378875732e+00,-3.32960635423660278e-01,-3.24489593505859375e-01,8.46176564693450928e-01,-4.36523437500000000e-01,9.27728176116943359e-01,-3.41866433620452881e-01,9.39640223979949951e-01,-2.92242676019668579e-01,1.04156875610351562e+00],"default_left":[false,false,false,false,false,false,true,false,false,false,false,false,false,false,false],"id":24,"leaf_child_counts":[0,1,1,0,1,0,2,0,1,0,0,0,2,0,0],"left_children":[1,3,5,-1,7,-1,9,-1,11,-1,-1,-1,13,-1,-1],"loss_changes":[8.06578826904296875e+00,2.11866378784179688e+00,9.78982639312744141e+00,0.00000000000000000e+00,2.23273658752441406e+00,0.00000000000000000e+00,3.91204667091369629e+00,0.00000000000000000e+00,2.38278865814208984e+00,0.00000000000000000e+00,0.00000000000000000e+00,0.00000000000000000e+00,2.49909973144531250e+00,0.00000000000000000e+00,0.00000000000000000e+00],"parents":[2147483647,0,0,1,1,2,2,4,4,6,6,8,8,12,12],"right_children":[2,4,6,-1,8,-1,10,-1,12,-1,-1,-1,14,-1,-1],"split_conditions":[3.07932317256927490e-01,1.06030774116516113e+00,1.04735445976257324e+00,-1.02517269551753998e-01,7.65441000461578369e-01,4.72726792097091675e-01,4.45785015821456909e-01,-9.73468795418739319e-02,8.86475384235382080e-01,-1.30957037210464478e-01,2.78318464756011963e-01,-1.02559931576251984e-01,8.46738994121551514e-01,-8.76728072762489319e-02,3.12470644712448120e-01],"split_indices":[35,61,104,0,240,0,221,0,253,0,0,0,160,0,0],"sum_hessian":[4.80627861022949219e+01,2.02082366943359375e+01,2.78545475006103516e+01,1.36939680576324463e+00,1.88388404846191406e+01,1.99287891387939453e+00,2.58616695404052734e+01,1.27274107933044434e+00,1.75660991668701172e+01,2.45025787353515625e+01,1.35909068584442139e+00,1.08730459213256836e+00,1.64787940979003906e+01,1.11660921573638916e+00,1.53621845245361328e+01],"tree_param":{"num_feature":"400","num_nodes":"15","size_leaf_vector":"0"}},{"base_weights":[-8.78135189414024353e-02,-5.11167466640472412e-01,6.09658837318420410e-01,1.43286585807800293e+00,3.64044338464736938e-01,1.31799173355102539e+00,1.41488298773765564e-01,1.31799173355102539e+00,-1.39525011181831360e-01,1.10735821723937988e+00,-4.01288807392120361e-01],"default_left":[true,false,false,false,false,false,false,false,false,false,false],"id":25,"leaf_child_counts":[1,0,1,0,1,0,1,0,2,0,0],"left_children":[1,-1,3,-1,5,-1,7,-1,9,-1,-1],"loss_changes":[1.19470462799072266e+01,0.00000000000000000e+00,2.57998180389404297e+00,0.00000000000000000e+00,2.60650849342346191e+00,0.00000000000000000e+00,4.08087015151977539e+00,0.00000000000000000e+00,3.84495282173156738e+00,0.00000000000000000e+00,0.00000000000000000e+00],"parents":[2147483647,0,0,2,2,4,4,6,6,8,8],"right_children":[2,-1,4,-1,6,-1,8,-1,10,-1,-1],"split_conditions":[1.73996821045875549e-01,-1.53350248932838440e-01,7.65441000461578369e-01,4.29859787225723267e-01,1.39386010169982910e+00,3.95397543907165527e-01,1.41966533660888672e+00,3.95397543907165527e-01,1.38868308067321777e+00,3.32207471132278442e-01,-1.20386645197868347e-01],"split_indices":[35,0,240,0,45,0,46,0,44,0,0],"sum_hessian":[3.84049682617187500e+01,2.40650196075439453e+01,1.43399486541748047e+01,2.18450665473937988e+00,1.21554412841796875e+01,1.36831831932067871e+00,1.07871227264404297e+01,1.36831831932067871e+00,9.41880512237548828e+00,1.07374870777130127e+00,8.34505653381347656e+00],"tree_param":{"num_feature":"400","num_nodes":"11","size_leaf_vector":"0"}},{"base_weights":[-1.67491272091865540e-01,-4.77088987827301025e-01,5.64635157585144043e-01,1.04915253818035126e-01,-5.12859642505645752e-01,1.44925129413604736e+00,2.15944677591323853e-01,1.22737169265747070e+00,-1.13778695464134216e-01,4.77398097515106201e-01,-3.16229641437530518e-01,-4.33105856180191040e-01,-1.84760764241218567e-02],"default_left":[true,false,false,false,false,false,false,false,false,false,false,false,false],"id":26,"leaf_child_counts":[0,2,1,0,0,0,1,0,1,0,2,0,0],"left_children":[1,3,5,-1,-1,-1,7,-1,9,-1,11,-1,-1],"loss_changes":[8.83288192749023438e+00,6.17873191833496094e-01,3.29174733161926270e+00,0.00000000000000000e+00,0.00000000000000000e+00,0.00000000000000000e+00,3.32692551612854004e+00,0.00000000000000000e+00,1.12313830852508545e+00,0.00000000000000000e+00,2.23498106002807617e-01,0.00000000000000000e+00,0.00000000000000000e+00],"parents":[2147483647,0,0,1,1,2,2,6,6,8,8,10,10],"right_children":[2,4,6,-1,-1,-1,8,-1,10,-1,12,-1,-1],"split_conditions":[1.95791184902191162e-01,1.81181222200393677e-01,1.06030774116516113e+00,3.14745791256427765e-02,-1.53857901692390442e-01,4.34775412082672119e-01,1.41966533660888672e+00,3.68211507797241211e-01,2.07699343562126160e-01,1.43219441175460815e-01,2.86926865577697754e-01,-1.29931762814521790e-01,-5.54282311350107193e-03],"split_indices":[35,35,61,0,0,0,56,0,35,0,35,0,0],"sum_hessian":[3.67804794311523438e+01,2.60942401885986328e+01,1.06862411499023438e+01,1.39899456501007080e+00,2.46952457427978516e+01,2.12893509864807129e+00,8.55730628967285156e+00,1.43451130390167236e+00,7.12279462814331055e+00,1.47055006027221680e+00,5.65224456787109375e+00,3.73254346847534180e+00,1.91970109939575195e+00],"tree_param":{"num_feature":"400","num_nodes":"13","size_leaf_vector":"0"}},{"base_weights":[2.96880733221769333e-02,-2.95970499515533447e-01,5.28105199337005615e-01,5.93912065029144287e-01,-3.60622406005859375e-01,1.70550048351287842e+00,3.54586660861968994e-01,-4.65938389301300049e-01,-2.97057271003723145e-01,7.21101820468902588e-01,1.08217790722846985e-01,1.55821681022644043e-01,8.13717722892761230e-01,-7.72612243890762329e-02,6.71977579593658447e-01,-4.56953227519989014e-01,2.70254433155059814e-01,7.91041433811187744e-01,-3.75848948955535889e-01],"default_left":[true,false,false,false,false,false,false,false,false,false,true,false,false,false,false,false,false,false,false],"id":27,"leaf_child_counts":[0,1,1,0,2,0,0,0,0,2,1,0,0,1,0,0,2,0,0],"left_children":[1,3,5,-1,7,-1,9,-1,-1,11,13,-1,-1,15,-1,-1,17,-1,-1],"loss_changes":[7.24595117568969727e+00,1.77092647552490234e+00,2.99503660202026367e+00,0.00000000000000000e+00,3.46274375915527344e-02,0.00000000000000000e+00,1.42265772819519043e+00,0.00000000000000000e+00,0.00000000000000000e+00,2.13721752166748047e-01,1.21418905258178711e+00,0.00000000000000000e+00,0.00000000000000000e+00,1.34540212154388428e+00,0.00000000000000000e+00,0.00000000000000000e+00,2.13567304611206055e+00,0.00000000000000000e+00,0.00000000000000000e+00],"parents":[2147483647,0,0,1,1,2,2,4,4,6,6,9,9,10,10,13,13,16,16],"right_children":[2,4,6,-1,8,-1,10,-1,-1,12,14,-1,-1,16,-1,-1,18,-1,-1],"split_conditions":[1.56779110431671143e-01,3.24385583400726318e-01,1.22638678550720215e+00,1.78173631429672241e-01,7.22592473030090332e-01,5.11650145053863525e-01,2.00932562351226807e-01,-1.39781519770622253e-01,-8.91171842813491821e-02,2.63139516115188599e-01,2.79696792364120483e-01,4.67465072870254517e-02,2.44115322828292847e-01,2.35721528530120850e-01,2.01593279838562012e-01,-1.37085974216461182e-01,2.77365505695343018e-01,2.37312436103820801e-01,-1.12754687666893005e-01],"split_indices":[35,334,253,0,346,0,35,0,0,382,382,0,0,35,0,0,35,0,0],"sum_hessian":[4.26786499023437500e+01,2.60585460662841797e+01,1.66201019287109375e+01,1.21051084995269775e+00,2.48480358123779297e+01,1.00073981285095215e+00,1.56193618774414062e+01,6.96996402740478516e+00,1.78780727386474609e+01,5.50412750244140625e+00,1.01152343750000000e+01,1.15247261524200439e+00,4.35165452957153320e+00,8.26046562194824219e+00,1.85476922988891602e+00,3.79699420928955078e+00,4.46347093582153320e+00,2.34720039367675781e+00,2.11627054214477539e+00],"tree_param":{"num_feature":"400","num_nodes":"19","size_leaf_vector":"0"}},{"base_weights":[-2.10844054818153381e-02,1.24473190307617188e+00,-1.56274989247322083e-01,1.22504484653472900e+00,-3.14065784215927124e-01,-3.94490540027618408e-01,9.13223803043365479e-01],"default_left":[false,false,false,false,true,false,false],"id":28,"leaf_child_counts":[1,0,1,0,2,0,0],"left_children":[1,-1,3,-1,5,-1,-1],"loss_changes":[6.97844028472900391e+00,0.00000000000000000e+00,8.38513469696044922e+00,0.00000000000000000e+00,3.69041633605957031e+00,0.00000000000000000e+00,0.00000000000000000e+00],"parents":[2147483647,0,0,2,2,4,4],"right_children":[2,-1,4,-1,6,-1,-1],"split_conditions":[2.00000095367431641e+00,3.73419582843780518e-01,2.00000095367431641e+00,3.67513477802276611e-01,3.11470806598663330e-01,-1.18347167968750000e-01,2.73967146873474121e-01],"split_indices":[204,0,131,0,4,0,0],"sum_hessian":[3.86427307128906250e+01,2.93688225746154785e+00,3.57058486938476562e+01,2.96716833114624023e+00,3.27386817932128906e+01,3.13620796203613281e+01,1.37660121917724609e+00],"tree_param":{"num_feature":"400","num_nodes":"7","size_leaf_vector":"0"}},{"base_weights":[-1.08667435124516487e-02,1.57891881465911865e+00,-1.25834226608276367e-01,1.36358034610748291e+00,-2.29542508721351624e-01,-4.76242363452911377e-01,-1.45222112536430359e-01,-4.64960485696792603e-01,-3.30489017069339752e-02,-3.03931862115859985e-01,-4.08930145204067230e-03,-2.88877844810485840e-01,2.43923589587211609e-02],"default_left":[false,false,false,false,false,false,false,false,false,false,false,false,false],"id":29,"leaf_child_counts":[1,0,1,0,1,0,1,0,1,0,2,0,0],"left_children":[1,-1,3,-1,5,-1,7,-1,9,-1,11,-1,-1],"loss_changes":[8.12399101257324219e+00,0.00000000000000000e+00,6.70215988159179688e+00,0.00000000000000000e+00,7.53063201904296875e-01,0.00000000000000000e+00,1.09277677536010742e+00,0.00000000000000000e+00,1.86628386378288269e-01,0.00000000000000000e+00,1.90762281417846680e-01,0.00000000000000000e+00,0.00000000000000000e+00],"parents":[2147483647,0,0,2,2,4,4,6,6,8,8,10,10],"right_children":[2,-1,4,-1,6,-1,8,-1,10,-1,12,-1,-1],"split_conditions":[2.00000095367431641e+00,4.73675668239593506e-01,2.00000095367431641e+00,4.09074127674102783e-01,6.76442861557006836e-01,-1.42872720956802368e-01,7.22592473030090332e-01,-1.39488145709037781e-01,8.81320118904113770e-01,-9.11795645952224731e-02,8.04139792919158936e-01,-8.66633579134941101e-02,7.31770787388086319e-03],"split_indices":[181,0,310,0,35,0,346,0,382,0,14,0,0],"sum_hessian":[4.23613319396972656e+01,1.99807500839233398e+00,4.03632583618164062e+01,1.83672738075256348e+00,3.85265312194824219e+01,8.62983608245849609e+00,2.98966941833496094e+01,6.94776678085327148e+00,2.29489269256591797e+01,1.29941344261169434e+00,2.16495132446289062e+01,1.13709473609924316e+00,2.05124187469482422e+01],"tree_param":{"num_feature":"400","num_nodes":"13","size_leaf_vector":"0"}},{"base_weights":[2.20069468021392822e-01,-4.76242363452911377e-01,3.74387085437774658e-01,-4.64960485696792603e-01,5.53889095783233643e-01,1.65844285488128662e+00,4.71439927816390991e-01,1.15329027175903320e+00,3.39927822351455688e-01,1.56710851192474365e+00,2.37930223345756531e-01,1.38894057273864746e+00,1.11525967717170715e-01],"default_left":[false,false,false,false,false,false,false,false,false,false,false,false,false],"id":30,"leaf_child_counts":[1,0,1,0,1,0,1,0,1,0,2,0,0],"left_children":[1,-1,3,-1,5,-1,7,-1,9,-1,11,-1,-1],"loss_changes":[5.62139225006103516e+00,0.00000000000000000e+00,6.58931446075439453e+00,0.00000000000000000e+00,2.41267204284667969e+00,0.00000000000000000e+00,2.66025495529174805e+00,0.00000000000000000e+00,3.37631511688232422e+00,0.00000000000000000e+00,4.04013013839721680e+00,0.00000000000000000e+00,0.00000000000000000e+00],"parents":[2147483647,0,0,2,2,4,4,6,6,8,8,10,10],"right_children":[2,-1,4,-1,6,-1,8,-1,10,-1,12,-1,-1],"split_conditions":[6.76442861557006836e-01,-1.42872720956802368e-01,7.22592473030090332e-01,-1.39488145709037781e-01,2.00000095367431641e+00,4.97532874345779419e-01,2.00000095367431641e+00,3.45987081527709961e-01,2.00000095367431641e+00,4.70132559537887573e-01,1.10272192955017090e+00,4.16682183742523193e-01,3.34577932953834534e-02],"split_indices":[35,0,346,0,210,0,70,0,146,0,134,0,0],"sum_hessian":[4.96554908752441406e+01,8.62983608245849609e+00,4.10256538391113281e+01,6.94776678085327148e+00,3.40778884887695312e+01,1.03934049606323242e+00,3.30385475158691406e+01,4.08574390411376953e+00,2.89528045654296875e+01,1.11949312686920166e+00,2.78333110809326172e+01,1.76584219932556152e+00,2.60674686431884766e+01],"tree_param":{"num_feature":"400","num_nodes":"13","size_leaf_vector":"0"}},{"base_weights":[4.70984242856502533e-02,1.52970552444458008e+00,-5.83543814718723297e-02,-1.37297347187995911e-01,1.48583531379699707e+00,-4.77335840463638306e-01,-3.47044765949249268e-02,-4.66331899166107178e-01,9.73802283406257629e-02,-3.12959909439086914e-01,1.29839226603507996e-01,-3.03931862115859985e-01,1.66025325655937195e-01],"default_left":[false,false,true,false,false,false,false,false,false,false,false,false,false],"id":31,"leaf_child_counts":[1,0,1,1,0,0,1,0,1,0,2,0,0],"left_children":[1,-1,3,5,-1,-1,7,-1,9,-1,11,-1,-1],"loss_changes":[7.20585584640502930e+00,0.00000000000000000e+00,5.50179862976074219e+00,1.45772707462310791e+00,0.00000000000000000e+00,0.00000000000000000e+00,1.95780551433563232e+00,0.00000000000000000e+00,3.93747657537460327e-01,0.00000000000000000e+00,4.47187691926956177e-01,0.00000000000000000e+00,0.00000000000000000e+00],"parents":[2147483647,0,0,2,2,3,3,6,6,8,8,10,10],"right_children":[2,-1,4,6,-1,-1,8,-1,10,-1,12,-1,-1],"split_conditions":[1.03227686882019043e+00,4.58911687135696411e-01,4.14869844913482666e-01,6.76442861557006836e-01,4.45750623941421509e-01,-1.43200755119323730e-01,7.22592473030090332e-01,-1.39899581670761108e-01,2.00000095367431641e+00,-9.38879773020744324e-02,8.81320118904113770e-01,-9.11795645952224731e-02,4.98076006770133972e-02],"split_indices":[271,0,112,35,0,0,346,0,310,0,382,0,0],"sum_hessian":[4.45184822082519531e+01,2.05933427810668945e+00,4.24591484069824219e+01,4.12608718872070312e+01,1.19827473163604736e+00,8.71679878234863281e+00,3.25440750122070312e+01,7.03253841400146484e+00,2.55115356445312500e+01,1.23662829399108887e+00,2.42749080657958984e+01,1.29941344261169434e+00,2.29754943847656250e+01],"tree_param":{"num_feature":"400","num_nodes":"13","size_leaf_vector":"0"}},{"base_weights":[1.01896531879901886e-01,6.73491179943084717e-01,-2.31222793459892273e-01,-3.36554169654846191e-01,7.74141132831573486e-01,-2.86228477954864502e-01,6.79989814758300781e-01,-3.55152010917663574e-01,8.80095720291137695e-01,-4.77822273969650269e-01,-1.84050291776657104e-01,-3.52430343627929688e-01,1.00159204006195068e+00,-2.98020571470260620e-01,-1.62005439400672913e-01,-3.28221470117568970e-01,1.13802158832550049e+00,-2.81650125980377197e-01,-1.40075922012329102e-01,1.28508031368255615e+00,-2.84368783235549927e-01,-2.76274055242538452e-01,-1.16243638098239899e-01],"default_left":[false,false,true,false,false,false,false,false,false,false,false,false,false,false,false,false,true,false,false,false,false,false,false],"id":32,"leaf_child_counts":[0,1,1,0,1,1,0,0,1,0,1,0,1,0,1,0,2,0,2,0,0,0,0],"left_children":[1,3,5,-1,7,9,-1,-1,11,-1,13,-1,15,-1,17,-1,19,-1,21,-1,-1,-1,-1],"loss_changes":[9.25460720062255859e+00,2.07524585723876953e+00,1.74517166614532471e+00,0.00000000000000000e+00,2.29115772247314453e+00,4.96970176696777344e-01,0.00000000000000000e+00,0.00000000000000000e+00,2.65986347198486328e+00,0.00000000000000000e+00,4.76330518722534180e-03,0.00000000000000000e+00,2.96484184265136719e+00,0.00000000000000000e+00,1.27124190330505371e-02,0.00000000000000000e+00,3.12192916870117188e+00,0.00000000000000000e+00,2.88805961608886719e-02,0.00000000000000000e+00,0.00000000000000000e+00,0.00000000000000000e+00,0.00000000000000000e+00],"parents":[2147483647,0,0,1,1,2,2,4,4,5,5,8,8,10,10,12,12,14,14,16,16,18,18],"right_children":[2,4,6,-1,8,10,-1,-1,12,-1,14,-1,16,-1,18,-1,20,-1,22,-1,-1,-1,-1],"split_conditions":[3.12859773635864258e-01,7.61689782142639160e-01,4.47099387645721436e-01,-1.00966252386569977e-01,8.81753265857696533e-01,6.76442861557006836e-01,2.03996956348419189e-01,-1.06545604765415192e-01,9.12174522876739502e-01,-1.43346682190895081e-01,7.22592473030090332e-01,-1.05729110538959503e-01,9.25741493701934814e-01,-8.94061774015426636e-02,8.04139792919158936e-01,-9.84664484858512878e-02,3.09668660163879395e-01,-8.44950377941131592e-02,2.00000095367431641e+00,3.85524123907089233e-01,-8.53106379508972168e-02,-8.28822180628776550e-02,-3.48730944097042084e-02],"split_indices":[346,240,221,0,253,35,0,0,288,0,346,0,295,0,4,0,330,0,70,0,0,0,0],"sum_hessian":[4.67859268188476562e+01,1.68505458831787109e+01,2.99353790283203125e+01,1.31458473205566406e+00,1.55359611511230469e+01,2.88780288696289062e+01,1.05735111236572266e+00,1.13087332248687744e+00,1.44050884246826172e+01,8.76550865173339844e+00,2.01125202178955078e+01,1.12201356887817383e+00,1.32830743789672852e+01,1.23075973987579346e+00,1.88817596435546875e+01,1.10514557361602783e+00,1.21779289245605469e+01,1.09022140502929688e+00,1.77915382385253906e+01,1.11243362426757812e+01,1.05359292030334473e+00,1.07211637496948242e+00,1.67194232940673828e+01],"tree_param":{"num_feature":"400","num_nodes":"23","size_leaf_vector":"0"}},{"base_weights":[-2.03749954700469971e-01,-5.13070762157440186e-01,5.68212270736694336e-01,1.60590302944183350e+00,2.31093689799308777e-01,1.29927599430084229e+00,-1.13614358007907867e-01,-3.26570451259613037e-01,6.69212102890014648e-01,-1.58128455281257629e-01,-4.11381810903549194e-01,-3.56631249189376831e-01,1.90351784229278564e-01],"default_left":[true,false,false,false,false,false,false,false,false,false,false,false,false],"id":33,"leaf_child_counts":[1,0,1,0,1,0,1,1,0,2,0,0,0],"left_children":[1,-1,3,-1,5,-1,7,9,-1,11,-1,-1,-1],"loss_changes":[9.06866455078125000e+00,0.00000000000000000e+00,3.47335362434387207e+00,0.00000000000000000e+00,3.63199305534362793e+00,0.00000000000000000e+00,1.56451857089996338e+00,3.52243185043334961e-02,0.00000000000000000e+00,3.42856347560882568e-01,0.00000000000000000e+00,0.00000000000000000e+00,0.00000000000000000e+00],"parents":[2147483647,0,0,2,2,4,4,6,6,7,7,9,9],"right_children":[2,-1,4,-1,6,-1,8,10,-1,12,-1,-1,-1],"split_conditions":[1.90383851528167725e-01,-1.53921231627464294e-01,7.61689782142639160e-01,4.81770932674407959e-01,1.22799682617187500e+00,3.89782816171646118e-01,3.32802861928939819e-01,2.39507377147674561e-01,2.00763642787933350e-01,2.28761821985244751e-01,-1.23414546251296997e-01,-1.06989376246929169e-01,5.71055375039577484e-02],"split_indices":[346,0,240,0,159,0,346,346,0,346,0,0,0],"sum_hessian":[3.57576217651367188e+01,2.57679309844970703e+01,9.98969268798828125e+00,1.52670371532440186e+00,8.46298885345458984e+00,1.38913285732269287e+00,7.07385587692260742e+00,6.01924371719360352e+00,1.05461239814758301e+00,2.97504472732543945e+00,3.04419898986816406e+00,1.88048481941223145e+00,1.09456002712249756e+00],"tree_param":{"num_feature":"400","num_nodes":"13","size_leaf_vector":"0"}},{"base_weights":[-1.66011601686477661e-01,-5.12860298156738281e-01,6.64588689804077148e-01,1.56864738464355469e+00,3.65459114313125610e-01,1.24217534065246582e+00,-1.79617092013359070e-01,-2.64542758464813232e-01,9.13824960589408875e-02,5.93991130590438843e-02,-4.05882745981216431e-01],"default_left":[true,false,false,false,false,false,false,false,false,false,false],"id":34,"leaf_child_counts":[1,0,1,0,1,0,1,2,0,0,0],"left_children":[1,-1,3,-1,5,-1,7,9,-1,-1,-1],"loss_changes":[1.10913295745849609e+01,0.00000000000000000e+00,2.51720714569091797e+00,0.00000000000000000e+00,4.94960117340087891e+00,0.00000000000000000e+00,1.84644848108291626e-01,2.78933078050613403e-01,0.00000000000000000e+00,0.00000000000000000e+00,0.00000000000000000e+00],"parents":[2147483647,0,0,2,2,4,4,6,6,7,7],"right_children":[2,-1,4,-1,6,-1,8,10,-1,-1,-1],"split_conditions":[1.97270840406417847e-01,-1.53858095407485962e-01,1.22799682617187500e+00,4.70594227313995361e-01,8.80377173423767090e-01,3.72652620077133179e-01,3.12859773635864258e-01,2.23422229290008545e-01,2.74147503077983856e-02,1.78197342902421951e-02,-1.21764831244945526e-01],"split_indices":[346,0,295,0,330,0,346,346,0,0,0],"sum_hessian":[3.63160858154296875e+01,2.58880767822265625e+01,1.04280071258544922e+01,1.53742158412933350e+00,8.89058589935302734e+00,2.91811060905456543e+00,5.97247552871704102e+00,4.56555175781250000e+00,1.40692353248596191e+00,1.56300055980682373e+00,3.00255131721496582e+00],"tree_param":{"num_feature":"400","num_nodes":"11","size_leaf_vector":"0"}},{"base_weights":[-1.19154468178749084e-01,5.26733160018920898e-01,-4.06661033630371094e-01,1.11821484565734863e+00,3.69989246129989624e-01,6.52020931243896484e-01,-4.75892752408981323e-01,-4.00135442614555359e-02,5.94032824039459229e-01,2.56867796182632446e-01,-3.66277217864990234e-01,3.48976314067840576e-01,9.85990822315216064e-01,7.13845372200012207e-01,-3.42990934848785400e-01],"default_left":[false,false,false,false,false,false,false,false,false,false,false,false,false,false,false],"id":35,"leaf_child_counts":[0,1,2,0,0,0,0,2,1,0,0,2,0,0,0],"left_children":[1,3,5,-1,7,-1,-1,9,11,-1,-1,13,-1,-1,-1],"loss_changes":[7.40373325347900391e+00,7.32296705245971680e-01,2.31527709960937500e+00,0.00000000000000000e+00,1.05866527557373047e+00,0.00000000000000000e+00,0.00000000000000000e+00,5.70436656475067139e-01,3.61733913421630859e-01,0.00000000000000000e+00,0.00000000000000000e+00,1.77720284461975098e+00,0.00000000000000000e+00,0.00000000000000000e+00,0.00000000000000000e+00],"parents":[2147483647,0,0,1,1,2,2,4,4,7,7,8,8,11,11],"right_children":[2,4,6,-1,8,-1,-1,10,12,-1,-1,14,-1,-1,-1],"split_conditions":[3.51163566112518311e-01,8.21425497531890869e-01,3.28067481517791748e-01,3.35464477539062500e-01,2.27823019027709961e-01,1.95606291294097900e-01,-1.42767831683158875e-01,2.10794433951377869e-01,3.20472627878189087e-01,7.70603418350219727e-02,-1.09883166849613190e-01,2.53665804862976074e-01,2.95797258615493774e-01,2.14153617620468140e-01,-1.02897286415100098e-01],"split_indices":[346,160,334,0,346,0,0,346,346,0,0,346,0,0,0],"sum_hessian":[3.77164764404296875e+01,1.13612318038940430e+01,2.63552436828613281e+01,1.09503507614135742e+00,1.02661962509155273e+01,1.10099649429321289e+00,2.52542476654052734e+01,3.91786074638366699e+00,6.34833621978759766e+00,2.16266107559204102e+00,1.75519943237304688e+00,5.06929636001586914e+00,1.27903962135314941e+00,3.29843783378601074e+00,1.77085840702056885e+00],"tree_param":{"num_feature":"400","num_nodes":"15","size_leaf_vector":"0"}},{"base_weights":[1.56450971961021423e-01,4.69936788082122803e-01,-1.27636879682540894e-01,-3.26173752546310425e-01,5.32010972499847412e-01,1.15550613403320312e+00,-3.10274869203567505e-01,-3.57490420341491699e-01,5.94374418258666992e-01,-4.19452667236328125e-01,7.36856102943420410e-01,-2.98848927021026611e-01,6.58170461654663086e-01,-3.19623142480850220e-01,7.26087093353271484e-01,8.00833821296691895e-01,-1.91912129521369934e-02],"default_left":[false,false,false,false,false,false,true,false,false,false,false,false,false,false,true,false,false],"id":36,"leaf_child_counts":[0,1,1,0,1,0,2,0,1,0,0,0,1,0,2,0,0],"left_children":[1,3,5,-1,7,-1,9,-1,11,-1,-1,-1,13,-1,15,-1,-1],"loss_changes":[4.47694969177246094e+00,1.34928035736083984e+00,6.64024305343627930e+00,0.00000000000000000e+00,1.45790386199951172e+00,0.00000000000000000e+00,3.08178591728210449e+00,0.00000000000000000e+00,1.41363525390625000e+00,0.00000000000000000e+00,0.00000000000000000e+00,0.00000000000000000e+00,1.57647800445556641e+00,0.00000000000000000e+00,1.08691120147705078e+00,0.00000000000000000e+00,0.00000000000000000e+00],"parents":[2147483647,0,0,1,1,2,2,4,4,6,6,8,8,12,12,14,14],"right_children":[2,4,6,-1,8,-1,10,-1,12,-1,-1,-1,14,-1,16,-1,-1],"split_conditions":[3.07932317256927490e-01,8.88094305992126465e-01,1.04735445976257324e+00,-9.78521332144737244e-02,1.11197614669799805e+00,3.46651852130889893e-01,4.45785015821456909e-01,-1.07247129082679749e-01,7.65441000461578369e-01,-1.25835806131362915e-01,2.21056833863258362e-01,-8.96546840667724609e-02,8.86475384235382080e-01,-9.58869457244873047e-02,2.58858263492584229e-01,2.40250155329704285e-01,-5.75736397877335548e-03],"split_indices":[35,22,104,0,54,0,221,0,240,0,0,0,253,0,382,0,0],"sum_hessian":[4.85968132019042969e+01,2.27920265197753906e+01,2.58047847747802734e+01,1.34084963798522949e+00,2.14511756896972656e+01,2.55158567428588867e+00,2.32532005310058594e+01,1.09536862373352051e+00,2.03558082580566406e+01,2.16004791259765625e+01,1.65272021293640137e+00,1.11133277416229248e+00,1.92444744110107422e+01,1.00918304920196533e+00,1.82352924346923828e+01,1.65053653717041016e+01,1.72992777824401855e+00],"tree_param":{"num_feature":"400","num_nodes":"17","size_leaf_vector":"0"}},{"base_weights":[-7.27953910827636719e-02,-5.03292918205261230e-01,5.17409265041351318e-01,1.05988574028015137e+00,3.26037645339965820e-01,1.01287472248077393e+00,1.35787367820739746e-01,1.01287472248077393e+00,-1.20998941361904144e-01,8.84452223777770996e-01,-3.79233837127685547e-01],"default_left":[true,false,false,false,false,false,false,false,false,false,false],"id":37,"leaf_child_counts":[1,0,1,0,1,0,1,0,2,0,0],"left_children":[1,-1,3,-1,5,-1,7,-1,9,-1,-1],"loss_changes":[9.55959510803222656e+00,0.00000000000000000e+00,1.30814027786254883e+00,0.00000000000000000e+00,1.58988630771636963e+00,0.00000000000000000e+00,2.71420073509216309e+00,0.00000000000000000e+00,2.87842798233032227e+00,0.00000000000000000e+00,0.00000000000000000e+00],"parents":[2147483647,0,0,2,2,4,4,6,6,8,8],"right_children":[2,-1,4,-1,6,-1,8,-1,10,-1,-1],"split_conditions":[1.73996821045875549e-01,-1.50987878441810608e-01,7.65441000461578369e-01,3.17965745925903320e-01,1.39386010169982910e+00,3.03862422704696655e-01,1.41966533660888672e+00,3.03862422704696655e-01,1.38868308067321777e+00,2.65335679054260254e-01,-1.13770157098770142e-01],"split_indices":[35,0,240,0,45,0,46,0,44,0,0],"sum_hessian":[3.55992050170898438e+01,2.06698169708251953e+01,1.49293861389160156e+01,2.70975279808044434e+00,1.22196340560913086e+01,1.71267330646514893e+00,1.05069599151611328e+01,1.71267330646514893e+00,8.79428672790527344e+00,1.30156874656677246e+00,7.49271821975708008e+00],"tree_param":{"num_feature":"400","num_nodes":"11","size_leaf_vector":"0"}},{"base_weights":[-1.47366702556610107e-01,-5.03825485706329346e-01,4.32899445295333862e-01,1.25186586380004883e+00,1.99823647737503052e-01,1.09434437751770020e+00,-1.66249081492424011e-01,6.83922246098518372e-02,-2.94952422380447388e-01,-3.21355879306793213e-01,4.07720297574996948e-01,-4.15954917669296265e-01,-1.36411106213927269e-02],"default_left":[true,false,false,false,false,false,false,false,false,false,false,false,false],"id":38,"leaf_child_counts":[1,0,1,0,1,0,0,2,2,0,0,0,0],"left_children":[1,-1,3,-1,5,-1,7,9,11,-1,-1,-1,-1],"loss_changes":[7.38713788986206055e+00,0.00000000000000000e+00,2.37010169029235840e+00,0.00000000000000000e+00,4.07080650329589844e+00,0.00000000000000000e+00,3.00881743431091309e-01,6.73831045627593994e-01,2.05062031745910645e-01,0.00000000000000000e+00,0.00000000000000000e+00,0.00000000000000000e+00,0.00000000000000000e+00],"parents":[2147483647,0,0,2,2,4,4,6,6,7,7,8,8],"right_children":[2,-1,4,-1,6,-1,8,10,12,-1,-1,-1,-1],"split_conditions":[1.77498131990432739e-01,-1.51147648692131042e-01,1.41966533660888672e+00,3.75559777021408081e-01,1.06030774116516113e+00,3.28303337097167969e-01,2.07699343562126160e-01,1.95791184902191162e-01,2.86926865577697754e-01,-9.64067652821540833e-02,1.22316092252731323e-01,-1.24786481261253357e-01,-4.09233337268233299e-03],"split_indices":[35,0,56,0,61,0,35,35,35,0,0,0,0],"sum_hessian":[3.36596298217773438e+01,2.09324893951416016e+01,1.27271413803100586e+01,1.85125494003295898e+00,1.08758869171142578e+01,2.58060526847839355e+00,8.29528141021728516e+00,3.10432934761047363e+00,5.19095182418823242e+00,1.46947383880615234e+00,1.63485562801361084e+00,3.29501438140869141e+00,1.89593756198883057e+00],"tree_param":{"num_feature":"400","num_nodes":"13","size_leaf_vector":"0"}},{"base_weights":[3.36989574134349823e-02,-2.72425740957260132e-01,4.34585809707641602e-01,-3.40111345052719116e-01,5.30275702476501465e-01,1.21803903579711914e+00,2.98070758581161499e-01,-4.50273126363754272e-01,-2.78357267379760742e-01,1.13137066364288330e+00,1.75732105970382690e-01,-3.96960109472274780e-01,2.92287945747375488e-01,6.78685426712036133e-01,7.04393535852432251e-02,1.55297890305519104e-01,7.77671754360198975e-01,-4.09019529819488525e-01,2.75669306516647339e-01],"default_left":[true,true,false,false,false,false,false,false,false,false,false,false,false,false,false,false,false,false,false],"id":39,"leaf_child_counts":[0,1,1,2,0,0,1,0,0,0,1,0,0,2,2,0,0,0,0],"left_children":[1,3,5,7,-1,-1,9,-1,-1,-1,11,-1,13,15,17,-1,-1,-1,-1],"loss_changes":[5.36011219024658203e+00,1.52957737445831299e+00,1.65611648559570312e+00,3.46095561981201172e-02,0.00000000000000000e+00,0.00000000000000000e+00,1.57518458366394043e+00,0.00000000000000000e+00,0.00000000000000000e+00,0.00000000000000000e+00,1.20791888236999512e+00,0.00000000000000000e+00,1.16665816307067871e+00,1.40942573547363281e-01,1.10815536975860596e+00,0.00000000000000000e+00,0.00000000000000000e+00,0.00000000000000000e+00,0.00000000000000000e+00],"parents":[2147483647,0,0,1,1,2,2,3,3,6,6,10,10,12,12,13,13,14,14],"right_children":[2,4,6,8,-1,-1,10,-1,-1,-1,12,-1,14,16,18,-1,-1,-1,-1],"split_conditions":[1.56779110431671143e-01,2.88083970546722412e-01,1.22638678550720215e+00,7.22592473030090332e-01,1.59082710742950439e-01,3.65411728620529175e-01,3.70215356349945068e-01,-1.35081946849822998e-01,-8.35071802139282227e-02,3.39411199092864990e-01,2.91249275207519531e-01,-1.19088038802146912e-01,1.95488914847373962e-01,6.33709430694580078e-01,2.18940287828445435e-01,4.65893670916557312e-02,2.33301535248756409e-01,-1.22705861926078796e-01,8.27007964253425598e-02],"split_indices":[35,334,253,346,0,0,160,0,0,0,382,0,35,341,35,0,0,0,0],"sum_hessian":[4.17123641967773438e+01,2.38332729339599609e+01,1.78790912628173828e+01,2.25113563537597656e+01,1.32191658020019531e+00,1.47748672962188721e+00,1.64016036987304688e+01,5.82639026641845703e+00,1.66849651336669922e+01,1.04382359981536865e+00,1.53577804565429688e+01,2.19026350975036621e+00,1.31675167083740234e+01,4.05158138275146484e+00,9.11593627929687500e+00,1.05296087265014648e+00,2.99862051010131836e+00,2.43479013442993164e+00,6.68114566802978516e+00],"tree_param":{"num_feature":"400","num_nodes":"19","size_leaf_vector":"0"}},{"base_weights":[-1.33181875571608543e-02,1.53660964965820312e+00,-1.02892279624938965e-01,9.53132510185241699e-01,-2.40335360169410706e-01,9.29959714412689209e-01,-3.83784681558609009e-01,-4.42197263240814209e-01,5.13104677200317383e-01],"default_left":[false,false,false,false,false,false,true,false,false],"id":40,"leaf_child_counts":[1,0,1,0,1,0,2,0,0],"left_children":[1,-1,3,-1,5,-1,7,-1,-1],"loss_changes":[5.33242797851562500e+00,0.00000000000000000e+00,5.47905206680297852e+00,0.00000000000000000e+00,5.86398935317993164e+00,0.00000000000000000e+00,1.79491710662841797e+00,0.00000000000000000e+00,0.00000000000000000e+00],"parents":[2147483647,0,0,2,2,4,4,6,6],"right_children":[2,-1,4,-1,6,-1,8,-1,-1],"split_conditions":[2.00000095367431641e+00,4.60982918739318848e-01,2.00000095367431641e+00,2.85939753055572510e-01,2.00000095367431641e+00,2.78987914323806763e-01,3.11470806598663330e-01,-1.32659181952476501e-01,1.53931409120559692e-01],"split_indices":[125,0,131,0,204,0,4,0,0],"sum_hessian":[3.62700195312500000e+01,1.09900367259979248e+00,3.51710166931152344e+01,3.36693048477172852e+00,3.18040847778320312e+01,2.87404775619506836e+00,2.89300384521484375e+01,2.76370582580566406e+01,1.29298019409179688e+00],"tree_param":{"num_feature":"400","num_nodes":"9","size_leaf_vector":"0"}},{"base_weights":[-1.15989511832594872e-02,1.14374458789825439e+00,-1.15527823567390442e-01,9.79712426662445068e-01,-2.12139725685119629e-01,-4.63701844215393066e-01,-1.34858787059783936e-01,-4.50593054294586182e-01,-3.87299507856369019e-02,-2.89955645799636841e-01,-1.40626961365342140e-02,-2.81077414751052856e-01,1.13064944744110107e-02],"default_left":[false,false,false,false,false,false,false,false,false,false,false,false,false],"id":41,"leaf_child_counts":[1,0,1,0,1,0,1,0,1,0,2,0,0],"left_children":[1,-1,3,-1,5,-1,7,-1,9,-1,11,-1,-1],"loss_changes":[5.22347736358642578e+00,0.00000000000000000e+00,4.42033100128173828e+00,0.00000000000000000e+00,6.64666533470153809e-01,0.00000000000000000e+00,8.93844485282897949e-01,0.00000000000000000e+00,1.45341023802757263e-01,0.00000000000000000e+00,1.59022599458694458e-01,0.00000000000000000e+00,0.00000000000000000e+00],"parents":[2147483647,0,0,2,2,4,4,6,6,8,8,10,10],"right_children":[2,-1,4,-1,6,-1,8,-1,10,-1,12,-1,-1],"split_conditions":[2.00000095367431641e+00,3.43123376369476318e-01,2.00000095367431641e+00,2.93913751840591431e-01,6.76442861557006836e-01,-1.39110565185546875e-01,7.22592473030090332e-01,-1.35177925229072571e-01,1.07486104965209961e+00,-8.69866982102394104e-02,1.03227686882019043e+00,-8.43232274055480957e-02,3.39194852858781815e-03],"split_indices":[181,0,310,0,35,0,346,0,96,0,271,0,0],"sum_hessian":[4.14018669128417969e+01,2.59120535850524902e+00,3.88106613159179688e+01,2.40505623817443848e+00,3.64056053161621094e+01,7.38053750991821289e+00,2.90250682830810547e+01,5.91381454467773438e+00,2.31112537384033203e+01,1.10478627681732178e+00,2.20064678192138672e+01,1.03486537933349609e+00,2.09716014862060547e+01],"tree_param":{"num_feature":"400","num_nodes":"13","size_leaf_vector":"0"}},{"base_weights":[1.85161143541336060e-01,1.66275322437286377e+00,1.21329180896282196e-01,9.01234865188598633e-01,2.52764150500297546e-02,1.21887254714965820e+00,-4.21853289008140564e-02,-1.23875916004180908e-01,1.04258668422698975e+00,1.15913760662078857e+00,-2.01452136039733887e-01,-4.63701844215393066e-01,-1.28773421049118042e-01],"default_left":[false,false,false,false,false,false,true,false,false,false,false,false,false],"id":42,"leaf_child_counts":[1,0,1,0,1,0,1,1,0,0,2,0,0],"left_children":[1,-1,3,-1,5,-1,7,9,-1,-1,11,-1,-1],"loss_changes":[4.61773872375488281e+00,0.00000000000000000e+00,3.72740101814270020e+00,0.00000000000000000e+00,3.72326707839965820e+00,0.00000000000000000e+00,4.03954935073852539e+00,4.40696334838867188e+00,0.00000000000000000e+00,0.00000000000000000e+00,7.10161685943603516e-01,0.00000000000000000e+00,0.00000000000000000e+00],"parents":[2147483647,0,0,2,2,4,4,6,6,7,7,10,10],"right_children":[2,-1,4,-1,6,-1,8,10,-1,-1,12,-1,-1],"split_conditions":[2.00000095367431641e+00,4.98825997114181519e-01,2.00000095367431641e+00,2.70370483398437500e-01,2.00000095367431641e+00,3.65661770105361938e-01,3.52612823247909546e-01,2.00000095367431641e+00,3.12776029109954834e-01,3.47741305828094482e-01,6.76442861557006836e-01,-1.39110565185546875e-01,-3.86320278048515320e-02],"split_indices":[77,0,70,0,210,0,134,146,0,0,35,0,0],"sum_hessian":[5.00984077453613281e+01,1.03732538223266602e+00,4.90610847473144531e+01,4.46056604385375977e+00,4.46005172729492188e+01,1.47290444374084473e+00,4.31276130676269531e+01,4.09310379028320312e+01,2.19657611846923828e+00,1.53882789611816406e+00,3.93922080993652344e+01,7.38053750991821289e+00,3.20116729736328125e+01],"tree_param":{"num_feature":"400","num_nodes":"13","size_leaf_vector":"0"}},{"base_weights":[3.74459847807884216e-02,1.11329030990600586e+00,-5.52332773804664612e-02,-1.28104731440544128e-01,1.11742091178894043e+00,-4.64666932821273804e-01,-3.95045578479766846e-02,-4.51831132173538208e-01,6.63714110851287842e-02,-3.08967351913452148e-01,9.54768881201744080e-02,-3.04883837699890137e-01,1.26427978277206421e-01],"default_left":[false,false,true,false,false,false,false,false,false,false,false,false,false],"id":43,"leaf_child_counts":[1,0,1,1,0,0,1,0,1,0,2,0,0],"left_children":[1,-1,3,5,-1,-1,7,-1,9,-1,11,-1,-1],"loss_changes":[4.57161569595336914e+00,0.00000000000000000e+00,3.78329777717590332e+00,1.20433545112609863e+00,0.00000000000000000e+00,0.00000000000000000e+00,1.49468910694122314e+00,0.00000000000000000e+00,3.30666422843933105e-01,0.00000000000000000e+00,3.65043133497238159e-01,0.00000000000000000e+00,0.00000000000000000e+00],"parents":[2147483647,0,0,2,2,3,3,6,6,8,8,10,10],"right_children":[2,-1,4,6,-1,-1,8,-1,10,-1,12,-1,-1],"split_conditions":[1.03227686882019043e+00,3.33987116813659668e-01,4.14869844913482666e-01,6.76442861557006836e-01,3.35226297378540039e-01,-1.39400079846382141e-01,7.22592473030090332e-01,-1.35549351572990417e-01,1.07486104965209961e+00,-9.26902070641517639e-02,2.00000095367431641e+00,-9.14651528000831604e-02,3.79283949732780457e-02],"split_indices":[271,0,112,35,0,0,346,0,96,0,181,0,0],"sum_hessian":[4.42331199645996094e+01,2.63484764099121094e+00,4.15982704162597656e+01,4.00031394958496094e+01,1.59513139724731445e+00,7.45178508758544922e+00,3.25513534545898438e+01,5.98308753967285156e+00,2.65682678222656250e+01,1.21999561786651611e+00,2.53482704162597656e+01,1.18388569355010986e+00,2.41643848419189453e+01],"tree_param":{"num_feature":"400","num_nodes":"13","size_leaf_vector":"0"}},{"base_weights":[6.79962113499641418e-02,4.77281868457794189e-01,-2.11464554071426392e-01,-3.55066537857055664e-01,5.55043220520019531e-01,-2.66674965620040894e-01,5.74366867542266846e-01,-3.45630645751953125e-01,6.32065415382385254e-01,-4.65201169252395630e-01,-1.71036317944526672e-01,-3.11190515756607056e-01,7.19275832176208496e-01,-2.86599040031433105e-01,-1.49318218231201172e-01,3.68621125817298889e-02,7.82154858112335205e-01],"default_left":[false,false,true,false,false,false,false,false,false,false,false,false,false,false,false,false,false],"id":44,"leaf_child_counts":[0,1,1,0,1,1,0,0,1,0,2,0,2,0,0,0,0],"left_children":[1,3,5,-1,7,9,-1,-1,11,-1,13,-1,15,-1,-1,-1,-1],"loss_changes":[5.57808637619018555e+00,1.47453784942626953e+00,1.41783225536346436e+00,0.00000000000000000e+00,1.49772453308105469e+00,4.50515508651733398e-01,0.00000000000000000e+00,0.00000000000000000e+00,1.65036773681640625e+00,0.00000000000000000e+00,8.46344232559204102e-03,0.00000000000000000e+00,6.65264129638671875e-01,0.00000000000000000e+00,0.00000000000000000e+00,0.00000000000000000e+00,0.00000000000000000e+00],"parents":[2147483647,0,0,1,1,2,2,4,4,5,5,8,8,10,10,12,12],"right_children":[2,4,6,-1,8,10,-1,-1,12,-1,14,-1,16,-1,-1,-1,-1],"split_conditions":[3.12859773635864258e-01,8.21425497531890869e-01,4.47099387645721436e-01,-1.06519967317581177e-01,8.81753265857696533e-01,6.76442861557006836e-01,1.72310069203376770e-01,-1.03689201176166534e-01,7.61689782142639160e-01,-1.39560356736183167e-01,7.22592473030090332e-01,-9.33571606874465942e-02,8.80377173423767090e-01,-8.59797149896621704e-02,-4.47954684495925903e-02,1.10586341470479965e-02,2.34646469354629517e-01],"split_indices":[346,160,221,0,253,35,0,0,240,0,346,0,330,0,0,0,0],"sum_hessian":[4.68859291076660156e+01,1.87368774414062500e+01,2.81490535736083984e+01,1.29621744155883789e+00,1.74406604766845703e+01,2.69184780120849609e+01,1.23057436943054199e+00,1.09922647476196289e+00,1.63414325714111328e+01,7.49540424346923828e+00,1.94230747222900391e+01,1.16564953327178955e+00,1.51757831573486328e+01,1.14328598976135254e+00,1.82797889709472656e+01,1.41418302059173584e+00,1.37616004943847656e+01],"tree_param":{"num_feature":"400","num_nodes":"17","size_leaf_vector":"0"}},{"base_weights":[-1.81447938084602356e-01,-5.05273163318634033e-01,4.91626322269439697e-01,1.15667784214019775e+00,2.21399396657943726e-01,1.02751278877258301e+00,-9.14429053664207458e-02,-3.03032249212265015e-01,5.64157485961914062e-01,-1.32457122206687927e-01,-3.94493728876113892e-01,-3.38094949722290039e-01,1.94989234209060669e-01],"default_left":[true,false,false,false,false,false,false,false,false,false,false,false,false],"id":45,"leaf_child_counts":[1,0,1,0,1,0,1,1,0,2,0,0,0],"left_children":[1,-1,3,-1,5,-1,7,9,-1,11,-1,-1,-1],"loss_changes":[7.56589508056640625e+00,0.00000000000000000e+00,1.79488968849182129e+00,0.00000000000000000e+00,2.45234823226928711e+00,0.00000000000000000e+00,1.23290622234344482e+00,4.81879115104675293e-02,0.00000000000000000e+00,3.18611323833465576e-01,0.00000000000000000e+00,0.00000000000000000e+00,0.00000000000000000e+00],"parents":[2147483647,0,0,2,2,4,4,6,6,7,7,9,9],"right_children":[2,-1,4,-1,6,-1,8,10,-1,12,-1,-1,-1],"split_conditions":[1.90383851528167725e-01,-1.51581957936286926e-01,7.61689782142639160e-01,3.47003370523452759e-01,1.22799682617187500e+00,3.08253854513168335e-01,3.32802861928939819e-01,2.39507377147674561e-01,1.69247254729270935e-01,2.28761821985244751e-01,-1.18348121643066406e-01,-1.01428486406803131e-01,5.84967732429504395e-02],"split_indices":[346,0,240,0,159,0,346,346,0,346,0,0,0],"sum_hessian":[3.25728721618652344e+01,2.21604728698730469e+01,1.04123992919921875e+01,2.06062674522399902e+00,8.35177326202392578e+00,1.69632923603057861e+00,6.65544366836547852e+00,5.43811750411987305e+00,1.21732628345489502e+00,2.75265669822692871e+00,2.68546080589294434e+00,1.67084074020385742e+00,1.08181583881378174e+00],"tree_param":{"num_feature":"400","num_nodes":"13","size_leaf_vector":"0"}},{"base_weights":[-1.52375876903533936e-01,-5.05172371864318848e-01,5.51335752010345459e-01,1.18246114253997803e+00,3.08026015758514404e-01,9.45269644260406494e-01,-1.57244220376014709e-01,-2.38141939043998718e-01,7.56110846996307373e-02,7.19509720802307129e-02,-3.87650221586227417e-01],"default_left":[true,false,false,false,false,false,false,false,false,false,false],"id":46,"leaf_child_counts":[1,0,1,0,1,0,1,2,0,0,0],"left_children":[1,-1,3,-1,5,-1,7,9,-1,-1,-1],"loss_changes":[8.75644302368164062e+00,0.00000000000000000e+00,1.46023988723754883e+00,0.00000000000000000e+00,3.09206438064575195e+00,0.00000000000000000e+00,1.42247140407562256e-01,2.65997529029846191e-01,0.00000000000000000e+00,0.00000000000000000e+00,0.00000000000000000e+00],"parents":[2147483647,0,0,2,2,4,4,6,6,7,7],"right_children":[2,-1,4,-1,6,-1,8,10,-1,-1,-1],"split_conditions":[1.97270840406417847e-01,-1.51551723480224609e-01,1.22799682617187500e+00,3.54738354682922363e-01,8.80377173423767090e-01,2.83580899238586426e-01,3.12859773635864258e-01,2.23422229290008545e-01,2.26833261549472809e-02,2.15852931141853333e-02,-1.16295069456100464e-01],"split_indices":[346,0,295,0,330,0,346,346,0,0,0],"sum_hessian":[3.31484146118164062e+01,2.22671871185302734e+01,1.08812265396118164e+01,1.95366942882537842e+00,8.92755699157714844e+00,3.33213686943054199e+00,5.59542036056518555e+00,4.13585376739501953e+00,1.45956659317016602e+00,1.51414251327514648e+00,2.62171125411987305e+00],"tree_param":{"num_feature":"400","num_nodes":"11","size_leaf_vector":"0"}},{"base_weights":[-9.76253673434257507e-02,-3.87022465467453003e-01,4.47030931711196899e-01,-4.62719351053237915e-01,5.04326462745666504e-01,1.44888460636138916e+00,2.20783263444900513e-01,1.15324211120605469e+00,2.58366055786609650e-02,6.53466761112213135e-01,-1.82090073823928833e-01,-4.43646818399429321e-01,5.94903826713562012e-02,7.06206440925598145e-01,-4.13766115903854370e-01],"default_left":[true,true,false,false,false,false,false,false,false,false,false,false,false,false,false],"id":47,"leaf_child_counts":[0,2,1,0,0,0,1,0,1,0,1,0,2,0,0],"left_children":[1,3,5,-1,-1,-1,7,-1,9,-1,11,-1,13,-1,-1],"loss_changes":[5.91260099411010742e+00,1.87394666671752930e+00,2.64915752410888672e+00,0.00000000000000000e+00,0.00000000000000000e+00,0.00000000000000000e+00,2.12708854675292969e+00,0.00000000000000000e+00,1.53317415714263916e+00,0.00000000000000000e+00,5.90146303176879883e-01,0.00000000000000000e+00,1.98163044452667236e+00,0.00000000000000000e+00,0.00000000000000000e+00],"parents":[2147483647,0,0,1,1,2,2,6,6,8,8,10,10,12,12],"right_children":[2,4,6,-1,-1,-1,8,-1,10,-1,12,-1,14,-1,-1],"split_conditions":[1.84253752231597900e-01,2.88083970546722412e-01,1.21397399902343750e+00,-1.38815805315971375e-01,1.51297941803932190e-01,4.34665411710739136e-01,1.30830812454223633e+00,3.45972657203674316e-01,2.10794433951377869e-01,1.96040034294128418e-01,2.39578723907470703e-01,-1.33094057440757751e-01,2.57938802242279053e-01,2.11861938238143921e-01,-1.24129839241504669e-01],"split_indices":[346,334,253,0,0,0,340,0,346,0,346,0,346,0,0],"sum_hessian":[3.54136428833007812e+01,2.33149318695068359e+01,1.20987129211425781e+01,2.19331588745117188e+01,1.38177299499511719e+00,1.23334145545959473e+00,1.08653707504272461e+01,1.02879774570465088e+00,9.83657360076904297e+00,1.91458654403686523e+00,7.92198657989501953e+00,3.40211534500122070e+00,4.51987123489379883e+00,1.70192432403564453e+00,2.81794691085815430e+00],"tree_param":{"num_feature":"400","num_nodes":"15","size_leaf_vector":"0"}},{"base_weights":[1.20449304580688477e-01,8.93141686916351318e-01,4.79760393500328064e-02,8.69454681873321533e-01,-1.70718710869550705e-02,2.61958211660385132e-01,-3.23430299758911133e-01,-3.81453216075897217e-01,3.41675370931625366e-01,3.88422101736068726e-01,-3.98532271385192871e-01,-3.52021723985671997e-01,3.96370440721511841e-01,8.99974167346954346e-01,2.59299933910369873e-01],"default_left":[false,false,false,false,false,false,false,false,false,false,false,false,false,false,false],"id":48,"leaf_child_counts":[1,0,1,0,0,1,2,0,1,0,0,0,2,0,0],"left_children":[1,-1,3,-1,5,7,9,-1,11,-1,-1,-1,13,-1,-1],"loss_changes":[2.69174647331237793e+00,0.00000000000000000e+00,2.45694231986999512e+00,0.00000000000000000e+00,3.78864932060241699e+00,1.32174599170684814e+00,1.28287577629089355e+00,0.00000000000000000e+00,9.43720579147338867e-01,0.00000000000000000e+00,0.00000000000000000e+00,0.00000000000000000e+00,1.15527534484863281e+00,0.00000000000000000e+00,0.00000000000000000e+00],"parents":[2147483647,0,0,2,2,4,4,5,5,6,6,8,8,12,12],"right_children":[2,-1,4,-1,6,8,10,-1,12,-1,-1,-1,14,-1,-1],"split_conditions":[4.47669446468353271e-01,2.67942517995834351e-01,1.04735445976257324e+00,2.60836422443389893e-01,3.07932317256927490e-01,6.68791711330413818e-01,1.20911407470703125e+00,-1.14435970783233643e-01,1.11197614669799805e+00,1.16526633501052856e-01,-1.19559682905673981e-01,-1.05606518685817719e-01,8.50073397159576416e-01,2.69992262125015259e-01,7.77899846434593201e-02],"split_indices":[96,0,104,0,35,382,221,0,54,0,0,0,341,0,0],"sum_hessian":[4.78324699401855469e+01,3.13063716888427734e+00,4.47018356323242188e+01,2.37257885932922363e+00,4.23292541503906250e+01,2.22285270690917969e+01,2.01007289886474609e+01,2.03319168090820312e+00,2.01953353881835938e+01,1.52014398574829102e+00,1.85805835723876953e+01,1.07865738868713379e+00,1.91166782379150391e+01,2.89917898178100586e+00,1.62174987792968750e+01],"tree_param":{"num_feature":"400","num_nodes":"15","size_leaf_vector":"0"}},{"base_weights":[-6.19315430521965027e-02,-4.95950758457183838e-01,4.54992562532424927e-01,8.52734982967376709e-01,2.98192799091339111e-01,8.22236061096191406e-01,1.32637009024620056e-01,8.22236061096191406e-01,-1.02435879409313202e-01,7.29991853237152100e-01,-3.53963792324066162e-01,-4.27477240562438965e-01,-1.99223250150680542e-01],"default_left":[true,false,false,false,false,false,false,false,false,false,false,false,false],"id":49,"leaf_child_counts":[1,0,1,0,1,0,1,0,1,0,2,0,0],"left_children":[1,-1,3,-1,5,-1,7,-1,9,-1,11,-1,-1],"loss_changes":[7.77723836898803711e+00,0.00000000000000000e+00,7.36331462860107422e-01,0.00000000000000000e+00,1.01275610923767090e+00,0.00000000000000000e+00,1.87037849426269531e+00,0.00000000000000000e+00,2.16509938240051270e+00,0.00000000000000000e+00,2.05057859420776367e-03,0.00000000000000000e+00,0.00000000000000000e+00],"parents":[2147483647,0,0,2,2,4,4,6,6,8,8,10,10],"right_children":[2,-1,4,-1,6,-1,8,-1,10,-1,12,-1,-1],"split_conditions":[1.73996821045875549e-01,-1.48785233497619629e-01,7.65441000461578369e-01,2.55820512771606445e-01,1.39386010169982910e+00,2.46670827269554138e-01,1.41966533660888672e+00,2.46670827269554138e-01,1.38868308067321777e+00,2.18997567892074585e-01,2.15313896536827087e-01,-1.28243178129196167e-01,-5.97669780254364014e-02],"split_indices":[35,0,240,0,45,0,46,0,44,0,35,0,0],"sum_hessian":[3.26590881347656250e+01,1.77752361297607422e+01,1.48838500976562500e+01,2.95351576805114746e+00,1.19303340911865234e+01,1.91191625595092773e+00,1.00184173583984375e+01,1.91191625595092773e+00,8.10650157928466797e+00,1.43967831134796143e+00,6.66682291030883789e+00,3.32476663589477539e+00,3.34205651283264160e+00],"tree_param":{"num_feature":"400","num_nodes":"13","size_leaf_vector":"0"}},{"base_weights":[-1.33406743407249451e-01,-4.96445953845977783e-01,3.82696628570556641e-01,1.02128660678863525e+00,1.81185260415077209e-01,8.97030532360076904e-01,-1.44548058509826660e-01,7.29477554559707642e-02,-2.72840708494186401e-01,-3.00574600696563721e-01,3.54708135128021240e-01,-4.00052875280380249e-01,-2.75920407148078084e-04],"default_left":[true,false,false,false,false,false,false,false,false,false,false,false,false],"id":50,"leaf_child_counts":[1,0,1,0,1,0,0,2,2,0,0,0,0],"left_children":[1,-1,3,-1,5,-1,7,9,11,-1,-1,-1,-1],"loss_changes":[6.11246728897094727e+00,0.00000000000000000e+00,1.56731450557708740e+00,0.00000000000000000e+00,2.82676863670349121e+00,0.00000000000000000e+00,2.65751600265502930e-01,5.33692777156829834e-01,1.99360221624374390e-01,0.00000000000000000e+00,0.00000000000000000e+00,0.00000000000000000e+00,0.00000000000000000e+00],"parents":[2147483647,0,0,2,2,4,4,6,6,7,7,8,8],"right_children":[2,-1,4,-1,6,-1,8,10,12,-1,-1,-1,-1],"split_conditions":[1.77498131990432739e-01,-1.48933798074722290e-01,1.41966533660888672e+00,3.06385993957519531e-01,1.06030774116516113e+00,2.69109159708023071e-01,2.07699343562126160e-01,1.95791184902191162e-01,2.86926865577697754e-01,-9.01723802089691162e-02,1.06412447988986969e-01,-1.20015867054462433e-01,-8.27761250548064709e-05],"split_indices":[35,0,56,0,61,0,35,35,35,0,0,0,0],"sum_hessian":[3.06091861724853516e+01,1.79915771484375000e+01,1.26176090240478516e+01,2.05072402954101562e+00,1.05668849945068359e+01,2.75609493255615234e+00,7.81079006195068359e+00,3.05797314643859863e+00,4.75281667709350586e+00,1.28616476058959961e+00,1.77180850505828857e+00,2.92153549194335938e+00,1.83128142356872559e+00],"tree_param":{"num_feature":"400","num_nodes":"13","size_leaf_vector":"0"}},{"base_weights":[3.75456660985946655e-02,-2.49810457229614258e-01,3.71543496847152710e-01,-3.19074690341949463e-01,4.49863642454147339e-01,1.07438981533050537e+00,2.71382957696914673e-01,-4.35491144657135010e-01,-2.57638007402420044e-01,9.35964703559875488e-01,1.43698439002037048e-01,9.07428801059722900e-01,2.20995452255010605e-02,-6.54300600290298462e-02,5.83186924457550049e-01,3.11739802360534668e-01,-2.96440780162811279e-01],"default_left":[true,true,false,false,false,false,false,false,false,false,false,false,true,false,false,false,false],"id":51,"leaf_child_counts":[0,1,1,2,0,0,1,0,0,0,1,0,1,2,0,0,0],"left_children":[1,3,5,7,-1,-1,9,-1,-1,-1,11,-1,13,15,-1,-1,-1],"loss_changes":[4.07874488830566406e+00,1.25438797473907471e+00,1.08881616592407227e+00,4.11601066589355469e-02,0.00000000000000000e+00,0.00000000000000000e+00,1.43540847301483154e+00,0.00000000000000000e+00,0.00000000000000000e+00,0.00000000000000000e+00,1.53089046478271484e+00,0.00000000000000000e+00,7.96029388904571533e-01,1.33386492729187012e+00,0.00000000000000000e+00,0.00000000000000000e+00,0.00000000000000000e+00],"parents":[2147483647,0,0,1,1,2,2,3,3,6,6,10,10,12,12,13,13],"right_children":[2,4,6,8,-1,-1,10,-1,-1,-1,12,-1,14,16,-1,-1,-1],"split_conditions":[1.56779110431671143e-01,2.88083970546722412e-01,1.11197614669799805e+00,7.22592473030090332e-01,1.34959101676940918e-01,3.22316944599151611e-01,1.22638678550720215e+00,-1.30647346377372742e-01,-7.72914066910743713e-02,2.80789434909820557e-01,3.70215356349945068e-01,2.72228658199310303e-01,2.86822587251663208e-01,1.95488914847373962e-01,1.74956083297729492e-01,9.35219451785087585e-02,-8.89322385191917419e-02],"split_indices":[35,334,54,346,0,0,253,0,0,0,160,0,382,35,0,0,0],"sum_hessian":[4.05303382873535156e+01,2.19218578338623047e+01,1.86084823608398438e+01,2.04421539306640625e+01,1.47970366477966309e+00,1.10784351825714111e+00,1.75006389617919922e+01,4.95826578140258789e+00,1.54838876724243164e+01,1.80025410652160645e+00,1.57003850936889648e+01,1.26881539821624756e+00,1.44315700531005859e+01,1.32482328414916992e+01,1.18333673477172852e+00,4.89945697784423828e+00,8.34877586364746094e+00],"tree_param":{"num_feature":"400","num_nodes":"17","size_leaf_vector":"0"}},{"base_weights":[-3.56976711191236973e-03,1.23757457733154297e+00,-9.14704427123069763e-02,7.90265798568725586e-01,-2.22316488623619080e-01,7.74954199790954590e-01,-3.63776206970214844e-01,-4.26322579383850098e-01,4.41542655229568481e-01],"default_left":[false,false,false,false,false,false,true,false,false],"id":52,"leaf_child_counts":[1,0,1,0,1,0,2,0,0],"left_children":[1,-1,3,-1,5,-1,7,-1,-1],"loss_changes":[3.86510348320007324e+00,0.00000000000000000e+00,3.98838186264038086e+00,0.00000000000000000e+00,4.45164346694946289e+00,0.00000000000000000e+00,1.52635931968688965e+00,0.00000000000000000e+00,0.00000000000000000e+00],"parents":[2147483647,0,0,2,2,4,4,6,6],"right_children":[2,-1,4,-1,6,-1,8,-1,-1],"split_conditions":[2.00000095367431641e+00,3.71272385120391846e-01,2.00000095367431641e+00,2.37079754471778870e-01,2.00000095367431641e+00,2.32486262917518616e-01,3.11470806598663330e-01,-1.27896785736083984e-01,1.32462799549102783e-01],"split_indices":[125,0,131,0,204,0,4,0,0],"sum_hessian":[3.33903808593750000e+01,1.34334278106689453e+00,3.20470390319824219e+01,3.48989748954772949e+00,2.85571403503417969e+01,2.99121809005737305e+00,2.55659217834472656e+01,2.41601047515869141e+01,1.40581667423248291e+00],"tree_param":{"num_feature":"400","num_nodes":"9","size_leaf_vector":"0"}},{"base_weights":[-1.54371196404099464e-02,8.90682697296142578e-01,-1.07739716768264771e-01,-1.83535978198051453e-01,9.03664112091064453e-01,-4.50674444437026978e-01,-1.13001286983489990e-01,-4.35873329639434814e-01,-3.12137901782989502e-02,-2.73483783006668091e-01,-9.15902946144342422e-03],"default_left":[false,false,true,false,false,false,false,false,false,false,false],"id":53,"leaf_child_counts":[1,0,1,1,0,0,1,0,2,0,0],"left_children":[1,-1,3,5,-1,-1,7,-1,9,-1,-1],"loss_changes":[3.54436159133911133e+00,0.00000000000000000e+00,3.10278820991516113e+00,6.36281371116638184e-01,0.00000000000000000e+00,0.00000000000000000e+00,7.83553004264831543e-01,0.00000000000000000e+00,1.31947964429855347e-01,0.00000000000000000e+00,0.00000000000000000e+00],"parents":[2147483647,0,0,2,2,3,3,6,6,8,8],"right_children":[2,-1,4,6,-1,-1,8,-1,10,-1,-1],"split_conditions":[2.00000095367431641e+00,2.67204821109771729e-01,7.43672132492065430e-01,6.76442861557006836e-01,2.71099239587783813e-01,-1.35202333331108093e-01,7.22592473030090332e-01,-1.30762010812759399e-01,8.81320118904113770e-01,-8.20451378822326660e-02,-2.74770893156528473e-03],"split_indices":[181,0,310,35,0,0,346,0,382,0,0],"sum_hessian":[4.02304458618164062e+01,2.91960048675537109e+00,3.73108444213867188e+01,3.54711151123046875e+01,1.83973002433776855e+00,6.28360414505004883e+00,2.91875114440917969e+01,