{"learner":{"attributes":{"scikit_learn":"{\"n_estimators\": 100, \"objective\": \"multi:softprob\", \"max_depth\": null, \"learning_rate\": null, \"verbosity\": null, \"booster\": null, \"tree_method\": null, \"gamma\": null, \"min_child_weight\": null, \"max_delta_step\": null, \"subsample\": null, \"colsample_bytree\": null, \"colsample_bylevel\": null, \"colsample_bynode\": null, \"reg_alpha\": null, \"reg_lambda\": null, \"scale_pos_weight\": null, \"base_score\": null, \"missing\": NaN, \"num_parallel_tree\": null, \"kwargs\": {}, \"random_state\": null, \"n_jobs\": null, \"monotone_constraints\": null, \"interaction_constraints\": null, \"importance_type\": \"gain\", \"gpu_id\": null, \"validate_parameters\": false, \"classes_\": [\"bus complaints\", \"bus fees\", \"bus ticket booking\", \"bus times\", \"distance places\", \"greeting\", \"home page\", \"options\", \"train complaints\", \"train fees\", \"train ticket booking\", \"train times\"], \"n_classes_\": 12, \"_le\": {\"classes_\": [\"bus complaints\", \"bus fees\", \"bus ticket booking\", \"bus times\", \"distance places\", \"greeting\", \"home page\", \"options\", \"train complaints\", \"train fees\", \"train ticket booking\", \"train times\"]}, \"_features_count\": 392, \"type\": \"XGBClassifier\"}"},"gradient_booster":{"model":{"gbtree_model_param":{"num_trees":"1200","size_leaf_vector":"0"},"tree_info":[0,1,2,3,4,5,6,7,8,9,10,11,0,1,2,3,4,5,6,7,8,9,10,11,0,1,2,3,4,5,6,7,8,9,10,11,0,1,2,3,4,5,6,7,8,9,10,11,0,1,2,3,4,5,6,7,8,9,10,11,0,1,2,3,4,5,6,7,8,9,10,11,0,1,2,3,4,5,6,7,8,9,10,11,0,1,2,3,4,5,6,7,8,9,10,11,0,1,2,3,4,5,6,7,8,9,10,11,0,1,2,3,4,5,6,7,8,9,10,11,0,1,2,3,4,5,6,7,8,9,10,11,0,1,2,3,4,5,6,7,8,9,10,11,0,1,2,3,4,5,6,7,8,9,10,11,0,1,2,3,4,5,6,7,8,9,10,11,0,1,2,3,4,5,6,7,8,9,10,11,0,1,2,3,4,5,6,7,8,9,10,11,0,1,2,3,4,5,6,7,8,9,10,11,0,1,2,3,4,5,6,7,8,9,10,11,0,1,2,3,4,5,6,7,8,9,10,11,0,1,2,3,4,5,6,7,8,9,10,11,0,1,2,3,4,5,6,7,8,9,10,11,0,1,2,3,4,5,6,7,8,9,10,11,0,1,2,3,4,5,6,7,8,9,10,11,0,1,2,3,4,5,6,7,8,9,10,11,0,1,2,3,4,5,6,7,8,9,10,11,0,1,2,3,4,5,6,7,8,9,10,11,0,1,2,3,4,5,6,7,8,9,10,11,0,1,2,3,4,5,6,7,8,9,10,11,0,1,2,3,4,5,6,7,8,9,10,11,0,1,2,3,4,5,6,7,8,9,10,11,0,1,2,3,4,5,6,7,8,9,10,11,0,1,2,3,4,5,6,7,8,9,10,11,0,1,2,3,4,5,6,7,8,9,10,11,0,1,2,3,4,5,6,7,8,9,10,11,0,1,2,3,4,5,6,7,8,9,10,11,0,1,2,3,4,5,6,7,8,9,10,11,0,1,2,3,4,5,6,7,8,9,10,11,0,1,2,3,4,5,6,7,8,9,10,11,0,1,2,3,4,5,6,7,8,9,10,11,0,1,2,3,4,5,6,7,8,9,10,11,0,1,2,3,4,5,6,7,8,9,10,11,0,1,2,3,4,5,6,7,8,9,10,11,0,1,2,3,4,5,6,7,8,9,10,11,0,1,2,3,4,5,6,7,8,9,10,11,0,1,2,3,4,5,6,7,8,9,10,11,0,1,2,3,4,5,6,7,8,9,10,11,0,1,2,3,4,5,6,7,8,9,10,11,0,1,2,3,4,5,6,7,8,9,10,11,0,1,2,3,4,5,6,7,8,9,10,11,0,1,2,3,4,5,6,7,8,9,10,11,0,1,2,3,4,5,6,7,8,9,10,11,0,1,2,3,4,5,6,7,8,9,10,11,0,1,2,3,4,5,6,7,8,9,10,11,0,1,2,3,4,5,6,7,8,9,10,11,0,1,2,3,4,5,6,7,8,9,10,11,0,1,2,3,4,5,6,7,8,9,10,11,0,1,2,3,4,5,6,7,8,9,10,11,0,1,2,3,4,5,6,7,8,9,10,11,0,1,2,3,4,5,6,7,8,9,10,11,0,1,2,3,4,5,6,7,8,9,10,11,0,1,2,3,4,5,6,7,8,9,10,11,0,1,2,3,4,5,6,7,8,9,10,11,0,1,2,3,4,5,6,7,8,9,10,11,0,1,2,3,4,5,6,7,8,9,10,11,0,1,2,3,4,5,6,7,8,9,10,11,0,1,2,3,4,5,6,7,8,9,10,11,0,1,2,3,4,5,6,7,8,9,10,11,0,1,2,3,4,5,6,7,8,9,10,11,0,1,2,3,4,5,6,7,8,9,10,11,0,1,2,3,4,5,6,7,8,9,10,11,0,1,2,3,4,5,6,7,8,9,10,11,0,1,2,3,4,5,6,7,8,9,10,11,0,1,2,3,4,5,6,7,8,9,10,11,0,1,2,3,4,5,6,7,8,9,10,11,0,1,2,3,4,5,6,7,8,9,10,11,0,1,2,3,4,5,6,7,8,9,10,11,0,1,2,3,4,5,6,7,8,9,10,11,0,1,2,3,4,5,6,7,8,9,10,11,0,1,2,3,4,5,6,7,8,9,10,11,0,1,2,3,4,5,6,7,8,9,10,11,0,1,2,3,4,5,6,7,8,9,10,11,0,1,2,3,4,5,6,7,8,9,10,11,0,1,2,3,4,5,6,7,8,9,10,11,0,1,2,3,4,5,6,7,8,9,10,11,0,1,2,3,4,5,6,7,8,9,10,11,0,1,2,3,4,5,6,7,8,9,10,11,0,1,2,3,4,5,6,7,8,9,10,11,0,1,2,3,4,5,6,7,8,9,10,11,0,1,2,3,4,5,6,7,8,9,10,11,0,1,2,3,4,5,6,7,8,9,10,11,0,1,2,3,4,5,6,7,8,9,10,11,0,1,2,3,4,5,6,7,8,9,10,11,0,1,2,3,4,5,6,7,8,9,10,11,0,1,2,3,4,5,6,7,8,9,10,11,0,1,2,3,4,5,6,7,8,9,10,11,0,1,2,3,4,5,6,7,8,9,10,11,0,1,2,3,4,5,6,7,8,9,10,11,0,1,2,3,4,5,6,7,8,9,10,11,0,1,2,3,4,5,6,7,8,9,10,11,0,1,2,3,4,5,6,7,8,9,10,11],"trees":[{"base_weights":[3.30524921417236328e-01,1.84962391853332520e+00,-1.93220332264900208e-01,-2.81879186630249023e-01,2.10540914535522461e+00,1.65100669860839844e+00,-3.07490140199661255e-01,-2.81879186630249023e-01,2.42236018180847168e+00,-3.97098809480667114e-01,1.16778516769409180e+00,2.01342269778251648e-01,-4.25551891326904297e-01],"default_left":[false,false,false,false,false,false,true,false,false,false,false,false,false],"id":0,"leaf_child_counts":[0,1,1,0,2,0,1,0,0,2,0,0,0],"left_children":[1,3,5,-1,7,-1,9,-1,-1,11,-1,-1,-1],"loss_changes":[3.44585838317871094e+01,6.63617706298828125e+00,7.41523981094360352e+00,0.00000000000000000e+00,8.25985717773437500e+00,0.00000000000000000e+00,4.65548801422119141e+00,0.00000000000000000e+00,0.00000000000000000e+00,6.07385158538818359e-01,0.00000000000000000e+00,0.00000000000000000e+00,0.00000000000000000e+00],"parents":[2147483647,0,0,1,1,2,2,4,4,6,6,9,9],"right_children":[2,4,6,-1,8,-1,10,-1,-1,12,-1,-1,-1],"split_conditions":[3.07898461818695068e-01,8.86938452720642090e-01,7.93881475925445557e-01,-8.45637619495391846e-02,8.45530092716217041e-01,4.95302021503448486e-01,3.64624708890914917e-01,-8.45637619495391846e-02,7.26708054542541504e-01,2.76706188917160034e-01,3.50335568189620972e-01,6.04026839137077332e-02,-1.27665579319000244e-01],"split_indices":[33,22,18,0,156,0,217,0,0,374,0,0,0],"sum_hessian":[4.18611145019531250e+01,1.00833339691162109e+01,3.17777805328369141e+01,1.06944453716278076e+00,9.01388931274414062e+00,1.06944453716278076e+00,3.07083358764648438e+01,1.06944453716278076e+00,7.94444513320922852e+00,2.96388912200927734e+01,1.06944453716278076e+00,1.06944453716278076e+00,2.85694465637207031e+01],"tree_param":{"num_feature":"392","num_nodes":"13","size_leaf_vector":"0"}},{"base_weights":[-1.12767331302165985e-01,-5.28890728950500488e-01,1.15120708942413330e+00,7.46781051158905029e-01,2.39999985694885254e+00,1.58490562438964844e+00,-4.32276636362075806e-01,2.11764693260192871e+00,8.21917772293090820e-01,-3.41968894004821777e-01,1.78947365283966064e+00],"default_left":[true,false,false,false,false,false,false,false,false,false,false],"id":1,"leaf_child_counts":[1,0,1,1,0,1,0,0,2,0,0],"left_children":[1,-1,3,5,-1,7,-1,-1,9,-1,-1],"loss_changes":[2.31524944305419922e+01,0.00000000000000000e+00,3.72814083099365234e+00,1.02788667678833008e+01,0.00000000000000000e+00,6.53155326843261719e-01,0.00000000000000000e+00,0.00000000000000000e+00,5.17900848388671875e+00,0.00000000000000000e+00,0.00000000000000000e+00],"parents":[2147483647,0,0,2,2,3,3,5,5,8,8],"right_children":[2,-1,4,6,-1,8,-1,-1,10,-1,-1],"split_conditions":[1.75966978073120117e-01,-1.58667221665382385e-01,3.13302367925643921e-01,2.21395894885063171e-01,7.19999969005584717e-01,1.98013931512832642e-01,-1.29683002829551697e-01,6.35294079780578613e-01,2.12550967931747437e-01,-1.02590672671794891e-01,5.36842107772827148e-01],"split_indices":[33,0,33,33,0,33,0,0,33,0,0],"sum_hessian":[4.18611145019531250e+01,3.19305591583251953e+01,9.93055629730224609e+00,8.70833396911621094e+00,1.22222232818603516e+00,4.88888931274414062e+00,3.81944465637207031e+00,1.83333349227905273e+00,3.05555582046508789e+00,1.68055570125579834e+00,1.37500011920928955e+00],"tree_param":{"num_feature":"392","num_nodes":"11","size_leaf_vector":"0"}},{"base_weights":[-2.29423195123672485e-01,3.10067105293273926e+00,-3.88833492994308472e-01,-5.29764235019683838e-01,2.69896179437637329e-01,-2.81879186630249023e-01,3.95209550857543945e-01,5.36585330963134766e-01,-2.62961652452986527e-09,1.93548381328582764e-01,7.77202069759368896e-01,6.84563755989074707e-01,-3.15789461135864258e-01],"default_left":[false,false,true,false,false,false,false,false,false,false,false,false,false],"id":2,"leaf_child_counts":[1,0,1,0,1,0,1,1,0,2,0,0,0],"left_children":[1,-1,3,-1,5,-1,7,9,-1,11,-1,-1,-1],"loss_changes":[2.39585227966308594e+01,0.00000000000000000e+00,4.02272224426269531e+00,0.00000000000000000e+00,6.66480839252471924e-01,0.00000000000000000e+00,3.88783335685729980e-01,2.72593498229980469e-01,0.00000000000000000e+00,1.07760846614837646e+00,0.00000000000000000e+00,0.00000000000000000e+00,0.00000000000000000e+00],"parents":[2147483647,0,0,2,2,4,4,6,6,7,7,9,9],"right_children":[2,-1,4,-1,6,-1,8,10,-1,12,-1,-1,-1],"split_conditions":[1.02957749366760254e+00,9.30201351642608643e-01,1.98013931512832642e-01,-1.58929273486137390e-01,3.13436210155487061e-01,-8.45637619495391846e-02,2.95512974262237549e-01,2.32485517859458923e-01,-7.88885012870110813e-10,2.11423635482788086e-01,2.33160629868507385e-01,2.05369129776954651e-01,-9.47368443012237549e-02],"split_indices":[23,0,33,0,374,0,33,33,0,33,0,0,0],"sum_hessian":[4.18611145019531250e+01,1.06944453716278076e+00,4.07916717529296875e+01,3.37638931274414062e+01,7.02777862548828125e+00,1.06944453716278076e+00,5.95833396911621094e+00,4.12500047683715820e+00,1.83333349227905273e+00,2.44444465637207031e+00,1.68055570125579834e+00,1.06944453716278076e+00,1.37500011920928955e+00],"tree_param":{"num_feature":"392","num_nodes":"13","size_leaf_vector":"0"}},{"base_weights":[2.72196959704160690e-02,-3.40997815132141113e-01,1.01992964744567871e+00,6.84563755989074707e-01,-3.98563712835311890e-01,-2.81879186630249023e-01,1.17525768280029297e+00,1.40425527095794678e+00,2.27848082780838013e-01],"default_left":[true,false,false,false,false,false,false,false,false],"id":3,"leaf_child_counts":[0,2,1,0,0,0,2,0,0],"left_children":[1,3,5,-1,-1,-1,7,-1,-1],"loss_changes":[1.60149536132812500e+01,2.16285824775695801e+00,2.72687816619873047e+00,0.00000000000000000e+00,0.00000000000000000e+00,0.00000000000000000e+00,2.01833057403564453e+00,0.00000000000000000e+00,0.00000000000000000e+00],"parents":[2147483647,0,0,1,1,2,2,6,6],"right_children":[2,4,6,-1,-1,-1,8,-1,-1],"split_conditions":[1.58546328544616699e-01,3.78351479768753052e-01,8.86938452720642090e-01,2.05369129776954651e-01,-1.19569115340709686e-01,-8.45637619495391846e-02,2.67505943775177002e-01,4.21276599168777466e-01,6.83544278144836426e-02],"split_indices":[33,328,22,0,0,0,33,0,0],"sum_hessian":[4.18611145019531250e+01,3.10138912200927734e+01,1.08472232818603516e+01,1.06944453716278076e+00,2.99444465637207031e+01,1.06944453716278076e+00,9.77777862548828125e+00,7.48611164093017578e+00,2.29166698455810547e+00],"tree_param":{"num_feature":"392","num_nodes":"9","size_leaf_vector":"0"}},{"base_weights":[-4.27738167345523834e-02,3.10067105293273926e+00,-1.97407767176628113e-01,3.10067105293273926e+00,-3.60163688659667969e-01,-4.30823087692260742e-01,1.16778516769409180e+00],"default_left":[false,false,false,false,true,false,false],"id":4,"leaf_child_counts":[1,0,1,0,2,0,0],"left_children":[1,-1,3,-1,5,-1,-1],"loss_changes":[2.14461688995361328e+01,0.00000000000000000e+00,2.35497608184814453e+01,0.00000000000000000e+00,4.89964103698730469e+00,0.00000000000000000e+00,0.00000000000000000e+00],"parents":[2147483647,0,0,2,2,4,4],"right_children":[2,-1,4,-1,6,-1,-1],"split_conditions":[2.00000095367431641e+00,9.30201351642608643e-01,2.00000095367431641e+00,9.30201351642608643e-01,2.96464383602142334e-01,-1.29246935248374939e-01,3.50335568189620972e-01],"split_indices":[127,0,200,0,4,0,0],"sum_hessian":[4.18611145019531250e+01,1.06944453716278076e+00,4.07916717529296875e+01,1.06944453716278076e+00,3.97222251892089844e+01,3.86527824401855469e+01,1.06944453716278076e+00],"tree_param":{"num_feature":"392","num_nodes":"7","size_leaf_vector":"0"}},{"base_weights":[3.88852460309863091e-03,-5.01672208309173584e-01,2.04334348440170288e-01,-4.90984708070755005e-01,5.06203413009643555e-01,-3.29670310020446777e-01,5.83222329616546631e-01,-3.15789461135864258e-01,6.62865221500396729e-01,-2.99999982118606567e-01,7.43726193904876709e-01],"default_left":[false,false,false,false,false,false,false,false,false,false,false],"id":5,"leaf_child_counts":[1,0,1,0,1,0,1,0,2,0,0],"left_children":[1,-1,3,-1,5,-1,7,-1,9,-1,-1],"loss_changes":[4.44594907760620117e+00,0.00000000000000000e+00,6.83983564376831055e+00,0.00000000000000000e+00,1.63362503051757812e+00,0.00000000000000000e+00,1.70298004150390625e+00,0.00000000000000000e+00,1.74027061462402344e+00,0.00000000000000000e+00,0.00000000000000000e+00],"parents":[2147483647,0,0,2,2,4,4,6,6,8,8],"right_children":[2,-1,4,-1,6,-1,8,-1,10,-1,-1],"split_conditions":[6.83763444423675537e-01,-1.50501668453216553e-01,7.32430338859558105e-01,-1.47295415401458740e-01,8.79759430885314941e-01,-9.89011004567146301e-02,2.00000095367431641e+00,-9.47368443012237549e-02,8.03678989410400391e-01,-8.99999961256980896e-02,2.23117873072624207e-01],"split_indices":[33,0,340,0,374,0,66,0,4,0,0],"sum_hessian":[4.18611145019531250e+01,1.14583339691162109e+01,3.04027805328369141e+01,9.01388931274414062e+00,2.13888912200927734e+01,1.52777791023254395e+00,1.98611125946044922e+01,1.37500011920928955e+00,1.84861125946044922e+01,1.22222232818603516e+00,1.72638912200927734e+01],"tree_param":{"num_feature":"392","num_nodes":"11","size_leaf_vector":"0"}},{"base_weights":[4.00518447160720825e-01,3.47368407249450684e+00,2.14931353926658630e-01,-5.01672208309173584e-01,5.05087852478027344e-01,-4.90984708070755005e-01,9.55717027187347412e-01,-2.99999982118606567e-01,1.04842102527618408e+00,1.94999992847442627e+00,8.84068727493286133e-01],"default_left":[false,false,false,false,false,false,false,false,false,false,false],"id":6,"leaf_child_counts":[1,0,1,0,1,0,1,0,2,0,0],"left_children":[1,-1,3,-1,5,-1,7,-1,9,-1,-1],"loss_changes":[2.36987991333007812e+01,0.00000000000000000e+00,8.87947940826416016e+00,0.00000000000000000e+00,1.39474945068359375e+01,0.00000000000000000e+00,2.76075172424316406e+00,0.00000000000000000e+00,1.20872688293457031e+00,0.00000000000000000e+00,0.00000000000000000e+00],"parents":[2147483647,0,0,2,2,4,4,6,6,8,8],"right_children":[2,-1,4,-1,6,-1,8,-1,10,-1,-1],"split_conditions":[2.00000095367431641e+00,1.04210531711578369e+00,6.83763444423675537e-01,-1.50501668453216553e-01,7.32430338859558105e-01,-1.47295415401458740e-01,8.03678989410400391e-01,-8.99999961256980896e-02,4.06990885734558105e-01,5.84999978542327881e-01,2.65220642089843750e-01],"split_indices":[66,0,33,0,340,0,4,0,374,0,0],"sum_hessian":[4.18611145019531250e+01,1.37500011920928955e+00,4.04861145019531250e+01,1.14583339691162109e+01,2.90277805328369141e+01,9.01388931274414062e+00,2.00138912200927734e+01,1.22222232818603516e+00,1.87916679382324219e+01,1.22222232818603516e+00,1.75694465637207031e+01],"tree_param":{"num_feature":"392","num_nodes":"11","size_leaf_vector":"0"}},{"base_weights":[9.72132086753845215e-02,-5.01672208309173584e-01,3.31711620092391968e-01,-4.90984708070755005e-01,6.84863507747650146e-01,-3.29670310020446777e-01,7.74966657161712646e-01,-3.15789461135864258e-01,8.68139624595642090e-01,-2.99999982118606567e-01,9.62737560272216797e-01],"default_left":[false,false,false,false,false,false,false,false,false,false,false],"id":7,"leaf_child_counts":[1,0,1,0,1,0,1,0,2,0,0],"left_children":[1,-1,3,-1,5,-1,7,-1,9,-1,-1],"loss_changes":[6.18572568893432617e+00,0.00000000000000000e+00,9.45991897583007812e+00,0.00000000000000000e+00,2.30211353302001953e+00,0.00000000000000000e+00,2.39424324035644531e+00,0.00000000000000000e+00,2.44210815429687500e+00,0.00000000000000000e+00,0.00000000000000000e+00],"parents":[2147483647,0,0,2,2,4,4,6,6,8,8],"right_children":[2,-1,4,-1,6,-1,8,-1,10,-1,-1],"split_conditions":[6.83763444423675537e-01,-1.50501668453216553e-01,7.32430338859558105e-01,-1.47295415401458740e-01,8.79759430885314941e-01,-9.89011004567146301e-02,2.00000095367431641e+00,-9.47368443012237549e-02,8.03678989410400391e-01,-8.99999961256980896e-02,2.88821280002593994e-01],"split_indices":[33,0,340,0,374,0,66,0,4,0,0],"sum_hessian":[4.18611145019531250e+01,1.14583339691162109e+01,3.04027805328369141e+01,9.01388931274414062e+00,2.13888912200927734e+01,1.52777791023254395e+00,1.98611125946044922e+01,1.37500011920928955e+00,1.84861125946044922e+01,1.22222232818603516e+00,1.72638912200927734e+01],"tree_param":{"num_feature":"392","num_nodes":"11","size_leaf_vector":"0"}},{"base_weights":[1.90537899732589722e-01,2.06430864334106445e+00,-2.74447947740554810e-01,-2.81879186630249023e-01,2.43302750587463379e+00,-3.24522137641906738e-01,6.84563755989074707e-01,5.99999964237213135e-01,2.69146585464477539e+00,-5.00571429729461670e-01,-2.17391297221183777e-01],"default_left":[false,false,true,false,false,false,false,false,false,false,false],"id":8,"leaf_child_counts":[0,1,1,0,2,2,0,0,0,0,0],"left_children":[1,3,5,-1,7,9,-1,-1,-1,-1,-1],"loss_changes":[3.79104385375976562e+01,8.15917968750000000e+00,1.91358923912048340e+00,0.00000000000000000e+00,1.97095489501953125e+00,5.35311937332153320e-01,0.00000000000000000e+00,0.00000000000000000e+00,0.00000000000000000e+00,0.00000000000000000e+00,0.00000000000000000e+00],"parents":[2147483647,0,0,1,1,2,2,4,4,5,5],"right_children":[2,4,6,-1,8,10,-1,-1,-1,-1,-1],"split_conditions":[3.17078471183776855e-01,8.93564581871032715e-01,3.66256117820739746e-01,-8.45637619495391846e-02,6.52841210365295410e-01,6.83763444423675537e-01,2.05369129776954651e-01,1.79999992251396179e-01,8.07439804077148438e-01,-1.50171428918838501e-01,-6.52173906564712524e-02],"split_indices":[340,22,217,0,374,33,0,0,0,0,0],"sum_hessian":[4.18611145019531250e+01,7.63888931274414062e+00,3.42222251892089844e+01,1.06944453716278076e+00,6.56944513320922852e+00,3.31527824401855469e+01,1.06944453716278076e+00,1.22222232818603516e+00,5.34722280502319336e+00,1.11527786254882812e+01,2.20000019073486328e+01],"tree_param":{"num_feature":"392","num_nodes":"11","size_leaf_vector":"0"}},{"base_weights":[-2.52754360437393188e-01,-5.29832899570465088e-01,8.57142806053161621e-01,1.78947365283966064e+00,4.51376110315322876e-01,1.31290983408689499e-02,1.50000000000000000e+00,4.83870953321456909e-01,-4.05693948268890381e-01,-2.99999982118606567e-01,1.04999995231628418e+00],"default_left":[true,false,false,false,false,false,false,false,false,false,false],"id":9,"leaf_child_counts":[1,0,1,0,1,1,0,2,0,0,0],"left_children":[1,-1,3,-1,5,7,-1,9,-1,-1,-1],"loss_changes":[1.36351642608642578e+01,0.00000000000000000e+00,2.57603645324707031e+00,0.00000000000000000e+00,3.45889210700988770e+00,1.44770622253417969e+00,0.00000000000000000e+00,1.84354853630065918e+00,0.00000000000000000e+00,0.00000000000000000e+00,0.00000000000000000e+00],"parents":[2147483647,0,0,2,2,4,4,5,5,7,7],"right_children":[2,-1,4,-1,6,8,-1,10,-1,-1,-1],"split_conditions":[1.93143188953399658e-01,-1.58949881792068481e-01,2.19649404287338257e-01,5.36842107772827148e-01,3.24805080890655518e-01,2.41118744015693665e-01,4.50000017881393433e-01,2.32314914464950562e-01,-1.21708191931247711e-01,-8.99999961256980896e-02,3.14999997615814209e-01],"split_indices":[340,0,340,0,340,340,0,340,0,0,0],"sum_hessian":[4.18611145019531250e+01,3.39166679382324219e+01,7.94444513320922852e+00,1.37500011920928955e+00,6.56944513320922852e+00,5.34722280502319336e+00,1.22222232818603516e+00,2.44444465637207031e+00,2.90277814865112305e+00,1.22222232818603516e+00,1.22222232818603516e+00],"tree_param":{"num_feature":"392","num_nodes":"11","size_leaf_vector":"0"}},{"base_weights":[-2.29423195123672485e-01,3.10067105293273926e+00,-3.88833492994308472e-01,-5.05240321159362793e-01,7.26114630699157715e-01,-5.30550241470336914e-01,-2.62961652452986527e-09,9.02654826641082764e-01,1.49999991059303284e-01],"default_left":[false,false,true,true,false,false,false,false,false],"id":10,"leaf_child_counts":[1,0,0,2,2,0,0,0,0],"left_children":[1,-1,3,5,7,-1,-1,-1,-1],"loss_changes":[2.39585227966308594e+01,0.00000000000000000e+00,5.79090118408203125e+00,4.91435050964355469e-01,3.08159112930297852e-01,0.00000000000000000e+00,0.00000000000000000e+00,0.00000000000000000e+00,0.00000000000000000e+00],"parents":[2147483647,0,0,2,2,3,3,4,4],"right_children":[2,-1,4,6,8,-1,-1,-1,-1],"split_conditions":[1.03726935386657715e+00,9.30201351642608643e-01,2.41118744015693665e-01,2.25630253553390503e-01,3.24805080890655518e-01,-1.59165084362030029e-01,-7.88885012870110813e-10,2.70796447992324829e-01,4.49999980628490448e-02],"split_indices":[24,0,340,340,340,0,0,0,0],"sum_hessian":[4.18611145019531250e+01,1.06944453716278076e+00,4.07916717529296875e+01,3.74305572509765625e+01,3.36111140251159668e+00,3.55972251892089844e+01,1.83333349227905273e+00,2.13888907432556152e+00,1.22222232818603516e+00],"tree_param":{"num_feature":"392","num_nodes":"9","size_leaf_vector":"0"}},{"base_weights":[-1.82760849595069885e-01,8.10810744762420654e-01,-4.43017631769180298e-01,-2.99999982118606567e-01,1.01730096340179443e+00,6.84563755989074707e-01,-4.99378859996795654e-01,4.21307474374771118e-01,1.74683535099029541e+00,7.74193525314331055e-01,-7.59493634104728699e-02,1.05263151228427887e-01,1.16778516769409180e+00,-2.81879186630249023e-01,1.49999991059303284e-01],"default_left":[false,false,false,false,false,false,false,false,false,false,false,false,false,false,false],"id":11,"leaf_child_counts":[0,1,2,0,1,0,0,0,0,2,2,0,0,0,0],"left_children":[1,3,5,-1,7,-1,-1,9,-1,11,13,-1,-1,-1,-1],"loss_changes":[1.14423913955688477e+01,2.42687749862670898e+00,2.54145812988281250e+00,0.00000000000000000e+00,2.75450515747070312e+00,0.00000000000000000e+00,0.00000000000000000e+00,1.06534373760223389e+00,0.00000000000000000e+00,7.83947229385375977e-01,1.95442184805870056e-01,0.00000000000000000e+00,0.00000000000000000e+00,0.00000000000000000e+00,0.00000000000000000e+00],"parents":[2147483647,0,0,1,1,2,2,4,4,7,7,9,9,10,10],"right_children":[2,4,6,-1,8,-1,-1,10,-1,12,14,-1,-1,-1,-1],"split_conditions":[3.42066168785095215e-01,8.78810584545135498e-01,3.96458446979522705e-01,-8.99999961256980896e-02,2.43108958005905151e-01,2.05369129776954651e-01,-1.49813666939735413e-01,2.24646955728530884e-01,5.24050652980804443e-01,2.05618783831596375e-01,2.32314914464950562e-01,3.15789468586444855e-02,3.50335568189620972e-01,-8.45637619495391846e-02,4.49999980628490448e-02],"split_indices":[340,324,328,0,340,0,0,340,0,340,340,0,0,0,0],"sum_hessian":[4.18611145019531250e+01,8.25000095367431641e+00,3.36111145019531250e+01,1.22222232818603516e+00,7.02777862548828125e+00,1.06944453716278076e+00,3.25416679382324219e+01,4.73611164093017578e+00,2.29166698455810547e+00,2.44444465637207031e+00,2.29166698455810547e+00,1.37500011920928955e+00,1.06944453716278076e+00,1.06944453716278076e+00,1.22222232818603516e+00],"tree_param":{"num_feature":"392","num_nodes":"15","size_leaf_vector":"0"}},{"base_weights":[2.42346882820129395e-01,9.49018955230712891e-01,-1.65050357580184937e-01,-3.63601267337799072e-01,1.10500168800354004e+00,2.52231431007385254e+00,-3.53819221258163452e-01,1.25094258785247803e+00,-3.15942376852035522e-01,-4.51845794916152954e-01,1.19235265254974365e+00,4.49776440858840942e-01,1.30951297283172607e+00],"default_left":[false,false,false,false,true,false,true,false,false,false,false,false,false],"id":12,"leaf_child_counts":[0,1,1,0,1,0,2,2,0,0,0,0,0],"left_children":[1,3,5,-1,7,-1,9,11,-1,-1,-1,-1,-1],"loss_changes":[1.36288204193115234e+01,3.93578624725341797e+00,1.63824882507324219e+01,0.00000000000000000e+00,3.64575958251953125e+00,0.00000000000000000e+00,4.99597024917602539e+00,8.74958038330078125e-02,0.00000000000000000e+00,0.00000000000000000e+00,0.00000000000000000e+00,0.00000000000000000e+00,0.00000000000000000e+00],"parents":[2147483647,0,0,1,1,2,2,4,4,6,6,7,7],"right_children":[2,4,6,-1,8,-1,10,12,-1,-1,-1,-1,-1],"split_conditions":[3.07898461818695068e-01,7.64082789421081543e-01,1.04689431190490723e+00,-1.09080381691455841e-01,2.77765333652496338e-01,7.56694316864013672e-01,4.45439517498016357e-01,2.75526255369186401e-01,-9.47827175259590149e-02,-1.35553747415542603e-01,3.57705801725387573e-01,1.34932935237884521e-01,3.92853915691375732e-01],"split_indices":[33,236,100,0,374,0,217,374,0,0,0,0,0],"sum_hessian":[4.57952766418457031e+01,1.62604312896728516e+01,2.95348434448242188e+01,1.58567619323730469e+00,1.46747550964355469e+01,1.12710833549499512e+00,2.84077358245849609e+01,1.34164333343505859e+01,1.25832176208496094e+00,2.73796443939208984e+01,1.02809154987335205e+00,1.50528812408447266e+00,1.19111452102661133e+01],"tree_param":{"num_feature":"392","num_nodes":"13","size_leaf_vector":"0"}},{"base_weights":[-9.14441645145416260e-02,-5.19293427467346191e-01,8.41486871242523193e-01,2.10338521003723145e+00,5.05635559558868408e-01,1.38464644551277161e-01,1.40510535240173340e+00,1.00678849220275879e+00,-3.25097471475601196e-01,-1.24318741261959076e-01,-4.14806723594665527e-01,-3.36951673030853271e-01,1.98944300413131714e-01],"default_left":[true,false,false,false,false,false,false,false,false,false,false,false,false],"id":13,"leaf_child_counts":[1,0,1,0,1,1,0,0,1,2,0,0,0],"left_children":[1,-1,3,-1,5,7,-1,-1,9,11,-1,-1,-1],"loss_changes":[1.66668243408203125e+01,0.00000000000000000e+00,4.51630210876464844e+00,0.00000000000000000e+00,3.67438459396362305e+00,4.12240505218505859e+00,0.00000000000000000e+00,0.00000000000000000e+00,7.27612376213073730e-02,3.11713755130767822e-01,0.00000000000000000e+00,0.00000000000000000e+00,0.00000000000000000e+00],"parents":[2147483647,0,0,2,2,4,4,5,5,8,8,9,9],"right_children":[2,-1,4,-1,6,8,-1,-1,10,12,-1,-1,-1],"split_conditions":[1.75966978073120117e-01,-1.55788034200668335e-01,7.64082789421081543e-01,6.31015598773956299e-01,3.13302367925643921e-01,2.90351688861846924e-01,4.21531617641448975e-01,3.02036553621292114e-01,2.21332192420959473e-01,2.08995029330253601e-01,-1.24442018568515778e-01,-1.01085506379604340e-01,5.96832931041717529e-02],"split_indices":[33,0,236,0,33,374,0,0,33,33,0,0,0],"sum_hessian":[3.96606254577636719e+01,2.74947128295898438e+01,1.21659107208251953e+01,1.45104289054870605e+00,1.07148675918579102e+01,8.42830562591552734e+00,2.28656268119812012e+00,2.52560400962829590e+00,5.90270090103149414e+00,2.55967545509338379e+00,3.34302568435668945e+00,1.51850330829620361e+00,1.04117202758789062e+00],"tree_param":{"num_feature":"392","num_nodes":"13","size_leaf_vector":"0"}},{"base_weights":[-2.02874794602394104e-01,1.68403351306915283e+00,-3.64488273859024048e-01,-5.20022988319396973e-01,2.40784794092178345e-01,5.18884420394897461e-01,1.10154263675212860e-01,-3.62225383520126343e-01,3.82321804761886597e-01,6.24977171421051025e-01,-6.29886286333203316e-03],"default_left":[false,false,true,false,false,false,false,false,false,false,false],"id":14,"leaf_child_counts":[1,0,1,0,1,0,1,0,2,0,0],"left_children":[1,-1,3,-1,5,-1,7,-1,9,-1,-1],"loss_changes":[1.26693220138549805e+01,0.00000000000000000e+00,3.63064622879028320e+00,0.00000000000000000e+00,2.44215190410614014e-01,0.00000000000000000e+00,1.02738988399505615e+00,0.00000000000000000e+00,4.63472723960876465e-01,0.00000000000000000e+00,0.00000000000000000e+00],"parents":[2147483647,0,0,2,2,4,4,6,6,8,8],"right_children":[2,-1,4,-1,6,-1,8,-1,10,-1,-1],"split_conditions":[1.02957749366760254e+00,5.05210101604461670e-01,1.98013931512832642e-01,-1.56006902456283569e-01,2.10093975067138672e-01,1.55665338039398193e-01,2.32485517859458923e-01,-1.08667619526386261e-01,2.95512974262237549e-01,1.87493160367012024e-01,-1.88965897541493177e-03],"split_indices":[23,0,33,0,33,0,33,0,33,0,0],"sum_hessian":[3.85327720642089844e+01,2.29677605628967285e+00,3.62359962463378906e+01,2.89401912689208984e+01,7.29580497741699219e+00,1.38184309005737305e+00,5.91396188735961914e+00,2.04087901115417480e+00,3.87308311462402344e+00,2.00990319252014160e+00,1.86318004131317139e+00],"tree_param":{"num_feature":"392","num_nodes":"11","size_leaf_vector":"0"}},{"base_weights":[2.43986863642930984e-02,-3.15223306417465210e-01,6.86400771141052246e-01,-3.77904564142227173e-01,7.04920947551727295e-01,-3.11265051364898682e-01,7.98969388008117676e-01,-4.77125227451324463e-01,-3.16977381706237793e-01,1.47785699367523193e+00,4.50196564197540283e-01,1.96385532617568970e-01,1.84497618675231934e+00,-3.50670248270034790e-01,6.37767136096954346e-01,7.83466279506683350e-01,1.86498761177062988e-01,9.12446677684783936e-01,1.35508850216865540e-01],"default_left":[true,true,false,false,false,false,false,false,false,false,false,false,false,false,false,true,false,false,false],"id":15,"leaf_child_counts":[0,1,1,2,0,0,0,0,0,2,1,0,0,0,1,2,0,0,0],"left_children":[1,3,5,7,-1,-1,9,-1,-1,11,13,-1,-1,-1,15,17,-1,-1,-1],"loss_changes":[9.85545539855957031e+00,2.12211465835571289e+00,1.91661405563354492e+00,1.79808139801025391e-02,0.00000000000000000e+00,0.00000000000000000e+00,2.56103801727294922e+00,0.00000000000000000e+00,0.00000000000000000e+00,1.60719108581542969e+00,1.79188895225524902e+00,0.00000000000000000e+00,0.00000000000000000e+00,0.00000000000000000e+00,4.33359622955322266e-01,4.07043695449829102e-01,0.00000000000000000e+00,0.00000000000000000e+00,0.00000000000000000e+00],"parents":[2147483647,0,0,1,1,2,2,3,3,6,6,9,9,10,10,14,14,15,15],"right_children":[2,4,6,8,-1,-1,10,-1,-1,12,14,-1,-1,-1,16,18,-1,-1,-1],"split_conditions":[1.58546328544616699e-01,2.87725090980529785e-01,7.64082789421081543e-01,7.32430338859558105e-01,2.11476296186447144e-01,-9.33795198798179626e-02,2.01584979891777039e-01,-1.43137574195861816e-01,-9.50932204723358154e-02,2.62343019247055054e-01,2.11248517036437988e-01,5.89156635105609894e-02,5.53492903709411621e-01,-1.05201080441474915e-01,2.67505943775177002e-01,2.79477864503860474e-01,5.59496320784091949e-02,2.73734003305435181e-01,4.06526550650596619e-02],"split_indices":[33,328,236,340,0,0,33,0,0,374,33,0,0,0,33,374,0,0,0],"sum_hessian":[4.18726844787597656e+01,2.80210742950439453e+01,1.38516092300415039e+01,2.69921398162841797e+01,1.02893483638763428e+00,1.22547125816345215e+00,1.26261386871337891e+01,7.67014646530151367e+00,1.93219928741455078e+01,3.18643140792846680e+00,9.43970680236816406e+00,1.05138564109802246e+00,2.13504576683044434e+00,1.62631607055664062e+00,7.81339073181152344e+00,5.34993648529052734e+00,2.46345424652099609e+00,4.12136173248291016e+00,1.22857463359832764e+00],"tree_param":{"num_feature":"392","num_nodes":"19","size_leaf_vector":"0"}},{"base_weights":[-2.23934594541788101e-02,1.78560805320739746e+00,-1.69677749276161194e-01,1.76404011249542236e+00,-3.34073632955551147e-01,-4.11776870489120483e-01,1.19042849540710449e+00],"default_left":[false,false,false,false,true,false,false],"id":16,"leaf_child_counts":[1,0,1,0,2,0,0],"left_children":[1,-1,3,-1,5,-1,-1],"loss_changes":[1.11982069015502930e+01,0.00000000000000000e+00,1.29065284729003906e+01,0.00000000000000000e+00,4.81997585296630859e+00,0.00000000000000000e+00,0.00000000000000000e+00],"parents":[2147483647,0,0,2,2,4,4],"right_children":[2,-1,4,-1,6,-1,-1],"split_conditions":[2.00000095367431641e+00,5.35682439804077148e-01,2.00000095367431641e+00,5.29212057590484619e-01,3.11164438724517822e-01,-1.23533062636852264e-01,3.57128560543060303e-01],"split_indices":[200,0,127,0,4,0,0],"sum_hessian":[3.99148674011230469e+01,2.16874122619628906e+00,3.77461242675781250e+01,2.19514465332031250e+00,3.55509796142578125e+01,3.45213356018066406e+01,1.02964448928833008e+00],"tree_param":{"num_feature":"392","num_nodes":"7","size_leaf_vector":"0"}},{"base_weights":[-5.52237732335925102e-03,2.50392055511474609e+00,-1.32620960474014282e-01,2.03689599037170410e+00,-2.42443367838859558e-01,-4.87299263477325439e-01,-1.51155889034271240e-01,-4.75663632154464722e-01,-2.61258017271757126e-02,-3.17619085311889648e-01,6.65718037635087967e-03,-3.01113933324813843e-01,3.88793386518955231e-02],"default_left":[false,false,false,false,false,false,false,false,false,false,false,false,false],"id":17,"leaf_child_counts":[1,0,1,0,1,0,1,0,1,0,2,0,0],"left_children":[1,-1,3,-1,5,-1,7,-1,9,-1,11,-1,-1],"loss_changes":[1.41660795211791992e+01,0.00000000000000000e+00,1.05562925338745117e+01,0.00000000000000000e+00,8.44833135604858398e-01,0.00000000000000000e+00,1.26083874702453613e+00,0.00000000000000000e+00,2.28704631328582764e-01,0.00000000000000000e+00,2.32798621058464050e-01,0.00000000000000000e+00,0.00000000000000000e+00],"parents":[2147483647,0,0,2,2,4,4,6,6,8,8,10,10],"right_children":[2,-1,4,-1,6,-1,8,-1,10,-1,12,-1,-1],"split_conditions":[2.00000095367431641e+00,7.51176178455352783e-01,2.00000095367431641e+00,6.11068844795227051e-01,6.83763444423675537e-01,-1.46189779043197632e-01,7.32430338859558105e-01,-1.42699092626571655e-01,8.79759430885314941e-01,-9.52857285737991333e-02,8.03678989410400391e-01,-9.03341844677925110e-02,1.16638019680976868e-02],"split_indices":[177,0,304,0,33,0,340,0,374,0,14,0,0],"sum_hessian":[4.23740463256835938e+01,1.14121448993682861e+00,4.12328300476074219e+01,1.14121448993682861e+00,4.00916175842285156e+01,9.70969867706298828e+00,3.03819179534912109e+01,7.67014455795288086e+00,2.27117729187011719e+01,1.41769099235534668e+00,2.12940826416015625e+01,1.22722864151000977e+00,2.00668544769287109e+01],"tree_param":{"num_feature":"392","num_nodes":"13","size_leaf_vector":"0"}},{"base_weights":[3.01041960716247559e-01,1.67527949810028076e+00,1.64434522390365601e-01,6.71323165297508240e-02,2.05774188041687012e+00,-4.87299263477325439e-01,2.44103729724884033e-01,-4.75663632154464722e-01,4.79230195283889771e-01,-3.10907155275344849e-01,5.31585454940795898e-01,-3.03122073411941528e-01,5.89684545993804932e-01],"default_left":[false,false,true,false,false,false,false,false,false,false,false,false,false],"id":18,"leaf_child_counts":[1,0,1,1,0,0,1,0,1,0,2,0,0],"left_children":[1,-1,3,5,-1,-1,7,-1,9,-1,11,-1,-1],"loss_changes":[8.57687473297119141e+00,0.00000000000000000e+00,7.96760511398315430e+00,4.32653427124023438e+00,0.00000000000000000e+00,0.00000000000000000e+00,5.84202098846435547e+00,0.00000000000000000e+00,1.22026872634887695e+00,0.00000000000000000e+00,1.35656404495239258e+00,0.00000000000000000e+00,0.00000000000000000e+00],"parents":[2147483647,0,0,2,2,3,3,6,6,8,8,10,10],"right_children":[2,-1,4,6,-1,-1,8,-1,10,-1,12,-1,-1],"split_conditions":[2.00000095367431641e+00,5.02583861351013184e-01,3.52358013391494751e-01,6.83763444423675537e-01,6.17322564125061035e-01,-1.46189779043197632e-01,7.32430338859558105e-01,-1.42699092626571655e-01,1.04689431190490723e+00,-9.32721495628356934e-02,8.03678989410400391e-01,-9.09366235136985779e-02,1.76905363798141479e-01],"split_indices":[66,0,130,33,0,0,340,0,100,0,14,0,0],"sum_hessian":[4.61544151306152344e+01,3.15476703643798828e+00,4.29996490478515625e+01,4.18826446533203125e+01,1.11700499057769775e+00,9.70969867706298828e+00,3.21729431152343750e+01,7.67014455795288086e+00,2.45027999877929688e+01,1.21579420566558838e+00,2.32870063781738281e+01,1.24095368385314941e+00,2.20460529327392578e+01],"tree_param":{"num_feature":"392","num_nodes":"13","size_leaf_vector":"0"}},{"base_weights":[6.62335157394409180e-02,2.40760993957519531e+00,-5.43893948197364807e-02,1.64699614048004150e+00,-1.36142879724502563e-01,-4.86676901578903198e-01,-1.88541859388351440e-02,-4.74710643291473389e-01,1.36127039790153503e-01,-3.17619085311889648e-01,1.76464766263961792e-01,-3.04283261299133301e-01,2.16543018817901611e-01],"default_left":[false,false,false,false,false,false,false,false,false,false,false,false,false],"id":19,"leaf_child_counts":[1,0,1,0,1,0,1,0,1,0,2,0,0],"left_children":[1,-1,3,-1,5,-1,7,-1,9,-1,11,-1,-1],"loss_changes":[1.27364854812622070e+01,0.00000000000000000e+00,6.26433420181274414e+00,0.00000000000000000e+00,1.73228836059570312e+00,0.00000000000000000e+00,2.38036870956420898e+00,0.00000000000000000e+00,5.17997264862060547e-01,0.00000000000000000e+00,5.24865150451660156e-01,0.00000000000000000e+00,0.00000000000000000e+00],"parents":[2147483647,0,0,2,2,4,4,6,6,8,8,10,10],"right_children":[2,-1,4,-1,6,-1,8,-1,10,-1,12,-1,-1],"split_conditions":[1.03174972534179688e+00,7.22283005714416504e-01,2.00000095367431641e+00,4.94098871946334839e-01,6.83763444423675537e-01,-1.46003082394599915e-01,7.32430338859558105e-01,-1.42413198947906494e-01,8.79759430885314941e-01,-9.52857285737991333e-02,8.03678989410400391e-01,-9.12849828600883484e-02,6.49629086256027222e-02],"split_indices":[265,0,108,0,33,0,340,0,374,0,14,0,0],"sum_hessian":[4.36334342956542969e+01,1.20885682106018066e+00,4.24245796203613281e+01,1.06728339195251465e+00,4.13572959899902344e+01,9.57917404174804688e+00,3.17781219482421875e+01,7.53929042816162109e+00,2.42388305664062500e+01,1.41769099235534668e+00,2.28211402893066406e+01,1.24883556365966797e+00,2.15723037719726562e+01],"tree_param":{"num_feature":"392","num_nodes":"13","size_leaf_vector":"0"}},{"base_weights":[1.40630602836608887e-01,1.06253027915954590e+00,-2.48914346098899841e-01,-3.56849670410156250e-01,1.25919115543365479e+00,-3.01911115646362305e-01,6.75287485122680664e-01,1.45451772212982178e+00,-3.03946048021316528e-01,-4.87272292375564575e-01,-1.97975501418113708e-01,5.09087562561035156e-01,1.53956520557403564e+00,-3.10325771570205688e-01,-1.75600990653038025e-01,-2.99942702054977417e-01,-1.52024909853935242e-01,-2.95643806457519531e-01,-1.26263037323951721e-01],"default_left":[false,false,true,false,true,false,false,false,false,false,false,false,false,false,false,false,false,false,false],"id":20,"leaf_child_counts":[0,1,1,0,1,1,0,2,0,0,1,0,0,0,1,0,2,0,0],"left_children":[1,3,5,-1,7,9,-1,11,-1,-1,13,-1,-1,-1,15,-1,17,-1,-1],"loss_changes":[1.64994544982910156e+01,4.25062656402587891e+00,1.80010032653808594e+00,0.00000000000000000e+00,4.16140937805175781e+00,5.10651588439941406e-01,0.00000000000000000e+00,1.00807189941406250e-01,0.00000000000000000e+00,0.00000000000000000e+00,4.97281551361083984e-04,0.00000000000000000e+00,0.00000000000000000e+00,0.00000000000000000e+00,1.46319270133972168e-02,0.00000000000000000e+00,3.40757071971893311e-02,0.00000000000000000e+00,0.00000000000000000e+00],"parents":[2147483647,0,0,1,1,2,2,4,4,5,5,7,7,10,10,14,14,16,16],"right_children":[2,4,6,-1,8,10,-1,12,-1,-1,14,-1,-1,-1,16,-1,18,-1,-1],"split_conditions":[3.17078471183776855e-01,7.60108172893524170e-01,4.09459352493286133e-01,-1.07054904103279114e-01,3.09162944555282593e-01,6.83763444423675537e-01,2.02586248517036438e-01,5.83880424499511719e-01,-9.11838188767433167e-02,-1.46181687712669373e-01,7.32430338859558105e-01,1.52726277709007263e-01,4.61869567632675171e-01,-9.30977314710617065e-02,2.00000095367431641e+00,-8.99828150868415833e-02,8.03678989410400391e-01,-8.86931419372558594e-02,-3.78789119422435760e-02],"split_indices":[340,236,217,0,324,33,0,374,0,0,340,0,0,0,66,0,4,0,0],"sum_hessian":[4.42074928283691406e+01,1.26180095672607422e+01,3.15894832611083984e+01,1.43640017509460449e+00,1.11816101074218750e+01,3.05130901336669922e+01,1.07639312744140625e+00,1.00013494491577148e+01,1.18026041984558105e+00,9.63736915588378906e+00,2.08757209777832031e+01,1.40199577808380127e+00,8.59935379028320312e+00,1.32962036132812500e+00,1.95461006164550781e+01,1.24700188636779785e+00,1.82990989685058594e+01,1.18984699249267578e+00,1.71092529296875000e+01],"tree_param":{"num_feature":"392","num_nodes":"19","size_leaf_vector":"0"}},{"base_weights":[-2.23501399159431458e-01,2.01616048812866211e+00,-3.44095468521118164e-01,1.17713451385498047e+00,-4.44335401058197021e-01,-4.96106743812561035e-01,5.02394258975982666e-01,-5.23379445075988770e-01,-1.21069051325321198e-01,1.91929534077644348e-01,-3.29337775707244873e-01],"default_left":[false,false,false,false,true,true,false,false,false,false,false],"id":21,"leaf_child_counts":[1,0,1,0,1,1,0,0,2,0,0],"left_children":[1,-1,3,-1,5,7,-1,-1,9,-1,-1],"loss_changes":[1.12922039031982422e+01,0.00000000000000000e+00,6.33126926422119141e+00,0.00000000000000000e+00,2.03631973266601562e+00,2.95378684997558594e-01,0.00000000000000000e+00,0.00000000000000000e+00,3.03008645772933960e-01,0.00000000000000000e+00,0.00000000000000000e+00],"parents":[2147483647,0,0,2,2,4,4,5,5,8,8],"right_children":[2,-1,4,-1,6,8,-1,-1,10,-1,-1],"split_conditions":[1.40102505683898926e+00,6.04848146438598633e-01,3.81047248840332031e-01,3.53140354156494141e-01,3.24805080890655518e-01,2.40599408745765686e-01,1.50718286633491516e-01,-1.57013833522796631e-01,2.63109803199768066e-01,5.75788617134094238e-02,-9.88013371825218201e-02],"split_indices":[345,0,236,0,340,340,0,0,340,0,0],"sum_hessian":[3.82404518127441406e+01,1.15072524547576904e+00,3.70897293090820312e+01,1.62875497341156006e+00,3.54609718322753906e+01,3.40736541748046875e+01,1.38731849193572998e+00,3.13950691223144531e+01,2.67858624458312988e+00,1.10155558586120605e+00,1.57703053951263428e+00],"tree_param":{"num_feature":"392","num_nodes":"11","size_leaf_vector":"0"}},{"base_weights":[-2.02316284179687500e-01,-5.20890831947326660e-01,9.37262713909149170e-01,1.89387953281402588e+00,3.84848654270172119e-01,6.57089948654174805e-01,2.21778079867362976e-01,-2.76539355516433716e-01,3.86106282472610474e-01,4.49587404727935791e-01,1.22103072702884674e-01,1.26307398080825806e-01,5.78121185302734375e-01],"default_left":[true,false,false,false,false,false,false,false,false,false,false,false,false],"id":22,"leaf_child_counts":[1,0,1,0,1,0,1,0,1,2,0,0,0],"left_children":[1,-1,3,-1,5,-1,7,-1,9,11,-1,-1,-1],"loss_changes":[1.48227224349975586e+01,0.00000000000000000e+00,4.01858568191528320e+00,0.00000000000000000e+00,1.62817239761352539e-01,0.00000000000000000e+00,5.86307466030120850e-01,0.00000000000000000e+00,2.59020328521728516e-02,7.29821324348449707e-02,0.00000000000000000e+00,0.00000000000000000e+00,0.00000000000000000e+00],"parents":[2147483647,0,0,2,2,4,4,6,6,8,8,9,9],"right_children":[2,-1,4,-1,6,-1,8,-1,10,12,-1,-1,-1],"split_conditions":[2.25630253553390503e-01,-1.56267255544662476e-01,8.78810584545135498e-01,5.68163871765136719e-01,2.32314914464950562e-01,1.97126999497413635e-01,2.41118744015693665e-01,-8.29618126153945923e-02,3.24805080890655518e-01,2.68473744392395020e-01,3.66309247910976410e-02,3.78922224044799805e-02,1.73436358571052551e-01],"split_indices":[340,0,324,0,340,0,340,0,340,340,0,0,0],"sum_hessian":[3.84845657348632812e+01,3.05008296966552734e+01,7.98373746871948242e+00,2.03366494178771973e+00,5.95007228851318359e+00,1.09407138824462891e+00,4.85600090026855469e+00,1.03489220142364502e+00,3.82110857963562012e+00,2.51371073722839355e+00,1.30739796161651611e+00,1.27915084362030029e+00,1.23455977439880371e+00],"tree_param":{"num_feature":"392","num_nodes":"13","size_leaf_vector":"0"}},{"base_weights":[-1.55874699354171753e-01,-4.23637628555297852e-01,6.39846086502075195e-01,6.74525976181030273e-01,-4.86622124910354614e-01,-2.80752152204513550e-01,7.72310972213745117e-01,9.14411067962646484e-01,3.40749502182006836e-01,5.12503802776336670e-01,1.43391525745391846e+00,-3.44559788703918457e-01,9.12185311317443848e-01,8.97144079208374023e-01,-4.40328754484653473e-02],"default_left":[true,false,false,false,false,false,false,false,false,false,false,false,false,false,false],"id":23,"leaf_child_counts":[0,2,1,0,0,0,0,1,2,2,0,0,0,0,0],"left_children":[1,3,5,-1,-1,-1,7,9,11,13,-1,-1,-1,-1,-1],"loss_changes":[8.80483150482177734e+00,2.44266843795776367e+00,1.49516534805297852e+00,0.00000000000000000e+00,0.00000000000000000e+00,0.00000000000000000e+00,2.66752719879150391e-01,6.22403621673583984e-01,1.85334873199462891e+00,1.15722620487213135e+00,0.00000000000000000e+00,0.00000000000000000e+00,0.00000000000000000e+00,0.00000000000000000e+00,0.00000000000000000e+00],"parents":[2147483647,0,0,1,1,2,2,6,6,7,7,8,8,9,9],"right_children":[2,4,6,-1,-1,-1,8,10,12,14,-1,-1,-1,-1,-1],"split_conditions":[1.86959534883499146e-01,3.27705889940261841e-01,8.93564581871032715e-01,2.02357798814773560e-01,-1.45986646413803101e-01,-8.42256471514701843e-02,2.63109803199768066e-01,2.43108958005905151e-01,3.24805080890655518e-01,2.24646955728530884e-01,4.30174589157104492e-01,-1.03367939591407776e-01,2.73655593395233154e-01,2.69143223762512207e-01,-1.32098635658621788e-02],"split_indices":[340,328,22,0,0,0,340,340,340,340,0,0,0,0,0],"sum_hessian":[3.90525131225585938e+01,2.95697784423828125e+01,9.48273277282714844e+00,1.07729291915893555e+00,2.84924850463867188e+01,1.05201864242553711e+00,8.43071365356445312e+00,5.50066852569580078e+00,2.93004536628723145e+00,4.22138071060180664e+00,1.27928781509399414e+00,1.51280403137207031e+00,1.41724145412445068e+00,2.13429141044616699e+00,2.08708930015563965e+00],"tree_param":{"num_feature":"392","num_nodes":"15","size_leaf_vector":"0"}},{"base_weights":[1.92479044198989868e-01,6.42215490341186523e-01,-1.42667621374130249e-01,-3.36173117160797119e-01,7.29524374008178711e-01,1.57499682903289795e+00,-3.30855131149291992e-01,-3.29948127269744873e-01,8.22129547595977783e-01,-4.35501933097839355e-01,9.27117466926574707e-01,-2.83062428236007690e-01,9.07838582992553711e-01,1.59773200750350952e-01,9.46408629417419434e-01,5.43903589248657227e-01,1.05879485607147217e+00],"default_left":[false,false,false,false,false,false,true,false,false,false,false,false,false,false,false,false,false],"id":24,"leaf_child_counts":[0,1,1,0,1,0,2,0,1,0,0,0,1,0,2,0,0],"left_children":[1,3,5,-1,7,-1,9,-1,11,-1,-1,-1,13,-1,15,-1,-1],"loss_changes":[7.38950157165527344e+00,2.02682399749755859e+00,9.75338077545166016e+00,0.00000000000000000e+00,2.18082427978515625e+00,0.00000000000000000e+00,3.90119862556457520e+00,0.00000000000000000e+00,1.97953987121582031e+00,0.00000000000000000e+00,0.00000000000000000e+00,0.00000000000000000e+00,3.42572212219238281e-01,0.00000000000000000e+00,1.51133537292480469e-01,0.00000000000000000e+00,0.00000000000000000e+00],"parents":[2147483647,0,0,1,1,2,2,4,4,6,6,8,8,12,12,14,14],"right_children":[2,4,6,-1,8,-1,10,-1,12,-1,-1,-1,14,-1,16,-1,-1],"split_conditions":[3.07898461818695068e-01,7.64082789421081543e-01,1.04689431190490723e+00,-1.00851938128471375e-01,1.05987739562988281e+00,4.72499072551727295e-01,4.45439517498016357e-01,-9.89844426512718201e-02,8.45530092716217041e-01,-1.30650579929351807e-01,2.78135240077972412e-01,-8.49187299609184265e-02,8.18540394306182861e-01,4.79319617152214050e-02,1.94872930645942688e-01,1.63171082735061646e-01,3.17638456821441650e-01],"split_indices":[33,236,100,0,57,0,217,0,156,0,0,0,328,0,33,0,0],"sum_hessian":[4.74176368713378906e+01,1.98561973571777344e+01,2.75614414215087891e+01,1.39322578907012939e+00,1.84629707336425781e+01,1.99381148815155029e+00,2.55676288604736328e+01,1.27805972099304199e+00,1.71849117279052734e+01,2.42076759338378906e+01,1.35995411872863770e+00,1.07107889652252197e+00,1.61138324737548828e+01,1.04222905635833740e+00,1.50716037750244141e+01,4.56432342529296875e+00,1.05072803497314453e+01],"tree_param":{"num_feature":"392","num_nodes":"17","size_leaf_vector":"0"}},{"base_weights":[-8.01513865590095520e-02,-5.10954916477203369e-01,6.42316102981567383e-01,1.37454009056091309e+00,4.01827812194824219e-01,1.28202855587005615e+00,1.77004545927047729e-01,1.28202855587005615e+00,-1.12295225262641907e-01,1.08746492862701416e+00,-3.87911528348922729e-01],"default_left":[true,false,false,false,false,false,false,false,false,false,false],"id":25,"leaf_child_counts":[1,0,1,0,1,0,1,0,2,0,0],"left_children":[1,-1,3,-1,5,-1,7,-1,9,-1,-1],"loss_changes":[1.23500757217407227e+01,0.00000000000000000e+00,2.06643152236938477e+00,0.00000000000000000e+00,2.26805233955383301e+00,0.00000000000000000e+00,3.72536230087280273e+00,0.00000000000000000e+00,3.66177368164062500e+00,0.00000000000000000e+00,0.00000000000000000e+00],"parents":[2147483647,0,0,2,2,4,4,6,6,8,8],"right_children":[2,-1,4,-1,6,-1,8,-1,10,-1,-1],"split_conditions":[1.75966978073120117e-01,-1.53286486864089966e-01,7.64082789421081543e-01,4.12362039089202881e-01,1.39229488372802734e+00,3.84608596563339233e-01,1.41811633110046387e+00,3.84608596563339233e-01,1.38723492622375488e+00,3.26239496469497681e-01,-1.16373464465141296e-01],"split_indices":[33,0,236,0,42,0,43,0,41,0,0],"sum_hessian":[3.76255683898925781e+01,2.37539672851562500e+01,1.38716011047363281e+01,2.26367640495300293e+00,1.16079244613647461e+01,1.40497040748596191e+00,1.02029542922973633e+01,1.40497040748596191e+00,8.79798412322998047e+00,1.09329342842102051e+00,7.70469093322753906e+00],"tree_param":{"num_feature":"392","num_nodes":"11","size_leaf_vector":"0"}},{"base_weights":[-1.81792125105857849e-01,-5.11734545230865479e-01,5.74467897415161133e-01,1.44620513916015625e+00,2.24237725138664246e-01,1.21857559680938721e+00,-1.07918553054332733e-01,4.41288918256759644e-01,-3.09147387742996216e-01,-4.28209811449050903e-01,-2.05587763339281082e-02],"default_left":[true,false,false,false,false,false,false,false,false,false,false],"id":26,"leaf_child_counts":[1,0,1,0,1,0,1,0,2,0,0],"left_children":[1,-1,3,-1,5,-1,7,-1,9,-1,-1],"loss_changes":[9.40522480010986328e+00,0.00000000000000000e+00,3.20591974258422852e+00,0.00000000000000000e+00,3.24674844741821289e+00,0.00000000000000000e+00,1.01934349536895752e+00,0.00000000000000000e+00,2.12297677993774414e-01,0.00000000000000000e+00,0.00000000000000000e+00],"parents":[2147483647,0,0,2,2,4,4,6,6,8,8],"right_children":[2,-1,4,-1,6,-1,8,-1,10,-1,-1],"split_conditions":[1.98013931512832642e-01,-1.53520375490188599e-01,1.05987739562988281e+00,4.33861553668975830e-01,1.41867780685424805e+00,3.65572690963745117e-01,2.10093975067138672e-01,1.32386684417724609e-01,2.88002133369445801e-01,-1.28462955355644226e-01,-6.16763299331068993e-03],"split_indices":[33,0,57,0,52,0,33,0,33,0,0],"sum_hessian":[3.55147743225097656e+01,2.49520053863525391e+01,1.05627689361572266e+01,2.13051962852478027e+00,8.43224906921386719e+00,1.44320678710937500e+00,6.98904228210449219e+00,1.55421161651611328e+00,5.43483066558837891e+00,3.50498104095458984e+00,1.92984962463378906e+00],"tree_param":{"num_feature":"392","num_nodes":"11","size_leaf_vector":"0"}},{"base_weights":[2.55717393010854721e-02,-2.92086243629455566e-01,5.30283093452453613e-01,5.93134343624114990e-01,-3.57600033283233643e-01,-2.95394539833068848e-01,6.07582032680511475e-01,-4.65333223342895508e-01,-2.93309390544891357e-01,-2.89029270410537720e-01,6.94326698780059814e-01,7.97221720218658447e-01,1.58435508608818054e-01,3.70784699916839600e-02,9.01314914226531982e-01,-2.77275294065475464e-01,4.37166750431060791e-01,3.62179011106491089e-01,1.04967510700225830e+00],"default_left":[true,false,false,false,false,false,false,false,false,false,false,false,false,false,false,false,false,false,false],"id":27,"leaf_child_counts":[0,1,1,0,2,0,1,0,0,0,0,1,2,0,2,0,0,0,0],"left_children":[1,3,5,-1,7,-1,9,-1,-1,-1,11,13,15,-1,17,-1,-1,-1,-1],"loss_changes":[6.94634056091308594e+00,1.75721883773803711e+00,1.24647235870361328e+00,0.00000000000000000e+00,3.96511554718017578e-02,0.00000000000000000e+00,1.41506481170654297e+00,0.00000000000000000e+00,0.00000000000000000e+00,0.00000000000000000e+00,6.74904346466064453e-01,9.11486625671386719e-01,5.57033061981201172e-01,0.00000000000000000e+00,4.56532478332519531e-01,0.00000000000000000e+00,0.00000000000000000e+00,0.00000000000000000e+00,0.00000000000000000e+00],"parents":[2147483647,0,0,1,1,2,2,4,4,6,6,10,10,11,11,12,12,14,14],"right_children":[2,4,6,-1,8,-1,10,-1,-1,-1,12,14,16,-1,18,-1,-1,-1,-1],"split_conditions":[1.58546328544616699e-01,3.23972702026367188e-01,1.05987739562988281e+00,1.77940309047698975e-01,7.32430338859558105e-01,-8.86183679103851318e-02,7.64082789421081543e-01,-1.39599978923797607e-01,-8.79928171634674072e-02,-8.67087841033935547e-02,2.67505943775177002e-01,4.28797304630279541e-01,3.07898461818695068e-01,1.11235417425632477e-02,2.90351688861846924e-01,-8.31825882196426392e-02,1.31150037050247192e-01,1.08653709292411804e-01,3.14902544021606445e-01],"split_indices":[33,328,57,0,340,0,236,0,0,0,33,335,33,0,374,0,0,0,0],"sum_hessian":[4.13603744506835938e+01,2.56425838470458984e+01,1.57177896499633789e+01,1.21203386783599854e+00,2.44305515289306641e+01,1.10398495197296143e+00,1.46138038635253906e+01,6.79913473129272461e+00,1.76314163208007812e+01,1.08341813087463379e+00,1.35303859710693359e+01,1.09418220520019531e+01,2.58856463432312012e+00,1.48123896121978760e+00,9.46058273315429688e+00,1.01193618774414062e+00,1.57662832736968994e+00,2.78418016433715820e+00,6.67640256881713867e+00],"tree_param":{"num_feature":"392","num_nodes":"19","size_leaf_vector":"0"}},{"base_weights":[-1.22940307483077049e-02,1.24408710002899170e+00,-1.49260297417640686e-01,1.22439908981323242e+00,-3.09605628252029419e-01,-3.91626834869384766e-01,9.19211328029632568e-01],"default_left":[false,false,false,false,true,false,false],"id":28,"leaf_child_counts":[1,0,1,0,2,0,0],"left_children":[1,-1,3,-1,5,-1,-1],"loss_changes":[6.89175081253051758e+00,0.00000000000000000e+00,8.31554412841796875e+00,0.00000000000000000e+00,3.69248580932617188e+00,0.00000000000000000e+00,0.00000000000000000e+00],"parents":[2147483647,0,0,2,2,4,4],"right_children":[2,-1,4,-1,6,-1,-1],"split_conditions":[2.00000095367431641e+00,3.73226135969161987e-01,2.00000095367431641e+00,3.67319732904434204e-01,3.11164438724517822e-01,-1.17488056421279907e-01,2.75763422250747681e-01],"split_indices":[200,0,127,0,4,0,0],"sum_hessian":[3.79701652526855469e+01,2.93789672851562500e+00,3.50322685241699219e+01,2.96818304061889648e+00,3.20640869140625000e+01,3.06964530944824219e+01,1.36763286590576172e+00],"tree_param":{"num_feature":"392","num_nodes":"7","size_leaf_vector":"0"}},{"base_weights":[-2.78832833282649517e-03,1.57827591896057129e+00,-1.19226649403572083e-01,1.36291408538818359e+00,-2.24389627575874329e-01,-4.74070996046066284e-01,-1.41328230500221252e-01,-4.62103754281997681e-01,-3.34826968610286713e-02,-3.04084032773971558e-01,-4.53811744228005409e-03,-2.88936287164688110e-01,2.39108223468065262e-02],"default_left":[false,false,false,false,false,false,false,false,false,false,false,false,false],"id":29,"leaf_child_counts":[1,0,1,0,1,0,1,0,1,0,2,0,0],"left_children":[1,-1,3,-1,5,-1,7,-1,9,-1,11,-1,-1],"loss_changes":[8.04820060729980469e+00,0.00000000000000000e+00,6.64900541305541992e+00,0.00000000000000000e+00,7.38886356353759766e-01,0.00000000000000000e+00,1.04253160953521729e+00,0.00000000000000000e+00,1.86334848403930664e-01,0.00000000000000000e+00,1.90292537212371826e-01,0.00000000000000000e+00,0.00000000000000000e+00],"parents":[2147483647,0,0,2,2,4,4,6,6,8,8,10,10],"right_children":[2,-1,4,-1,6,-1,8,-1,10,-1,12,-1,-1],"split_conditions":[2.00000095367431641e+00,4.73482787609100342e-01,2.00000095367431641e+00,4.08874243497848511e-01,6.83763444423675537e-01,-1.42221301794052124e-01,7.32430338859558105e-01,-1.38631135225296021e-01,8.79759430885314941e-01,-9.12252143025398254e-02,8.03678989410400391e-01,-8.66808891296386719e-02,7.17324716970324516e-03],"split_indices":[177,0,304,0,33,0,340,0,374,0,14,0,0],"sum_hessian":[4.16951560974121094e+01,1.99886393547058105e+00,3.96962928771972656e+01,1.83759975433349609e+00,3.78586921691894531e+01,8.27542018890380859e+00,2.95832729339599609e+01,6.61695337295532227e+00,2.29663200378417969e+01,1.30067217350006104e+00,2.16656475067138672e+01,1.13754403591156006e+00,2.05281028747558594e+01],"tree_param":{"num_feature":"392","num_nodes":"13","size_leaf_vector":"0"}},{"base_weights":[2.30016082525253296e-01,-4.74070996046066284e-01,3.81062746047973633e-01,-4.62103754281997681e-01,5.53196310997009277e-01,1.65771019458770752e+00,4.70793306827545166e-01,1.15272057056427002e+00,3.39340865612030029e-01,1.56638324260711670e+00,2.37403616309165955e-01,1.38830232620239258e+00,1.11071042716503143e-01],"default_left":[false,false,false,false,false,false,false,false,false,false,false,false,false],"id":30,"leaf_child_counts":[1,0,1,0,1,0,1,0,1,0,2,0,0],"left_children":[1,-1,3,-1,5,-1,7,-1,9,-1,11,-1,-1],"loss_changes":[5.49697399139404297e+00,0.00000000000000000e+00,6.30981969833374023e+00,0.00000000000000000e+00,2.41388416290283203e+00,0.00000000000000000e+00,2.66170263290405273e+00,0.00000000000000000e+00,3.37679982185363770e+00,0.00000000000000000e+00,4.04042673110961914e+00,0.00000000000000000e+00,0.00000000000000000e+00],"parents":[2147483647,0,0,2,2,4,4,6,6,8,8,10,10],"right_children":[2,-1,4,-1,6,-1,8,-1,10,-1,12,-1,-1],"split_conditions":[6.83763444423675537e-01,-1.42221301794052124e-01,7.32430338859558105e-01,-1.38631135225296021e-01,2.00000095367431641e+00,4.97313082218170166e-01,2.00000095367431641e+00,3.45816195011138916e-01,2.00000095367431641e+00,4.69915002584457397e-01,1.10247039794921875e+00,4.16490703821182251e-01,3.33213135600090027e-02],"split_indices":[33,0,340,0,206,0,66,0,142,0,130,0,0],"sum_hessian":[4.89889373779296875e+01,8.27542018890380859e+00,4.07135200500488281e+01,6.61695337295532227e+00,3.40965652465820312e+01,1.03996515274047852e+00,3.30565986633300781e+01,4.08677816390991211e+00,2.89698219299316406e+01,1.12015092372894287e+00,2.78496704101562500e+01,1.76659560203552246e+00,2.60830745697021484e+01],"tree_param":{"num_feature":"392","num_nodes":"13","size_leaf_vector":"0"}},{"base_weights":[5.56280128657817841e-02,1.52906823158264160e+00,-5.10381311178207397e-02,-1.31031885743141174e-01,1.48565196990966797e+00,-4.75226700305938721e-01,-3.01206726580858231e-02,-4.63605344295501709e-01,9.68767479062080383e-02,-3.13093364238739014e-01,1.29315420985221863e-01,-3.04084032773971558e-01,1.65486797690391541e-01],"default_left":[false,false,true,false,false,false,false,false,false,false,false,false,false],"id":31,"leaf_child_counts":[1,0,1,1,0,0,1,0,1,0,2,0,0],"left_children":[1,-1,3,5,-1,-1,7,-1,9,-1,11,-1,-1],"loss_changes":[7.12743186950683594e+00,0.00000000000000000e+00,5.45501852035522461e+00,1.43039250373840332e+00,0.00000000000000000e+00,0.00000000000000000e+00,1.87439143657684326e+00,0.00000000000000000e+00,3.93299043178558350e-01,0.00000000000000000e+00,4.46813791990280151e-01,0.00000000000000000e+00,0.00000000000000000e+00],"parents":[2147483647,0,0,2,2,3,3,6,6,8,8,10,10],"right_children":[2,-1,4,6,-1,-1,8,-1,10,-1,12,-1,-1],"split_conditions":[1.03174972534179688e+00,4.58720475435256958e-01,4.14618074893951416e-01,6.83763444423675537e-01,4.45695608854293823e-01,-1.42568022012710571e-01,7.32430338859558105e-01,-1.39081612229347229e-01,2.00000095367431641e+00,-9.39280167222023010e-02,8.79759430885314941e-01,-9.12252143025398254e-02,4.96460422873497009e-02],"split_indices":[265,0,108,33,0,0,340,0,304,0,374,0,0],"sum_hessian":[4.38530998229980469e+01,2.06013917922973633e+00,4.17929611206054688e+01,4.05945091247558594e+01,1.19845187664031982e+00,8.36233520507812500e+00,3.22321739196777344e+01,6.70279216766357422e+00,2.55293807983398438e+01,1.23750841617584229e+00,2.42918720245361328e+01,1.30067217350006104e+00,2.29912014007568359e+01],"tree_param":{"num_feature":"392","num_nodes":"13","size_leaf_vector":"0"}},{"base_weights":[1.02163970470428467e-01,7.02154099941253662e-01,-2.28030562400817871e-01,-3.39220941066741943e-01,8.14575016498565674e-01,-2.83523201942443848e-01,6.79492175579071045e-01,-3.58713537454605103e-01,9.34167861938476562e-01,-4.75754916667938232e-01,-1.84518218040466309e-01,1.05292856693267822e+00,-2.83552289009094238e-01,-2.99125254154205322e-01,-1.62341639399528503e-01,1.24928928911685944e-01,1.12806344032287598e+00,-2.81721979379653931e-01,-1.40438109636306763e-01,1.19394123554229736e+00,2.09548696875572205e-01,-2.76412367820739746e-01,-1.16623178124427795e-01],"default_left":[false,false,true,false,false,false,false,false,true,false,false,false,false,false,false,false,true,false,false,false,false,false,false],"id":32,"leaf_child_counts":[0,1,1,0,1,1,0,0,1,0,1,1,0,0,1,0,2,0,2,0,0,0,0],"left_children":[1,3,5,-1,7,9,-1,-1,11,-1,13,15,-1,-1,17,-1,19,-1,21,-1,-1,-1,-1],"loss_changes":[9.32901954650878906e+00,2.22837162017822266e+00,1.73405575752258301e+00,0.00000000000000000e+00,2.48801708221435547e+00,4.74589824676513672e-01,0.00000000000000000e+00,0.00000000000000000e+00,2.35233402252197266e+00,0.00000000000000000e+00,5.16247749328613281e-03,7.76073455810546875e-01,0.00000000000000000e+00,0.00000000000000000e+00,1.24642252922058105e-02,0.00000000000000000e+00,4.78472709655761719e-01,0.00000000000000000e+00,2.86639928817749023e-02,0.00000000000000000e+00,0.00000000000000000e+00,0.00000000000000000e+00,0.00000000000000000e+00],"parents":[2147483647,0,0,1,1,2,2,4,4,5,5,8,8,10,10,11,11,14,14,16,16,18,18],"right_children":[2,4,6,-1,8,10,-1,-1,12,-1,14,16,-1,-1,18,-1,20,-1,22,-1,-1,-1,-1],"split_conditions":[3.17078471183776855e-01,7.60108172893524170e-01,4.46833670139312744e-01,-1.01766288280487061e-01,9.10964548587799072e-01,6.83763444423675537e-01,2.03847661614418030e-01,-1.07614062726497650e-01,3.09162944555282593e-01,-1.42726480960845947e-01,7.32430338859558105e-01,8.14013957977294922e-01,-8.50656926631927490e-02,-8.97375792264938354e-02,8.03678989410400391e-01,3.74786816537380219e-02,2.61313974857330322e-01,-8.45165997743606567e-02,2.00000095367431641e+00,3.58182370662689209e-01,6.28646090626716614e-02,-8.29237103462219238e-02,-3.49869541823863983e-02],"split_indices":[340,236,217,0,282,33,0,0,324,0,340,328,0,0,4,0,374,0,66,0,0,0,0],"sum_hessian":[4.52810859680175781e+01,1.56738853454589844e+01,2.96072025299072266e+01,1.33062708377838135e+00,1.43432579040527344e+01,2.85490856170654297e+01,1.05811619758605957e+00,1.14181423187255859e+00,1.32014436721801758e+01,8.41154956817626953e+00,2.01375370025634766e+01,1.21516561508178711e+01,1.04978799819946289e+00,1.24015450477600098e+00,1.88973808288574219e+01,1.10959935188293457e+00,1.10420570373535156e+01,1.09071958065032959e+00,1.78066616058349609e+01,1.00233039855957031e+01,1.01875221729278564e+00,1.07308292388916016e+00,1.67335796356201172e+01],"tree_param":{"num_feature":"392","num_nodes":"23","size_leaf_vector":"0"}},{"base_weights":[-1.98711559176445007e-01,-5.12820184230804443e-01,5.95571815967559814e-01,1.57948732376098633e+00,2.55646467208862305e-01,1.26813101768493652e+00,-9.51913297176361084e-02,-3.14046531915664673e-01,6.43574833869934082e-01,-1.42903491854667664e-01,-4.02377843856811523e-01,-3.51085782051086426e-01,2.12780579924583435e-01],"default_left":[true,false,false,false,false,false,false,false,false,false,false,false,false],"id":33,"leaf_child_counts":[1,0,1,0,1,0,1,1,0,2,0,0,0],"left_children":[1,-1,3,-1,5,-1,7,9,-1,11,-1,-1,-1],"loss_changes":[9.31748008728027344e+00,0.00000000000000000e+00,3.17465925216674805e+00,0.00000000000000000e+00,3.36921668052673340e+00,0.00000000000000000e+00,1.45060646533966064e+00,4.27138209342956543e-02,0.00000000000000000e+00,3.56636464595794678e-01,0.00000000000000000e+00,0.00000000000000000e+00,0.00000000000000000e+00],"parents":[2147483647,0,0,2,2,4,4,6,6,7,7,9,9],"right_children":[2,-1,4,-1,6,-1,8,10,-1,12,-1,-1,-1],"split_conditions":[1.93143188953399658e-01,-1.53846055269241333e-01,7.60108172893524170e-01,4.73846226930618286e-01,1.22502303123474121e+00,3.80439311265945435e-01,3.33720594644546509e-01,2.41049557924270630e-01,1.93072453141212463e-01,2.32314914464950562e-01,-1.20713360607624054e-01,-1.05325736105442047e-01,6.38341754674911499e-02],"split_indices":[340,0,236,0,155,0,340,340,0,340,0,0,0],"sum_hessian":[3.51217384338378906e+01,2.54224834442138672e+01,9.69925689697265625e+00,1.55416059494018555e+00,8.14509677886962891e+00,1.42322492599487305e+00,6.72187185287475586e+00,5.62916707992553711e+00,1.09270441532135010e+00,2.80747008323669434e+00,2.82169723510742188e+00,1.77909302711486816e+00,1.02837705612182617e+00],"tree_param":{"num_feature":"392","num_nodes":"13","size_leaf_vector":"0"}},{"base_weights":[-1.82319819927215576e-01,-5.12638449668884277e-01,7.22314238548278809e-01,1.26074588298797607e+00,3.35556358098983765e-01,1.56509351730346680e+00,-1.39927476644515991e-01,1.61940157413482666e-01,-2.43400633335113525e-01,-3.98348003625869751e-01,8.37819799780845642e-02],"default_left":[true,false,false,false,false,false,false,false,false,false,false],"id":34,"leaf_child_counts":[1,0,1,0,1,0,1,0,2,0,0],"left_children":[1,-1,3,-1,5,-1,7,-1,9,-1,-1],"loss_changes":[1.12499923706054688e+01,0.00000000000000000e+00,1.69137144088745117e+00,0.00000000000000000e+00,4.47027492523193359e+00,0.00000000000000000e+00,2.31882154941558838e-01,0.00000000000000000e+00,2.86265939474105835e-01,0.00000000000000000e+00,0.00000000000000000e+00],"parents":[2147483647,0,0,2,2,4,4,6,6,8,8],"right_children":[2,-1,4,-1,6,-1,8,-1,10,-1,-1],"split_conditions":[2.25630253553390503e-01,-1.53791546821594238e-01,8.78810584545135498e-01,3.78223776817321777e-01,1.23810505867004395e+00,4.69528079032897949e-01,2.34401375055313110e-01,4.85820509493350983e-02,3.17078471183776855e-01,-1.19504407048225403e-01,2.51345951110124588e-02],"split_indices":[340,0,324,0,289,0,340,0,340,0,0],"sum_hessian":[3.54092025756835938e+01,2.62555522918701172e+01,9.15364837646484375e+00,2.88185000419616699e+00,6.27179861068725586e+00,1.10997414588928223e+00,5.16182470321655273e+00,1.17344057559967041e+00,3.98838400840759277e+00,2.55898714065551758e+00,1.42939662933349609e+00],"tree_param":{"num_feature":"392","num_nodes":"11","size_leaf_vector":"0"}},{"base_weights":[-1.32325217127799988e-01,5.35071671009063721e-01,-4.05773848295211792e-01,-2.78306066989898682e-01,6.45932555198669434e-01,6.49595141410827637e-01,-4.75233018398284912e-01,-2.86711484193801880e-01,7.79349744319915771e-01,1.00384905934333801e-01,8.84416997432708740e-01],"default_left":[false,false,false,false,false,false,false,false,false,false,false],"id":35,"leaf_child_counts":[0,1,2,0,1,0,0,0,2,0,0],"left_children":[1,3,5,-1,7,-1,-1,-1,9,-1,-1],"loss_changes":[7.08006668090820312e+00,1.20420742034912109e+00,2.30586671829223633e+00,0.00000000000000000e+00,1.50500726699829102e+00,0.00000000000000000e+00,0.00000000000000000e+00,0.00000000000000000e+00,5.73178768157958984e-01,0.00000000000000000e+00,0.00000000000000000e+00],"parents":[2147483647,0,0,1,1,2,2,4,4,8,8],"right_children":[2,4,6,-1,8,-1,-1,-1,10,-1,-1],"split_conditions":[3.42066168785095215e-01,8.78810584545135498e-01,3.27705889940261841e-01,-8.34918245673179626e-02,7.60108172893524170e-01,1.94878548383712769e-01,-1.42569914460182190e-01,-8.60134512186050415e-02,2.11010366678237915e-01,3.01154721528291702e-02,2.65325099229812622e-01],"split_indices":[340,324,328,0,236,0,0,0,340,0,0],"sum_hessian":[3.66054534912109375e+01,1.03609857559204102e+01,2.62444667816162109e+01,1.06161201000213623e+00,9.29937362670898438e+00,1.10486495494842529e+00,2.51396026611328125e+01,1.02001833915710449e+00,8.27935600280761719e+00,1.37155222892761230e+00,6.90780353546142578e+00],"tree_param":{"num_feature":"392","num_nodes":"11","size_leaf_vector":"0"}},{"base_weights":[1.57196491956710815e-01,4.74416762590408325e-01,-1.23903371393680573e-01,-3.12986582517623901e-01,5.33457458019256592e-01,1.15519881248474121e+00,-3.08072835206985474e-01,5.98590552806854248e-01,-3.16481620073318481e-01,-4.18327808380126953e-01,7.36509561538696289e-01,-3.39413315057754517e-01,6.64568364620208740e-01,-2.87029802799224854e-01,7.34833776950836182e-01,1.15213119983673096e+00,5.95051050186157227e-01],"default_left":[false,false,false,false,true,false,true,false,false,false,false,false,false,false,false,false,false],"id":36,"leaf_child_counts":[0,1,1,0,1,0,2,1,0,0,0,0,1,0,2,0,0],"left_children":[1,3,5,-1,7,-1,9,11,-1,-1,-1,-1,13,-1,15,-1,-1],"loss_changes":[4.39065933227539062e+00,1.23762893676757812e+00,6.61010265350341797e+00,0.00000000000000000e+00,1.39593601226806641e+00,0.00000000000000000e+00,3.07185578346252441e+00,1.49973249435424805e+00,0.00000000000000000e+00,0.00000000000000000e+00,0.00000000000000000e+00,0.00000000000000000e+00,1.51969623565673828e+00,0.00000000000000000e+00,3.94043922424316406e-01,0.00000000000000000e+00,0.00000000000000000e+00],"parents":[2147483647,0,0,1,1,2,2,4,4,6,6,7,7,12,12,14,14],"right_children":[2,4,6,-1,8,-1,10,12,-1,-1,-1,-1,14,-1,16,-1,-1],"split_conditions":[3.07898461818695068e-01,7.64082789421081543e-01,1.04689431190490723e+00,-9.38959792256355286e-02,2.77765333652496338e-01,3.46559643745422363e-01,4.45439517498016357e-01,1.11182570457458496e+00,-9.49444919824600220e-02,-1.25498354434967041e-01,2.20952883362770081e-01,-1.01824000477790833e-01,8.86938452720642090e-01,-8.61089453101158142e-02,8.48942279815673828e-01,3.45639377832412720e-01,1.78515315055847168e-01],"split_indices":[33,236,100,0,374,0,217,50,0,0,0,0,22,0,335,0,0],"sum_hessian":[4.75796775817871094e+01,2.20305538177490234e+01,2.55491218566894531e+01,1.23664808273315430e+00,2.07939052581787109e+01,2.55204725265502930e+00,2.29970741271972656e+01,1.95885105133056641e+01,1.20539522171020508e+00,2.13437786102294922e+01,1.65329563617706299e+00,1.01492929458618164e+00,1.85735816955566406e+01,1.06503105163574219e+00,1.75085506439208984e+01,2.57601165771484375e+00,1.49325380325317383e+01],"tree_param":{"num_feature":"392","num_nodes":"17","size_leaf_vector":"0"}},{"base_weights":[-6.60634115338325500e-02,-5.03195583820343018e-01,5.48712253570556641e-01,1.00336253643035889e+00,3.68323296308517456e-01,1.00037622451782227e+00,1.75980031490325928e-01,1.00037622451782227e+00,-8.88808965682983398e-02,8.78977656364440918e-01,-3.62623780965805054e-01],"default_left":[true,false,false,false,false,false,false,false,false,false,false],"id":37,"leaf_child_counts":[1,0,1,0,1,0,1,0,2,0,0],"left_children":[1,-1,3,-1,5,-1,7,-1,9,-1,-1],"loss_changes":[9.90783500671386719e+00,0.00000000000000000e+00,8.91181468963623047e-01,0.00000000000000000e+00,1.35400629043579102e+00,0.00000000000000000e+00,2.46079111099243164e+00,0.00000000000000000e+00,2.74026799201965332e+00,0.00000000000000000e+00,0.00000000000000000e+00],"parents":[2147483647,0,0,2,2,4,4,6,6,8,8],"right_children":[2,-1,4,-1,6,-1,8,-1,10,-1,-1],"split_conditions":[1.75966978073120117e-01,-1.50958687067031860e-01,7.64082789421081543e-01,3.01008760929107666e-01,1.39229488372802734e+00,3.00112873315811157e-01,1.41811633110046387e+00,3.00112873315811157e-01,1.38723492622375488e+00,2.63693302869796753e-01,-1.08787141740322113e-01],"split_indices":[33,0,236,0,42,0,43,0,41,0,0],"sum_hessian":[3.48405494689941406e+01,2.04682407379150391e+01,1.43723096847534180e+01,2.78664994239807129e+00,1.15856599807739258e+01,1.72294688224792480e+00,9.86271286010742188e+00,1.72294688224792480e+00,8.13976669311523438e+00,1.30715727806091309e+00,6.83260917663574219e+00],"tree_param":{"num_feature":"392","num_nodes":"11","size_leaf_vector":"0"}},{"base_weights":[-1.62675052881240845e-01,-5.04084229469299316e-01,4.98584210872650146e-01,1.07414841651916504e+00,2.21096977591514587e-01,1.00618910789489746e+00,-8.29521641135215759e-02,4.01940613985061646e-01,-2.85205721855163574e-01,-4.08785790205001831e-01,-1.39759369194507599e-02],"default_left":[true,false,false,false,false,false,false,false,false,false,false],"id":38,"leaf_child_counts":[1,0,1,0,1,0,1,0,2,0,0],"left_children":[1,-1,3,-1,5,-1,7,-1,9,-1,-1],"loss_changes":[7.77451562881469727e+00,0.00000000000000000e+00,1.65501737594604492e+00,0.00000000000000000e+00,2.29250502586364746e+00,0.00000000000000000e+00,8.59447896480560303e-01,0.00000000000000000e+00,1.93526685237884521e-01,0.00000000000000000e+00,0.00000000000000000e+00],"parents":[2147483647,0,0,2,2,4,4,6,6,8,8],"right_children":[2,-1,4,-1,6,-1,8,-1,10,-1,-1],"split_conditions":[1.98013931512832642e-01,-1.51225268840789795e-01,1.05987739562988281e+00,3.22244524955749512e-01,1.41867780685424805e+00,3.01856756210327148e-01,2.10093975067138672e-01,1.20582185685634613e-01,2.88002133369445801e-01,-1.22635744512081146e-01,-4.19278116896748543e-03],"split_indices":[33,0,57,0,52,0,33,0,33,0,0],"sum_hessian":[3.23238334655761719e+01,2.14743061065673828e+01,1.08495264053344727e+01,2.59532284736633301e+00,8.25420379638671875e+00,1.65960407257080078e+00,6.59459924697875977e+00,1.65044033527374268e+00,4.94415903091430664e+00,3.04816889762878418e+00,1.89599013328552246e+00],"tree_param":{"num_feature":"392","num_nodes":"11","size_leaf_vector":"0"}},{"base_weights":[2.22000777721405029e-02,-2.69095867872238159e-01,4.09086465835571289e-01,-3.37484031915664673e-01,5.29051184654235840e-01,1.17696964740753174e+00,2.97222018241882324e-01,-4.49561417102813721e-01,-2.75393724441528320e-01,1.17355477809906006e+00,1.71748414635658264e-01,-3.94534021615982056e-01,2.85209506750106812e-01,7.11593866348266602e-01,9.81943160295486450e-02,-1.32600933313369751e-01,4.89181131124496460e-01],"default_left":[true,true,false,false,false,false,false,false,false,false,false,false,false,false,false,false,false],"id":39,"leaf_child_counts":[0,1,1,2,0,0,1,0,0,0,1,0,1,0,2,0,0],"left_children":[1,3,5,7,-1,-1,9,-1,-1,-1,11,-1,13,-1,15,-1,-1],"loss_changes":[4.83461046218872070e+00,1.51686477661132812e+00,1.23099684715270996e+00,3.75993251800537109e-02,0.00000000000000000e+00,0.00000000000000000e+00,1.71180248260498047e+00,0.00000000000000000e+00,0.00000000000000000e+00,0.00000000000000000e+00,1.16579449176788330e+00,0.00000000000000000e+00,1.06540238857269287e+00,0.00000000000000000e+00,1.06258833408355713e+00,0.00000000000000000e+00,0.00000000000000000e+00],"parents":[2147483647,0,0,1,1,2,2,3,3,6,6,10,10,12,12,14,14],"right_children":[2,4,6,8,-1,-1,10,-1,-1,-1,12,-1,14,-1,16,-1,-1],"split_conditions":[1.58546328544616699e-01,2.87725090980529785e-01,3.69839429855346680e-01,7.32430338859558105e-01,1.58715367317199707e-01,3.53090912103652954e-01,1.11182570457458496e+00,-1.34868428111076355e-01,-8.26181173324584961e-02,3.52066457271575928e-01,2.90351688861846924e-01,-1.18360213935375214e-01,1.97784543037414551e-01,2.13478162884712219e-01,2.61312484741210938e-01,-3.97802814841270447e-02,1.46754339337348938e-01],"split_indices":[33,328,156,340,0,0,50,0,0,0,374,0,33,0,33,0,0],"sum_hessian":[4.09218521118164062e+01,2.35185966491699219e+01,1.74032535552978516e+01,2.21940917968750000e+01,1.32450556755065918e+00,1.00221943855285645e+00,1.64010334014892578e+01,5.68743085861206055e+00,1.65066604614257812e+01,1.00799441337585449e+00,1.53930387496948242e+01,2.15586924552917480e+00,1.32371702194213867e+01,3.18059158325195312e+00,1.00565786361694336e+01,6.73929929733276367e+00,3.31727886199951172e+00],"tree_param":{"num_feature":"392","num_nodes":"17","size_leaf_vector":"0"}},{"base_weights":[-5.62206096947193146e-03,1.53468585014343262e+00,-9.63329672813415527e-02,9.52830493450164795e-01,-2.35460698604583740e-01,9.29670691490173340e-01,-3.81157934665679932e-01,-4.40540462732315063e-01,5.09199798107147217e-01],"default_left":[false,false,false,false,false,false,true,false,false],"id":40,"leaf_child_counts":[1,0,1,0,1,0,2,0,0],"left_children":[1,-1,3,-1,5,-1,7,-1,-1],"loss_changes":[5.27697372436523438e+00,0.00000000000000000e+00,5.42207050323486328e+00,0.00000000000000000e+00,5.82753133773803711e+00,0.00000000000000000e+00,1.77700662612915039e+00,0.00000000000000000e+00,0.00000000000000000e+00],"parents":[2147483647,0,0,2,2,4,4,6,6],"right_children":[2,-1,4,-1,6,-1,8,-1,-1],"split_conditions":[2.00000095367431641e+00,4.60405766963958740e-01,2.00000095367431641e+00,2.85849153995513916e-01,2.00000095367431641e+00,2.78901219367980957e-01,3.11164438724517822e-01,-1.32162138819694519e-01,1.52759939432144165e-01],"split_indices":[121,0,127,0,200,0,4,0,0],"sum_hessian":[3.57093620300292969e+01,1.10069465637207031e+00,3.46086692810058594e+01,3.36729145050048828e+00,3.12413768768310547e+01,2.87437152862548828e+00,2.83670043945312500e+01,2.70669784545898438e+01,1.30002653598785400e+00],"tree_param":{"num_feature":"392","num_nodes":"9","size_leaf_vector":"0"}},{"base_weights":[-4.60968073457479477e-03,1.14353084564208984e+00,-1.09581619501113892e-01,9.79453980922698975e-01,-2.07295343279838562e-01,-4.61355149745941162e-01,-1.31362065672874451e-01,-4.47394341230392456e-01,-3.90254184603691101e-02,-2.90059804916381836e-01,-1.43674267455935478e-02,-2.81169623136520386e-01,1.09903942793607712e-02],"default_left":[false,false,false,false,false,false,false,false,false,false,false,false,false],"id":41,"leaf_child_counts":[1,0,1,0,1,0,1,0,1,0,2,0,0],"left_children":[1,-1,3,-1,5,-1,7,-1,9,-1,11,-1,-1],"loss_changes":[5.16678094863891602e+00,0.00000000000000000e+00,4.37856149673461914e+00,0.00000000000000000e+00,6.49964809417724609e-01,0.00000000000000000e+00,8.50851893424987793e-01,0.00000000000000000e+00,1.45155072212219238e-01,0.00000000000000000e+00,1.58816933631896973e-01,0.00000000000000000e+00,0.00000000000000000e+00],"parents":[2147483647,0,0,2,2,4,4,6,6,8,8,10,10],"right_children":[2,-1,4,-1,6,-1,8,-1,10,-1,12,-1,-1],"split_conditions":[2.00000095367431641e+00,3.43059271574020386e-01,2.00000095367431641e+00,2.93836206197738647e-01,6.83763444423675537e-01,-1.38406544923782349e-01,7.32430338859558105e-01,-1.34218305349349976e-01,1.07444024085998535e+00,-8.70179459452629089e-02,1.03174972534179688e+00,-8.43508914113044739e-02,3.29711847007274628e-03],"split_indices":[177,0,304,0,33,0,340,0,92,0,265,0,0],"sum_hessian":[4.08301124572753906e+01,2.59151268005371094e+00,3.82385978698730469e+01,2.40547466278076172e+00,3.58331222534179688e+01,7.07743453979492188e+00,2.87556896209716797e+01,5.63252067565917969e+00,2.31231689453125000e+01,1.10546791553497314e+00,2.20177001953125000e+01,1.03542268276214600e+00,2.09822788238525391e+01],"tree_param":{"num_feature":"392","num_nodes":"13","size_leaf_vector":"0"}},{"base_weights":[1.93168550729751587e-01,1.66229546070098877e+00,1.28771558403968811e-01,9.01014328002929688e-01,3.22550795972347260e-02,1.21855950355529785e+00,-3.58519442379474640e-02,-1.18329994380474091e-01,1.04233992099761963e+00,1.15883016586303711e+00,-1.96803614497184753e-01,-4.61355149745941162e-01,-1.25523343682289124e-01],"default_left":[false,false,false,false,false,false,true,false,false,false,false,false,false],"id":42,"leaf_child_counts":[1,0,1,0,1,0,1,1,0,0,2,0,0],"left_children":[1,-1,3,-1,5,-1,7,9,-1,-1,11,-1,-1],"loss_changes":[4.56598138809204102e+00,0.00000000000000000e+00,3.65943145751953125e+00,0.00000000000000000e+00,3.68163657188415527e+00,0.00000000000000000e+00,3.99641036987304688e+00,4.37294054031372070e+00,0.00000000000000000e+00,0.00000000000000000e+00,6.92934632301330566e-01,0.00000000000000000e+00,0.00000000000000000e+00],"parents":[2147483647,0,0,2,2,4,4,6,6,7,7,10,10],"right_children":[2,-1,4,-1,6,-1,8,10,-1,-1,12,-1,-1],"split_conditions":[2.00000095367431641e+00,4.98688668012619019e-01,2.00000095367431641e+00,2.70304322242736816e-01,2.00000095367431641e+00,3.65567862987518311e-01,3.52358013391494751e-01,2.00000095367431641e+00,3.12702000141143799e-01,3.47649067640304565e-01,6.83763444423675537e-01,-1.38406544923782349e-01,-3.76570038497447968e-02],"split_indices":[73,0,66,0,206,0,130,142,0,0,33,0,0],"sum_hessian":[4.95250129699707031e+01,1.03771686553955078e+00,4.84872970581054688e+01,4.46075868606567383e+00,4.40265388488769531e+01,1.47325170040130615e+00,4.25532875061035156e+01,4.03564071655273438e+01,2.19687795639038086e+00,1.53917407989501953e+00,3.88172340393066406e+01,7.07743453979492188e+00,3.17397994995117188e+01],"tree_param":{"num_feature":"392","num_nodes":"13","size_leaf_vector":"0"}},{"base_weights":[4.44104410707950592e-02,1.11307477951049805e+00,-4.90555018186569214e-02,-1.22691720724105835e-01,1.11741673946380615e+00,-4.62527543306350708e-01,-3.57673056423664093e-02,-4.49003666639328003e-01,6.60599693655967712e-02,-3.09065461158752441e-01,9.51567217707633972e-02,-3.04969102144241333e-01,1.26096025109291077e-01],"default_left":[false,false,true,false,false,false,false,false,false,false,false,false,false],"id":43,"leaf_child_counts":[1,0,1,1,0,0,1,0,1,0,2,0,0],"left_children":[1,-1,3,5,-1,-1,7,-1,9,-1,11,-1,-1],"loss_changes":[4.51677656173706055e+00,0.00000000000000000e+00,3.74798107147216797e+00,1.17815577983856201e+00,0.00000000000000000e+00,0.00000000000000000e+00,1.43044197559356689e+00,0.00000000000000000e+00,3.30443233251571655e-01,0.00000000000000000e+00,3.64773452281951904e-01,0.00000000000000000e+00,0.00000000000000000e+00],"parents":[2147483647,0,0,2,2,3,3,6,6,8,8,10,10],"right_children":[2,-1,4,6,-1,-1,8,-1,10,-1,12,-1,-1],"split_conditions":[1.03174972534179688e+00,3.33922445774078369e-01,4.14618074893951416e-01,6.83763444423675537e-01,3.35225045680999756e-01,-1.38758271932601929e-01,7.32430338859558105e-01,-1.34701102972030640e-01,1.07444024085998535e+00,-9.27196443080902100e-02,2.00000095367431641e+00,-9.14907306432723999e-02,3.78288105130195618e-02],"split_indices":[265,0,108,33,0,0,340,0,92,0,177,0,0],"sum_hessian":[4.36736869812011719e+01,2.63515520095825195e+00,4.10385322570800781e+01,3.94433975219726562e+01,1.59513616561889648e+00,7.15387916564941406e+00,3.22895164489746094e+01,5.70954132080078125e+00,2.65799770355224609e+01,1.22067117691040039e+00,2.53593063354492188e+01,1.18443715572357178e+00,2.41748676300048828e+01],"tree_param":{"num_feature":"392","num_nodes":"13","size_leaf_vector":"0"}},{"base_weights":[7.60662704706192017e-02,5.22987306118011475e-01,-2.08466932177543640e-01,-3.50031524896621704e-01,6.00166380405426025e-01,-2.64089554548263550e-01,5.74040353298187256e-01,-3.17380636930465698e-01,6.89463675022125244e-01,-4.62909311056137085e-01,-1.71538636088371277e-01,3.07228472083806992e-02,7.51884639263153076e-01,-2.88413435220718384e-01,-1.49569109082221985e-01,1.04472927749156952e-01,7.99724042415618896e-01,1.34802788496017456e-01,8.54350507259368896e-01],"default_left":[false,false,true,false,false,false,false,false,false,false,false,false,false,false,false,false,false,false,false],"id":44,"leaf_child_counts":[0,1,1,0,1,1,0,0,1,0,2,0,1,0,0,0,2,0,0],"left_children":[1,3,5,-1,7,9,-1,-1,11,-1,13,-1,15,-1,-1,-1,17,-1,-1],"loss_changes":[5.96900844573974609e+00,1.43709897994995117e+00,1.40822601318359375e+00,0.00000000000000000e+00,1.61990261077880859e+00,4.29199099540710449e-01,0.00000000000000000e+00,0.00000000000000000e+00,6.30639553070068359e-01,0.00000000000000000e+00,9.36961174011230469e-03,0.00000000000000000e+00,3.64918708801269531e-01,0.00000000000000000e+00,0.00000000000000000e+00,0.00000000000000000e+00,3.69127273559570312e-01,0.00000000000000000e+00,0.00000000000000000e+00],"parents":[2147483647,0,0,1,1,2,2,4,4,5,5,8,8,10,10,12,12,16,16],"right_children":[2,4,6,-1,8,10,-1,-1,12,-1,14,-1,16,-1,-1,-1,18,-1,-1],"split_conditions":[3.17078471183776855e-01,9.10964548587799072e-01,4.46833670139312744e-01,-1.05009458959102631e-01,7.60108172893524170e-01,6.83763444423675537e-01,1.72212108969688416e-01,-9.52141955494880676e-02,8.78810584545135498e-01,-1.38872802257537842e-01,7.32430338859558105e-01,9.21685434877872467e-03,8.14013957977294922e-01,-8.65240320563316345e-02,-4.48707342147827148e-02,3.13418805599212646e-02,2.74219870567321777e-01,4.04408387839794159e-02,2.56305158138275146e-01],"split_indices":[340,282,217,0,236,33,0,0,324,0,340,0,328,0,0,0,374,0,0],"sum_hessian":[4.50821380615234375e+01,1.72107982635498047e+01,2.78713397979736328e+01,1.11078071594238281e+00,1.61000175476074219e+01,2.66401958465576172e+01,1.23114466667175293e+00,1.20138168334960938e+00,1.48986358642578125e+01,7.19089412689208984e+00,1.94493007659912109e+01,1.41872596740722656e+00,1.34799098968505859e+01,1.15847754478454590e+00,1.82908229827880859e+01,1.14661169052124023e+00,1.23332977294921875e+01,1.19957804679870605e+00,1.11337194442749023e+01],"tree_param":{"num_feature":"392","num_nodes":"19","size_leaf_vector":"0"}},{"base_weights":[-1.78704813122749329e-01,-5.05080580711364746e-01,5.05465328693389893e-01,1.12309801578521729e+00,2.38501831889152527e-01,9.87055718898773193e-01,-7.44147822260856628e-02,-2.87275761365890503e-01,5.18791377544403076e-01,-1.13781236112117767e-01,-3.83641600608825684e-01,-3.31010073423385620e-01,2.20208048820495605e-01],"default_left":[true,false,false,false,false,false,false,false,false,false,false,false,false],"id":45,"leaf_child_counts":[1,0,1,0,1,0,1,1,0,2,0,0,0],"left_children":[1,-1,3,-1,5,-1,7,9,-1,11,-1,-1,-1],"loss_changes":[7.63765192031860352e+00,0.00000000000000000e+00,1.57513403892517090e+00,0.00000000000000000e+00,2.19885158538818359e+00,0.00000000000000000e+00,1.07444405555725098e+00,5.72819411754608154e-02,0.00000000000000000e+00,3.32441240549087524e-01,0.00000000000000000e+00,0.00000000000000000e+00,0.00000000000000000e+00],"parents":[2147483647,0,0,2,2,4,4,6,6,7,7,9,9],"right_children":[2,-1,4,-1,6,-1,8,10,-1,12,-1,-1,-1],"split_conditions":[1.93143188953399658e-01,-1.51524186134338379e-01,7.60108172893524170e-01,3.36929410696029663e-01,1.22502303123474121e+00,2.96116739511489868e-01,3.33720594644546509e-01,2.41049557924270630e-01,1.55637413263320923e-01,2.32314914464950562e-01,-1.15092486143112183e-01,-9.93030294775962830e-02,6.60624206066131592e-02],"split_indices":[340,0,236,0,155,0,340,340,0,340,0,0,0],"sum_hessian":[3.20607452392578125e+01,2.18833141326904297e+01,1.01774311065673828e+01,2.10363578796386719e+00,8.07379531860351562e+00,1.74501848220825195e+00,6.32877731323242188e+00,5.03704929351806641e+00,1.29172778129577637e+00,2.57743167877197266e+00,2.45961785316467285e+00,1.56709969043731689e+00,1.01033186912536621e+00],"tree_param":{"num_feature":"392","num_nodes":"13","size_leaf_vector":"0"}},{"base_weights":[-1.65280863642692566e-01,-5.05105912685394287e-01,6.06901168823242188e-01,1.23599386215209961e+00,3.74310582876205444e-01,9.57187652587890625e-01,-1.16796165704727173e-01,1.65489584207534790e-01,-2.21721664071083069e-01,-3.75949442386627197e-01,6.70891553163528442e-02],"default_left":[true,false,false,false,false,false,false,false,false,false,false],"id":46,"leaf_child_counts":[1,0,1,0,1,0,1,0,2,0,0],"left_children":[1,-1,3,-1,5,-1,7,-1,9,-1,-1],"loss_changes":[9.01180267333984375e+00,0.00000000000000000e+00,1.08722686767578125e+00,0.00000000000000000e+00,2.73604869842529297e+00,0.00000000000000000e+00,2.10458129644393921e-01,0.00000000000000000e+00,2.34766021370887756e-01,0.00000000000000000e+00,0.00000000000000000e+00],"parents":[2147483647,0,0,2,2,4,4,6,6,8,8],"right_children":[2,-1,4,-1,6,-1,8,-1,10,-1,-1],"split_conditions":[2.25630253553390503e-01,-1.51531785726547241e-01,1.23810505867004395e+00,3.70798170566558838e-01,8.78810584545135498e-01,2.87156313657760620e-01,2.34401375055313110e-01,4.96468767523765564e-02,3.17078471183776855e-01,-1.12784840166568756e-01,2.01267469674348831e-02],"split_indices":[340,0,289,0,324,0,340,0,340,0,0],"sum_hessian":[3.21746559143066406e+01,2.25823802947998047e+01,9.59227466583251953e+00,1.42473387718200684e+00,8.16754055023193359e+00,3.30084443092346191e+00,4.86669635772705078e+00,1.16235387325286865e+00,3.70434260368347168e+00,2.21812653541564941e+00,1.48621618747711182e+00],"tree_param":{"num_feature":"392","num_nodes":"11","size_leaf_vector":"0"}},{"base_weights":[-1.18394434452056885e-01,1.41459989547729492e+00,-2.16021388769149780e-01,-3.15557241439819336e-01,9.19183015823364258e-01,-3.99107933044433594e-01,1.08338451385498047e+00,-5.08682847023010254e-01,-6.35482817888259888e-02,3.51485848426818848e-01,-2.11400017142295837e-01,-3.06392133235931396e-01,1.50047168135643005e-01],"default_left":[false,false,true,true,false,true,false,false,false,false,false,false,false],"id":47,"leaf_child_counts":[1,0,1,1,0,1,0,0,1,0,2,0,0],"left_children":[1,-1,3,5,-1,7,-1,-1,9,-1,11,-1,-1],"loss_changes":[5.66177511215209961e+00,0.00000000000000000e+00,4.18985843658447266e+00,4.22822999954223633e+00,0.00000000000000000e+00,1.12134408950805664e+00,0.00000000000000000e+00,0.00000000000000000e+00,6.18376135826110840e-01,0.00000000000000000e+00,2.91874647140502930e-01,0.00000000000000000e+00,0.00000000000000000e+00],"parents":[2147483647,0,0,2,2,3,3,5,5,8,8,10,10],"right_children":[2,-1,4,6,-1,8,-1,-1,10,-1,12,-1,-1],"split_conditions":[4.59381073713302612e-01,4.24379974603652954e-01,2.87725090980529785e-01,4.43332761526107788e-01,2.75754928588867188e-01,2.12055683135986328e-01,3.25015366077423096e-01,-1.52604863047599792e-01,3.09179902076721191e-01,1.05445757508277893e-01,3.29558670520782471e-01,-9.19176414608955383e-02,4.50141504406929016e-02],"split_indices":[282,0,328,334,0,340,0,0,374,0,340,0,0],"sum_hessian":[3.47886886596679688e+01,1.27518343925476074e+00,3.35135078430175781e+01,3.14757118225097656e+01,2.03779578208923340e+00,3.03762226104736328e+01,1.09948825836181641e+00,2.25098457336425781e+01,7.86637592315673828e+00,1.70447206497192383e+00,6.16190385818481445e+00,5.00013446807861328e+00,1.16176962852478027e+00],"tree_param":{"num_feature":"392","num_nodes":"13","size_leaf_vector":"0"}},{"base_weights":[1.24921590089797974e-01,8.95949125289916992e-01,5.07344193756580353e-02,8.68947625160217285e-01,-1.55838271602988243e-02,2.69602060317993164e-01,-3.21634441614151001e-01,-4.14395570755004883e-01,3.69403988122940063e-01,3.87980878353118896e-01,-3.97352993488311768e-01,-2.86822885274887085e-01,4.21229928731918335e-01,7.67648458480834961e-01,3.01217466592788696e-01],"default_left":[false,false,false,false,false,false,false,false,false,false,false,false,false,false,false],"id":48,"leaf_child_counts":[1,0,1,0,0,1,2,0,1,0,0,0,2,0,0],"left_children":[1,-1,3,-1,5,7,9,-1,11,-1,-1,-1,13,-1,-1],"loss_changes":[2.69434356689453125e+00,0.00000000000000000e+00,2.44201111793518066e+00,0.00000000000000000e+00,3.78578710556030273e+00,1.68782019615173340e+00,1.27707457542419434e+00,0.00000000000000000e+00,8.06055068969726562e-01,0.00000000000000000e+00,0.00000000000000000e+00,0.00000000000000000e+00,5.61957836151123047e-01,0.00000000000000000e+00,0.00000000000000000e+00],"parents":[2147483647,0,0,2,2,4,4,5,5,6,6,8,8,12,12],"right_children":[2,-1,4,-1,6,8,10,-1,12,-1,-1,-1,14,-1,-1],"split_conditions":[4.47354167699813843e-01,2.68784761428833008e-01,1.04689431190490723e+00,2.60684311389923096e-01,3.07898461818695068e-01,6.66710734367370605e-01,1.20932245254516602e+00,-1.24318674206733704e-01,7.64082789421081543e-01,1.16394266486167908e-01,-1.19205899536609650e-01,-8.60468670725822449e-02,4.28797304630279541e-01,2.30294540524482727e-01,9.03652459383010864e-02],"split_indices":[92,0,100,0,33,374,217,0,236,0,0,0,335,0,0],"sum_hessian":[4.68982925415039062e+01,3.14415931701660156e+00,4.37541351318359375e+01,2.37308454513549805e+00,4.13810501098632812e+01,2.14823398590087891e+01,1.98987083435058594e+01,2.33399629592895508e+00,1.91483440399169922e+01,1.52093124389648438e+00,1.83777770996093750e+01,1.06967163085937500e+00,1.80786724090576172e+01,3.26314115524291992e+00,1.48155317306518555e+01],"tree_param":{"num_feature":"392","num_nodes":"15","size_leaf_vector":"0"}},{"base_weights":[-5.69961182773113251e-02,-4.95799958705902100e-01,4.76986676454544067e-01,9.36597347259521484e-01,3.52613478899002075e-01,8.16929161548614502e-01,2.08350554108619690e-01,8.16929161548614502e-01,8.42105969786643982e-03,7.93020784854888916e-01,-2.81919240951538086e-01,4.95038598775863647e-01,-4.76235836744308472e-01],"default_left":[true,false,false,false,false,false,false,false,false,false,false,false,false],"id":49,"leaf_child_counts":[1,0,1,0,1,0,1,0,1,0,2,0,0],"left_children":[1,-1,3,-1,5,-1,7,-1,9,-1,11,-1,-1],"loss_changes":[7.96919536590576172e+00,0.00000000000000000e+00,5.49826145172119141e-01,0.00000000000000000e+00,7.48862504959106445e-01,0.00000000000000000e+00,1.43015980720520020e+00,0.00000000000000000e+00,2.47891736030578613e+00,0.00000000000000000e+00,1.43814766407012939e+00,0.00000000000000000e+00,0.00000000000000000e+00],"parents":[2147483647,0,0,2,2,4,4,6,6,8,8,10,10],"right_children":[2,-1,4,-1,6,-1,8,-1,10,-1,12,-1,-1],"split_conditions":[1.75966978073120117e-01,-1.48739993572235107e-01,8.71074080467224121e-01,2.80979216098785400e-01,1.39229488372802734e+00,2.45078757405281067e-01,1.41811633110046387e+00,2.45078757405281067e-01,1.29401850700378418e+00,2.37906247377395630e-01,8.04393529891967773e-01,1.48511588573455811e-01,-1.42870754003524780e-01],"split_indices":[33,0,104,0,42,0,43,0,148,0,243,0,0],"sum_hessian":[3.20015106201171875e+01,1.76055450439453125e+01,1.43959655761718750e+01,1.67512881755828857e+00,1.27208366394042969e+01,1.91015362739562988e+00,1.08106832504272461e+01,1.91015362739562988e+00,8.90052890777587891e+00,1.93638873100280762e+00,6.96414041519165039e+00,1.08365464210510254e+00,5.88048553466796875e+00],"tree_param":{"num_feature":"392","num_nodes":"13","size_leaf_vector":"0"}},{"base_weights":[-1.50208383798599243e-01,-4.96771514415740967e-01,4.27810013294219971e-01,8.73649239540100098e-01,1.97994872927665710e-01,8.30675721168518066e-01,-6.86571300029754639e-02,3.45023006200790405e-01,-2.64532297849655151e-01,-3.92593026161193848e-01,-4.73879836499691010e-03],"default_left":[true,false,false,false,false,false,false,false,false,false,false],"id":50,"leaf_child_counts":[1,0,1,0,1,0,1,0,2,0,0],"left_children":[1,-1,3,-1,5,-1,7,-1,9,-1,-1],"loss_changes":[6.29063701629638672e+00,0.00000000000000000e+00,1.04737639427185059e+00,0.00000000000000000e+00,1.60107958316802979e+00,0.00000000000000000e+00,6.87835872173309326e-01,0.00000000000000000e+00,1.83201164007186890e-01,0.00000000000000000e+00,0.00000000000000000e+00],"parents":[2147483647,0,0,2,2,4,4,6,6,8,8],"right_children":[2,-1,4,-1,6,-1,8,-1,10,-1,-1],"split_conditions":[1.98013931512832642e-01,-1.49031460285186768e-01,1.05987739562988281e+00,2.62094795703887939e-01,1.41867780685424805e+00,2.49202728271484375e-01,2.10093975067138672e-01,1.03506907820701599e-01,2.88002133369445801e-01,-1.17777913808822632e-01,-1.42163957934826612e-03],"split_indices":[33,0,57,0,52,0,33,0,33,0,0],"sum_hessian":[2.93420391082763672e+01,1.84315662384033203e+01,1.09104738235473633e+01,2.75815296173095703e+00,8.15232086181640625e+00,1.79000341892242432e+00,6.36231708526611328e+00,1.79979097843170166e+00,4.56252622604370117e+00,2.71368741989135742e+00,1.84883880615234375e+00],"tree_param":{"num_feature":"392","num_nodes":"11","size_leaf_vector":"0"}},{"base_weights":[2.96309478580951691e-02,-2.46404409408569336e-01,3.55763673782348633e-01,-3.16632300615310669e-01,4.56314116716384888e-01,1.05173134803771973e+00,2.53472954034805298e-01,-4.34965431690216064e-01,-2.54778653383255005e-01,9.25345361232757568e-01,1.47329583764076233e-01,8.86544492095708847e-03,6.34868383407592773e-01,3.56613963842391968e-01,-1.45467579364776611e-01,8.19637954235076904e-01,1.19842000305652618e-01,5.76403975486755371e-01,1.20338246226310730e-01,-3.60767155885696411e-01,2.25372672080993652e-01],"default_left":[true,true,false,false,false,false,false,false,false,false,true,false,true,false,false,false,false,false,false,false,false],"id":51,"leaf_child_counts":[0,1,1,2,0,0,1,0,0,0,0,0,2,2,2,0,0,0,0,0,0],"left_children":[1,3,5,7,-1,-1,9,-1,-1,-1,11,13,15,17,19,-1,-1,-1,-1,-1,-1],"loss_changes":[3.75601720809936523e+00,1.26277065277099609e+00,1.09233999252319336e+00,4.42886352539062500e-02,0.00000000000000000e+00,0.00000000000000000e+00,1.14447855949401855e+00,0.00000000000000000e+00,0.00000000000000000e+00,0.00000000000000000e+00,1.12166881561279297e+00,8.04294466972351074e-01,2.51915097236633301e-01,1.69475793838500977e-01,9.13292527198791504e-01,0.00000000000000000e+00,0.00000000000000000e+00,0.00000000000000000e+00,0.00000000000000000e+00,0.00000000000000000e+00,0.00000000000000000e+00],"parents":[2147483647,0,0,1,1,2,2,3,3,6,6,10,10,11,11,12,12,13,13,14,14],"right_children":[2,4,6,8,-1,-1,10,-1,-1,-1,12,14,16,18,20,-1,-1,-1,-1,-1,-1],"split_conditions":[1.58546328544616699e-01,2.87725090980529785e-01,8.18540394306182861e-01,7.32430338859558105e-01,1.36894240975379944e-01,3.15519422292709351e-01,1.11182570457458496e+00,-1.30489632487297058e-01,-7.64335989952087402e-02,2.77603626251220703e-01,2.58055865764617920e-01,1.94872930645942688e-01,3.47164452075958252e-01,1.69661492109298706e-01,2.61312484741210938e-01,2.45891392230987549e-01,3.59526015818119049e-02,1.72921195626258850e-01,3.61014753580093384e-02,-1.08230151236057281e-01,6.76118060946464539e-02],"split_indices":[33,328,328,340,0,0,50,0,0,0,374,33,156,33,33,0,0,0,0,0,0],"sum_hessian":[3.97485656738281250e+01,2.16601238250732422e+01,1.80884399414062500e+01,2.01916427612304688e+01,1.46848249435424805e+00,1.12850487232208252e+00,1.69599342346191406e+01,4.86059331893920898e+00,1.53310489654541016e+01,1.26087784767150879e+00,1.56990575790405273e+01,1.30195932388305664e+01,2.67946362495422363e+00,3.59916090965270996e+00,9.42043304443359375e+00,1.53670930862426758e+00,1.14275443553924561e+00,1.11884319782257080e+00,2.48031759262084961e+00,5.97732591629028320e+00,3.44310688972473145e+00],"tree_param":{"num_feature":"392","num_nodes":"21","size_leaf_vector":"0"}},{"base_weights":[2.57189269177615643e-03,1.23583316802978516e+00,-8.61620157957077026e-02,7.89803266525268555e-01,-2.18213841319084167e-01,7.74507880210876465e-01,-3.61443608999252319e-01,-4.24698114395141602e-01,4.33314710855484009e-01],"default_left":[false,false,false,false,false,false,true,false,false],"id":52,"leaf_child_counts":[1,0,1,0,1,0,2,0,0],"left_children":[1,-1,3,-1,5,-1,7,-1,-1],"loss_changes":[3.82349491119384766e+00,0.00000000000000000e+00,3.94574880599975586e+00,0.00000000000000000e+00,4.42205905914306641e+00,0.00000000000000000e+00,1.49814462661743164e+00,0.00000000000000000e+00,0.00000000000000000e+00],"parents":[2147483647,0,0,2,2,4,4,6,6],"right_children":[2,-1,4,-1,6,-1,8,-1,-1],"split_conditions":[2.00000095367431641e+00,3.70749950408935547e-01,2.00000095367431641e+00,2.36940994858741760e-01,2.00000095367431641e+00,2.32352375984191895e-01,3.11164438724517822e-01,-1.27409443259239197e-01,1.29994422197341919e-01],"split_indices":[121,0,127,0,200,0,4,0,0],"sum_hessian":[3.29663848876953125e+01,1.34504032135009766e+00,3.16213455200195312e+01,3.48992586135864258e+00,2.81314182281494141e+01,2.99130630493164062e+00,2.51401119232177734e+01,2.37180309295654297e+01,1.42208230495452881e+00],"tree_param":{"num_feature":"392","num_nodes":"9","size_leaf_vector":"0"}},{"base_weights":[-9.89190861582756042e-03,8.90242159366607666e-01,-1.02832406759262085e-01,-1.79305821657180786e-01,9.03189063072204590e-01,-4.48543399572372437e-01,-1.09875544905662537e-01,-4.32682037353515625e-01,-3.10109890997409821e-02,-2.73660391569137573e-01,-8.91005154699087143e-03],"default_left":[false,false,true,false,false,false,false,false,false,false,false],"id":53,"leaf_child_counts":[1,0,1,1,0,0,1,0,2,0,0],"left_children":[1,-1,3,5,-1,-1,7,-1,9,-1,-1],"loss_changes":[3.50310564041137695e+00,0.00000000000000000e+00,3.07461500167846680e+00,6.24030232429504395e-01,0.00000000000000000e+00,0.00000000000000000e+00,7.49285221099853516e-01,0.00000000000000000e+00,1.32458359003067017e-01,0.00000000000000000e+00,0.00000000000000000e+00],"parents":[2147483647,0,0,2,2,3,3,6,6,8,8],"right_children":[2,-1,4,6,-1,-1,8,-1,10,-1,-1],"split_conditions":[2.00000095367431641e+00,2.67072647809982300e-01,7.43491291999816895e-01,6.83763444423675537e-01,2.70956724882125854e-01,-1.34563028812408447e-01,7.32430338859558105e-01,-1.29804611206054688e-01,8.79759430885314941e-01,-8.20981189608573914e-02,-2.67301546409726143e-03],"split_indices":[177,0,304,33,0,0,340,0,374,0,0],"sum_hessian":[3.97793960571289062e+01,2.92003774642944336e+00,3.68593597412109375e+01,3.50191230773925781e+01,1.84023535251617432e+00,6.05984354019165039e+00,2.89592800140380859e+01,4.80503416061401367e+00,2.41542453765869141e+01,1.06618189811706543e+00,2.30880641937255859e+01],"tree_param":{"num_feature":"392","num_nodes":"11","size_leaf_vector":"0"}},{"base_weights":[1.68876364827156067e-01,-4.48543399572372437e-01,2.64449298381805420e-01,-4.41364049911499023e-01,3.72281223535537720e-01,1.21260309219360352e+00,3.05923461914062500e-01,7.53573596477508545e-01,2.21505492925643921e-01,9.57595825195312500e-01,1.48265317082405090e-01,8.41183781623840332e-01,5.99617250263690948e-02],"default_left":[false,false,false,false,false,false,false,false,false,false,false,false,false],"id":54,"leaf_child_counts":[1,0,1,0,1,0,1,0,1,0,2,0,0],"left_children":[1,-1,3,-1,5,-1,7,-1,9,-1,11,-1,-1],"loss_changes":[3.06319522857666016e+00,0.00000000000000000e+00,3.50101375579833984e+00,0.00000000000000000e+00,1.77995061874389648e+00,0.00000000000000000e+00,1.23460721969604492e+00,0.00000000000000000e+00,1.61658585071563721e+00,0.00000000000000000e+00,1.83723735809326172e+00,0.00000000000000000e+00,0.00000000000000000e+00],"parents":[2147483647,0,0,2,2,4,4,6,6,8,8,10,10],"right_children":[2,-1,4,-1,6,-1,8,-1,10,-1,12,-1,-1],"split_conditions":[6.83763444423675537e-01,-1.34563028812408447e-01,7.32430338859558105e-01,-1.32409214973449707e-01,2.00000095367431641e+00,3.63780945539474487e-01,2.00000095367431641e+00,2.26072087883949280e-01,2.00000095367431641e+00,2.87278771400451660e-01,1.10247039794921875e+00,2.52355158329010010e-01,1.79885178804397583e-02],"split_indices":[33,0,340,0,73,0,66,0,206,0,130,0,0],"sum_hessian":[4.89008216857910156e+01,6.05984354019165039e+00,4.28409767150878906e+01,5.26776599884033203e+00,3.75732116699218750e+01,1.48567175865173340e+00,3.60875396728515625e+01,4.46800279617309570e+00,3.16195373535156250e+01,1.76870179176330566e+00,2.98508338928222656e+01,2.41039752960205078e+00,2.74404373168945312e+01],